svm_type c_svc
kernel_type rbf
gamma 0.111111
nr_class 2
total_sv 298
rho -1.10856
label 0 1
nr_sv 150 148
SV
1 5:1 6:0.115385 
1 2:0.0909091 3:0.0357143 4:0.0769231 5:1 6:0.153846 8:0.105263 
1 2:0.181818 5:1 6:0.346154 8:0.105263 
1 2:0.0909091 3:0.0714286 4:0.0769231 5:1 6:0.153846 8:0.0526316 
1 2:0.0909091 3:0.0714286 5:1 6:0.115385 8:0.0526316 
0.4886754238383293 5:1 6:0.423077 9:1 
1 2:0.0909091 5:1 6:0.153846 
1 3:0.107143 5:1 6:0.230769 9:1 
1 2:0.0909091 5:1 6:0.0384615 
1 2:0.0909091 5:1 6:0.115385 
1 3:0.25 4:0.0384615 5:1 6:0.384615 9:1 
1 5:1 6:0.0384615 
1 3:0.0714286 5:1 6:0.115385 9:1 
1 1:1 5:1 6:0.0384615 
1 1:1 5:1 6:0.0769231 7:0.0217391 
1 3:0.107143 4:0.115385 5:1 6:0.115385 
1 3:0.214286 4:0.115385 5:1 6:0.115385 
1 3:0.0714286 4:0.115385 5:1 6:0.115385 7:0.0217391 
1 4:0.0769231 5:1 6:0.269231 
1 3:0.0357143 4:0.0769231 5:1 6:0.153846 7:0.0217391 
1 3:0.107143 4:0.0769231 5:1 6:0.0769231 7:0.0217391 
1 3:0.0357143 4:0.0769231 5:1 6:0.192308 
1 4:0.0769231 5:1 6:0.0384615 7:0.0217391 
1 1:1 4:0.0769231 5:1 6:0.269231 7:0.0217391 
1 4:0.0769231 5:1 6:0.115385 7:0.0217391 
1 4:0.0769231 5:1 6:0.192308 7:0.0652174 
1 5:1 6:0.0384615 
1 3:0.178571 5:1 6:0.0769231 9:1 
1 5:1 6:0.0769231 7:0.0652174 
1 2:0.0909091 4:0.0769231 5:1 6:0.115385 
1 1:1 2:0.0909091 3:0.0357143 5:1 6:0.0384615 
1 2:0.0909091 
1 2:0.0909091 5:1 6:0.115385 8:0.0526316 
1 4:0.0769231 5:1 6:0.153846 7:0.0434783 8:0.0526316 
1 5:1 6:0.230769 
1 5:1 6:0.230769 7:0.0869565 8:0.0526316 
0.3790635275263301 3:0.0357143 5:1 6:0.0384615 7:0.0434783 9:1 
1 3:0.0714286 5:1 6:0.153846 7:0.0434783 9:1 
0.3794886549374564 4:0.0384615 8:0.105263 
0.6079052170671226 3:0.0357143 4:0.0769231 7:0.130435 
1 2:0.0909091 4:0.0769231 5:1 6:0.230769 8:0.157895 
1 4:0.0384615 5:1 6:0.0769231 8:0.157895 
1 2:0.0909091 4:0.0384615 
1 4:0.0384615 5:1 6:0.115385 
1 1:1 2:0.0909091 5:1 6:0.0769231 
1 2:0.181818 3:0.178571 4:0.0384615 5:1 6:0.346154 
1 2:0.0909091 4:0.0384615 5:1 6:0.230769 
1 2:0.0909091 4:0.0384615 5:1 6:0.0384615 
1 2:0.0909091 4:0.0384615 5:1 6:0.230769 
1 2:0.0909091 4:0.0384615 5:1 6:0.0769231 
1 2:0.0909091 4:0.0384615 5:1 6:0.115385 
1 2:0.0909091 4:0.0384615 5:1 6:0.192308 
1 2:0.0909091 4:0.0384615 5:1 6:0.192308 
1 2:0.0909091 4:0.0384615 5:1 6:0.0769231 
1 2:0.0909091 4:0.0384615 
1 2:0.0909091 4:0.0384615 
1 2:0.0909091 4:0.0384615 5:1 6:0.0384615 
1 7:0.0434783 
1 2:0.0909091 4:0.0384615 5:1 6:0.115385 
1 2:0.0909091 4:0.0384615 5:1 6:0.115385 
1 5:1 6:0.346154 8:0.0526316 
1 2:0.0909091 4:0.192308 5:1 6:0.269231 
1 3:0.0357143 5:1 6:0.423077 9:1 
1 1:1 2:0.0909091 5:1 6:0.0769231 8:0.105263 
1 2:0.0909091 4:0.0384615 5:1 6:0.153846 8:0.0526316 
1 2:0.0909091 4:0.0384615 5:1 6:0.153846 8:0.105263 
1 2:0.0909091 5:1 6:0.115385 
1 2:0.0909091 4:0.0769231 5:1 6:0.115385 8:0.0526316 
1 2:0.0909091 5:1 6:0.269231 
1 5:1 6:0.0384615 
1 1:1 5:1 6:0.115385 
1 2:0.0909091 5:1 6:0.0384615 
1 4:0.153846 5:1 6:0.0769231 7:0.0217391 8:0.0526316 
1 2:0.0909091 4:0.0384615 5:1 6:0.0769231 
1 4:0.0769231 5:1 6:0.0769231 7:0.0217391 
0.7890924813441322 4:0.0769231 7:0.0217391 
1 4:0.0769231 5:1 6:0.0384615 7:0.0869565 
1 4:0.0769231 5:1 6:0.0384615 7:0.0217391 
1 4:0.0769231 5:1 6:0.0384615 7:0.0217391 
1 4:0.0769231 7:0.0217391 
1 4:0.0769231 7:0.0217391 
1 4:0.0769231 5:1 6:0.0769231 7:0.0217391 
1 4:0.0769231 7:0.0217391 
1 4:0.0769231 
1 1:1 5:1 6:0.230769 7:0.0217391 
1 1:1 5:1 6:0.0384615 7:0.0652174 
1 5:1 6:0.0384615 7:0.0217391 
1 2:0.0909091 4:0.0769231 5:1 6:0.115385 8:0.0526316 
1 2:0.0909091 4:0.0769231 5:1 6:0.115385 8:0.0526316 
1 2:0.0909091 4:0.0769231 5:1 6:0.115385 8:0.0526316 
1 2:0.0909091 5:1 6:0.0384615 
1 2:0.0909091 4:0.0769231 5:1 6:0.115385 8:0.0526316 
1 2:0.0909091 4:0.0384615 5:1 6:0.153846 8:0.0526316 
1 2:0.0909091 4:0.0769231 5:1 6:0.192308 8:0.0526316 
1 4:0.0384615 
1 2:0.0909091 4:0.0769231 5:1 6:0.0384615 8:0.0526316 
1 2:0.0909091 4:0.0769231 5:1 6:0.0384615 8:0.0526316 
1 5:1 6:0.115385 7:0.0217391 
1 2:0.0909091 3:0.0357143 5:1 6:0.0384615 8:0.0526316 
1 
1 5:1 6:0.0384615 
1 2:0.0909091 3:0.0357143 4:0.0384615 5:1 6:0.0384615 
1 5:1 6:0.0384615 7:0.0217391 
1 7:0.0217391 
1 1:1 5:1 6:0.0384615 7:0.0434783 
1 5:1 6:0.0769231 
1 7:0.0652174 
1 1:1 2:0.0909091 4:0.0384615 5:1 6:0.0769231 
1 2:0.0909091 
1 1:1 4:0.0384615 5:1 6:0.115385 
1 
1 
1 1:1 4:0.0384615 5:1 6:0.115385 
1 4:0.0384615 5:1 6:0.0769231 
1 1:1 4:0.0384615 5:1 6:0.115385 
1 1:1 4:0.0384615 5:1 6:0.153846 
1 4:0.0384615 5:1 6:0.153846 
1 1:1 4:0.0384615 5:1 6:0.269231 
1 1:1 5:1 6:0.0769231 7:0.0217391 
1 1:1 4:0.0384615 5:1 6:0.192308 
1 1:1 5:1 6:0.153846 7:0.0217391 
1 2:0.0909091 3:0.0357143 5:1 6:0.153846 
1 2:0.0909091 3:0.0357143 5:1 6:0.0769231 
1 
1 2:0.0909091 3:0.0357143 4:0.0769231 5:1 6:0.346154 
1 1:1 2:0.0909091 4:0.0769231 5:1 6:0.153846 
1 5:1 6:0.0384615 
1 2:0.0909091 3:0.0357143 4:0.0769231 5:1 6:0.115385 
1 2:0.0909091 5:1 6:0.192308 7:0.0217391 
1 3:0.178571 5:1 6:0.153846 9:1 
1 2:0.0909091 3:0.0357143 4:0.153846 5:1 6:0.0769231 
0.01848673061763904 3:0.0357143 5:1 6:0.0769231 7:0.0434783 9:1 
1 1:1 4:0.0769231 5:1 6:0.153846 
1 
1 5:1 6:0.0384615 
1 
1 
1 5:1 6:0.115385 7:0.0434783 
1 1:1 4:0.0769231 5:1 6:0.0384615 
0.9342625734265558 5:1 6:0.0769231 9:1 
0.1676334359452507 5:1 6:0.192308 9:1 
1 7:0.0217391 
1 
1 5:1 6:0.0769231 
1 8:0.0526316 
1 2:0.0909091 3:0.0357143 5:1 6:0.153846 8:0.0526316 
1 2:0.0909091 5:1 6:0.230769 8:0.0526316 
1 2:0.0909091 3:0.0357143 5:1 6:0.0769231 8:0.0526316 
1 5:1 6:0.0769231 8:0.0526316 
1 2:0.0909091 5:1 6:0.0384615 8:0.0526316 
-1 5:1 6:0.0384615 8:0.0526316 
-0.7325578512876262 5:1 6:0.0384615 
-1 5:1 6:0.0384615 
-1 5:1 6:0.0384615 
-1 4:0.0384615 5:1 6:0.0384615 
-1 4:0.0769231 5:1 6:0.153846 
-0.06505944939882341 5:1 6:0.192308 8:0.105263 
-1 5:1 6:0.0384615 
-1 1:1 5:1 6:0.0769231 
-1 1:1 5:1 6:0.153846 8:0.0526316 
-1 5:1 6:0.0384615 
-1 1:1 5:1 6:0.192308 
-1 4:0.115385 5:1 6:0.153846 8:0.105263 
-1 5:1 6:0.0769231 8:0.105263 
-1 4:0.0769231 5:1 6:0.0769231 8:0.0526316 
-1 4:0.115385 5:1 6:0.192308 
-1 5:1 6:0.384615 
-1 4:0.0769231 5:1 6:0.269231 
-1 3:0.25 4:0.0769231 5:1 6:0.0384615 
-1 2:0.0909091 4:0.0384615 5:1 6:0.192308 8:0.105263 
-1 1:1 3:0.0714286 4:0.0769231 5:1 6:0.230769 
-1 4:0.0769231 5:1 6:0.192308 
-1 2:0.0909091 4:0.0384615 5:1 6:0.0769231 
-1 2:0.0909091 5:1 6:0.115385 
-1 1:1 3:0.178571 5:1 6:0.0769231 7:0.0217391 
-1 1:1 3:0.142857 7:0.0434783 
-1 2:0.0909091 5:1 6:0.0769231 
-1 2:0.0909091 5:1 6:0.0769231 8:0.105263 
-1 4:0.0384615 5:1 6:0.0384615 7:0.0217391 
-1 2:0.0909091 5:1 6:0.0769231 
-1 4:0.0769231 5:1 6:0.192308 
-1 2:0.0909091 4:0.0384615 5:1 6:0.346154 
-1 4:0.0384615 5:1 6:0.0769231 7:0.0217391 
-1 1:1 5:1 6:0.346154 7:0.0652174 
-1 3:0.0357143 4:0.192308 5:1 6:0.461538 
-1 1:1 5:1 6:0.269231 
-1 4:0.0384615 5:1 6:0.0769231 
-1 2:0.181818 4:0.0384615 5:1 6:0.115385 
-1 5:1 6:0.153846 8:0.157895 
-1 2:0.181818 
-1 2:0.0909091 3:0.0357143 5:1 6:0.0769231 
-0.8942405702403484 4:0.0769231 5:1 6:0.192308 
-1 2:0.181818 5:1 6:0.0384615 
-1 5:1 6:0.0384615 7:0.0217391 
-1 4:0.0769231 
-1 2:0.0909091 3:0.0357143 4:0.0769231 7:0.0434783 
-1 1:1 2:0.0909091 3:0.0357143 5:1 6:0.0384615 
-1 2:0.0909091 4:0.0384615 5:1 6:0.0384615 
-1 4:0.0384615 5:1 6:0.0384615 
-1 2:0.0909091 5:1 6:0.0384615 
-1 2:0.0909091 5:1 6:0.0769231 
-1 2:0.0909091 5:1 6:0.153846 8:0.0526316 
-1 2:0.0909091 5:1 6:0.0769231 8:0.0526316 
-1 5:1 6:0.0769231 8:0.0526316 
-1 1:1 5:1 6:0.0384615 7:0.0869565 
-1 4:0.384615 5:1 6:0.0769231 
-1 2:0.0909091 5:1 6:0.0769231 
-1 3:0.0357143 5:1 6:0.0769231 7:0.130435 
-1 2:0.0909091 5:1 6:0.0769231 7:0.0652174 
-1 1:1 2:0.0909091 3:0.0714286 5:1 6:0.115385 
-1 1:1 2:0.0909091 5:1 6:0.115385 
-1 2:0.0909091 4:0.0384615 5:1 6:0.192308 
-1 2:0.0909091 5:1 6:0.153846 
-1 4:0.115385 5:1 6:0.230769 
-1 2:0.0909091 4:0.0384615 5:1 6:0.153846 
-1 2:0.0909091 7:0.0217391 8:0.0526316 
-1 4:0.0384615 5:1 6:0.0769231 7:0.0217391 
-1 3:0.392857 5:1 6:0.0769231 
-1 3:0.0357143 4:0.0384615 5:1 6:0.5 
-1 5:1 6:0.0384615 
-1 2:0.0909091 5:1 6:0.0384615 
-1 5:1 6:0.0384615 7:0.0652174 
-1 3:0.0357143 4:0.0384615 5:1 6:0.423077 
-1 2:0.0909091 4:0.0384615 5:1 6:0.0384615 
-1 4:0.0384615 5:1 6:0.0384615 
-1 5:1 6:0.0384615 
-1 4:0.192308 5:1 6:0.115385 
-1 3:0.142857 4:0.115385 5:1 6:0.346154 
-1 1:1 2:0.0909091 3:0.0357143 4:0.0384615 5:1 6:0.192308 
-1 1:1 5:1 6:0.153846 
-1 2:0.0909091 4:0.115385 5:1 6:0.153846 
-1 2:0.0909091 5:1 6:0.0769231 
-0.3539448028735125 2:0.0909091 5:1 6:0.153846 
-1 5:1 6:0.384615 8:0.105263 
-1 3:0.321429 4:0.0384615 5:1 6:0.307692 
-1 2:0.0909091 3:0.0357143 4:0.0384615 5:1 6:0.115385 
-1 2:0.0909091 4:0.0769231 5:1 6:0.115385 
-1 3:0.0357143 4:0.115385 5:1 6:0.153846 7:0.0217391 
-1 4:0.0384615 5:1 6:0.0769231 
-1 5:1 6:0.0384615 
-1 5:1 6:0.0384615 
-1 2:0.0909091 3:0.0357143 5:1 6:0.0384615 
-1 2:0.0909091 5:1 6:0.115385 
-1 3:0.0357143 
-1 5:1 6:0.423077 
-1 4:0.0384615 5:1 6:0.0769231 7:0.0217391 
-1 4:0.0769231 5:1 6:0.0769231 7:0.0434783 
-1 5:1 6:0.0384615 7:0.0217391 
-1 4:0.0384615 8:0.0526316 
-1 4:0.0384615 5:1 6:0.0769231 
-1 4:0.115385 5:1 6:0.384615 
-1 4:0.0769231 
-1 4:0.115385 5:1 6:0.192308 7:0.0869565 
-1 4:0.115385 5:1 6:0.192308 7:0.108696 
-1 2:0.181818 4:0.0384615 5:1 6:0.115385 8:0.0526316 
-1 1:1 2:0.0909091 4:0.0384615 5:1 6:0.115385 
-1 5:1 6:0.0384615 
-1 4:0.0384615 5:1 6:0.0384615 
-1 1:1 4:0.0384615 5:1 6:0.307692 
-1 2:0.0909091 5:1 6:0.0384615 8:0.0526316 
-1 2:0.0909091 3:0.0357143 4:0.0384615 5:1 6:0.0769231 
-1 4:0.0384615 5:1 6:0.0384615 
-1 2:0.0909091 5:1 6:0.153846 7:0.0652174 8:0.0526316 
-0.7771605056846948 5:1 6:0.0769231 8:0.0526316 
-1 5:1 6:0.0384615 
-1 1:1 3:0.178571 5:1 6:0.0769231 
-1 2:0.0909091 5:1 6:0.0769231 8:0.0526316 
-1 2:0.0909091 4:0.0384615 5:1 6:0.115385 
-1 4:0.0384615 5:1 6:0.0769231 8:0.210526 
-1 4:0.0384615 
-1 2:0.0909091 3:0.0357143 5:1 6:0.0384615 7:0.0217391 8:0.0526316 
-1 2:0.0909091 3:0.0357143 5:1 6:0.0769231 7:0.0434783 8:0.0526316 
-1 7:0.0652174 
-1 4:0.0769231 5:1 6:0.0384615 
-1 5:1 6:0.0384615 
-1 
-1 
-1 4:0.0769231 5:1 6:0.115385 8:0.0526316 
-1 1:1 2:0.0909091 3:0.0357143 4:0.0384615 5:1 6:0.0384615 
-1 5:1 6:0.153846 8:0.105263 
-1 2:0.0909091 3:0.0357143 4:0.0769231 5:1 6:0.0769231 
-1 3:0.0357143 4:0.0384615 5:1 6:0.0769231 8:0.0526316 
-1 2:0.0909091 4:0.0384615 
-1 2:0.0909091 4:0.0384615 5:1 6:0.230769 
-1 4:0.0384615 
-1 1:1 2:0.0909091 3:0.0357143 5:1 6:0.153846 
-1 2:0.0909091 5:1 6:0.0769231 
-1 2:0.181818 4:0.0384615 5:1 6:0.153846 
-1 
-1 5:1 6:0.0384615 
-1 2:0.0909091 5:1 6:0.0769231 
-1 2:0.0909091 5:1 6:0.115385 
-1 2:0.0909091 4:0.0384615 5:1 6:0.0384615 
-1 4:0.0384615 5:1 6:0.0769231 
-1 5:1 6:0.0384615 
-1 3:0.0357143 
-1 2:0.181818 3:0.0714286 5:1 6:0.0769231 7:0.0652174 
-0.9416448652178114 5:1 6:0.0384615 
