svm_type c_svc
kernel_type rbf
gamma 0.1111111111111111
nr_class 2
total_sv 375
rho 0.5367140948318508
label 1 0
nr_sv 174 201
SV
1.0 1:0.0 2:0.0 3:0.0 4:0.0 5:1.0 6:1.0 7:0.0 8:1.0 9:0.0 
1.0 1:0.0 2:0.0 3:0.0 4:1.0 5:1.0 6:1.0 7:0.0 8:0.0 9:0.0 
1.0 1:0.0 2:0.0 3:0.0 4:2.0 5:1.0 6:4.0 7:0.0 8:0.0 9:0.0 
0.44581675386666497 1:0.0 2:0.0 3:0.0 4:0.0 5:1.0 6:5.0 7:0.0 8:2.0 9:0.0 
0.5227451168390489 1:0.0 2:0.0 3:0.0 4:0.0 5:1.0 6:1.0 7:0.0 8:0.0 9:0.0 
1.0 1:1.0 2:0.0 3:0.0 4:0.0 5:1.0 6:2.0 7:0.0 8:0.0 9:0.0 
1.0 1:1.0 2:0.0 3:0.0 4:0.0 5:1.0 6:4.0 7:0.0 8:1.0 9:0.0 
1.0 1:0.0 2:0.0 3:0.0 4:0.0 5:1.0 6:1.0 7:0.0 8:0.0 9:0.0 
1.0 1:1.0 2:0.0 3:0.0 4:0.0 5:1.0 6:5.0 7:0.0 8:0.0 9:0.0 
1.0 1:0.0 2:0.0 3:0.0 4:3.0 5:1.0 6:4.0 7:0.0 8:2.0 9:0.0 
0.8760861056180043 1:0.0 2:0.0 3:0.0 4:0.0 5:1.0 6:2.0 7:0.0 8:2.0 9:0.0 
1.0 1:0.0 2:0.0 3:0.0 4:2.0 5:1.0 6:2.0 7:0.0 8:1.0 9:0.0 
1.0 1:0.0 2:0.0 3:0.0 4:3.0 5:1.0 6:5.0 7:0.0 8:0.0 9:0.0 
0.7577195697300563 1:0.0 2:0.0 3:0.0 4:0.0 5:1.0 6:10.0 7:0.0 8:0.0 9:0.0 
1.0 1:0.0 2:0.0 3:0.0 4:2.0 5:1.0 6:7.0 7:0.0 8:0.0 9:0.0 
1.0 1:0.0 2:0.0 3:7.0 4:2.0 5:1.0 6:1.0 7:0.0 8:0.0 9:0.0 
1.0 1:0.0 2:0.0 3:3.0 4:0.0 5:1.0 6:4.0 7:0.0 8:0.0 9:0.0 
1.0 1:0.0 2:1.0 3:0.0 4:1.0 5:1.0 6:5.0 7:0.0 8:2.0 9:0.0 
1.0 1:1.0 2:0.0 3:2.0 4:2.0 5:1.0 6:6.0 7:0.0 8:0.0 9:0.0 
0.7865628261631302 1:0.0 2:0.0 3:0.0 4:2.0 5:1.0 6:5.0 7:0.0 8:0.0 9:0.0 
1.0 1:0.0 2:1.0 3:0.0 4:0.0 5:1.0 6:6.0 7:0.0 8:0.0 9:0.0 
1.0 1:0.0 2:1.0 3:0.0 4:1.0 5:1.0 6:2.0 7:0.0 8:0.0 9:0.0 
0.7749187978213611 1:1.0 2:0.0 3:5.0 4:0.0 5:1.0 6:2.0 7:1.0 8:0.0 9:0.0 
1.0 1:1.0 2:0.0 3:4.0 4:0.0 5:0.0 6:0.0 7:2.0 8:0.0 9:0.0 
1.0 1:0.0 2:1.0 3:0.0 4:0.0 5:1.0 6:2.0 7:0.0 8:2.0 9:0.0 
1.0 1:0.0 2:0.0 3:0.0 4:1.0 5:1.0 6:1.0 7:1.0 8:0.0 9:0.0 
1.0 1:0.0 2:0.0 3:0.0 4:2.0 5:1.0 6:5.0 7:0.0 8:0.0 9:0.0 
1.0 1:0.0 2:1.0 3:0.0 4:1.0 5:1.0 6:9.0 7:0.0 8:0.0 9:0.0 
1.0 1:0.0 2:0.0 3:0.0 4:1.0 5:1.0 6:2.0 7:1.0 8:0.0 9:0.0 
1.0 1:1.0 2:0.0 3:0.0 4:0.0 5:1.0 6:9.0 7:3.0 8:0.0 9:0.0 
0.6679828864425464 1:0.0 2:0.0 3:2.0 4:1.0 5:1.0 6:2.0 7:0.0 8:0.0 9:0.0 
1.0 1:0.0 2:0.0 3:1.0 4:5.0 5:1.0 6:12.0 7:0.0 8:0.0 9:0.0 
1.0 1:0.0 2:0.0 3:1.0 4:0.0 5:1.0 6:10.0 7:0.0 8:0.0 9:0.0 
1.0 1:1.0 2:0.0 3:0.0 4:0.0 5:1.0 6:7.0 7:0.0 8:0.0 9:0.0 
0.9086688851131173 1:0.0 2:0.0 3:0.0 4:1.0 5:1.0 6:2.0 7:0.0 8:0.0 9:0.0 
1.0 1:0.0 2:2.0 3:0.0 4:1.0 5:1.0 6:3.0 7:0.0 8:0.0 9:0.0 
1.0 1:0.0 2:0.0 3:0.0 4:0.0 5:1.0 6:4.0 7:0.0 8:3.0 9:0.0 
1.0 1:0.0 2:2.0 3:0.0 4:0.0 5:0.0 6:0.0 7:0.0 8:0.0 9:0.0 
0.5511642068511391 1:0.0 2:0.0 3:0.0 4:2.0 5:1.0 6:5.0 7:0.0 8:0.0 9:0.0 
1.0 1:0.0 2:2.0 3:0.0 4:0.0 5:1.0 6:1.0 7:0.0 8:0.0 9:0.0 
1.0 1:0.0 2:0.0 3:0.0 4:0.0 5:1.0 6:1.0 7:1.0 8:0.0 9:0.0 
1.0 1:0.0 2:0.0 3:0.0 4:2.0 5:0.0 6:0.0 7:0.0 8:0.0 9:0.0 
1.0 1:0.0 2:1.0 3:1.0 4:2.0 5:0.0 6:0.0 7:2.0 8:0.0 9:0.0 
1.0 1:1.0 2:1.0 3:1.0 4:0.0 5:1.0 6:1.0 7:0.0 8:0.0 9:0.0 
1.0 1:0.0 2:1.0 3:0.0 4:1.0 5:1.0 6:1.0 7:0.0 8:0.0 9:0.0 
1.0 1:0.0 2:0.0 3:0.0 4:1.0 5:1.0 6:1.0 7:0.0 8:0.0 9:0.0 
1.0 1:0.0 2:1.0 3:0.0 4:0.0 5:1.0 6:1.0 7:0.0 8:0.0 9:0.0 
0.4324672955234896 1:0.0 2:0.0 3:0.0 4:0.0 5:1.0 6:2.0 7:1.0 8:0.0 9:0.0 
0.5520728161158396 1:0.0 2:1.0 3:0.0 4:0.0 5:1.0 6:2.0 7:0.0 8:0.0 9:0.0 
1.0 1:0.0 2:1.0 3:1.0 4:0.0 5:1.0 6:5.0 7:0.0 8:1.0 9:0.0 
1.0 1:0.0 2:1.0 3:0.0 4:0.0 5:1.0 6:4.0 7:0.0 8:1.0 9:0.0 
1.0 1:0.0 2:1.0 3:0.0 4:0.0 5:1.0 6:2.0 7:0.0 8:1.0 9:0.0 
1.0 1:1.0 2:0.0 3:0.0 4:0.0 5:1.0 6:1.0 7:4.0 8:0.0 9:0.0 
1.0 1:0.0 2:0.0 3:0.0 4:10.0 5:1.0 6:2.0 7:0.0 8:0.0 9:0.0 
1.0 1:0.0 2:1.0 3:0.0 4:0.0 5:1.0 6:2.0 7:0.0 8:0.0 9:0.0 
1.0 1:0.0 2:0.0 3:1.0 4:0.0 5:1.0 6:2.0 7:6.0 8:0.0 9:0.0 
0.6009987899731453 1:0.0 2:1.0 3:0.0 4:0.0 5:1.0 6:2.0 7:3.0 8:0.0 9:0.0 
1.0 1:1.0 2:1.0 3:2.0 4:0.0 5:1.0 6:3.0 7:0.0 8:0.0 9:0.0 
1.0 1:0.0 2:0.0 3:0.0 4:0.0 5:1.0 6:6.0 7:4.0 8:0.0 9:0.0 
1.0 1:1.0 2:1.0 3:0.0 4:0.0 5:1.0 6:3.0 7:0.0 8:0.0 9:0.0 
1.0 1:0.0 2:0.0 3:0.0 4:1.0 5:1.0 6:5.0 7:1.0 8:0.0 9:0.0 
1.0 1:0.0 2:1.0 3:0.0 4:1.0 5:1.0 6:5.0 7:0.0 8:0.0 9:0.0 
0.9512753897735768 1:0.0 2:0.0 3:0.0 4:1.0 5:1.0 6:3.0 7:0.0 8:0.0 9:0.0 
0.1959559051695137 1:0.0 2:1.0 3:0.0 4:0.0 5:1.0 6:4.0 7:0.0 8:0.0 9:0.0 
1.0 1:0.0 2:0.0 3:0.0 4:3.0 5:1.0 6:6.0 7:0.0 8:0.0 9:0.0 
1.0 1:0.0 2:1.0 3:0.0 4:1.0 5:1.0 6:4.0 7:0.0 8:0.0 9:0.0 
1.0 1:0.0 2:1.0 3:0.0 4:0.0 5:0.0 6:0.0 7:1.0 8:1.0 9:0.0 
1.0 1:0.0 2:0.0 3:0.0 4:1.0 5:1.0 6:2.0 7:1.0 8:0.0 9:0.0 
1.0 1:0.0 2:0.0 3:11.0 4:0.0 5:1.0 6:2.0 7:0.0 8:0.0 9:0.0 
1.0 1:0.0 2:0.0 3:1.0 4:1.0 5:1.0 6:13.0 7:0.0 8:0.0 9:0.0 
1.0 1:0.0 2:0.0 3:0.0 4:0.0 5:1.0 6:1.0 7:0.0 8:0.0 9:0.0 
0.737849297003715 1:0.0 2:0.0 3:4.0 4:0.0 5:1.0 6:1.0 7:0.0 8:0.0 9:0.0 
1.0 1:0.0 2:1.0 3:0.0 4:0.0 5:1.0 6:1.0 7:0.0 8:0.0 9:0.0 
1.0 1:0.0 2:0.0 3:0.0 4:1.0 5:1.0 6:3.0 7:0.0 8:0.0 9:0.0 
1.0 1:0.0 2:0.0 3:0.0 4:0.0 5:1.0 6:1.0 7:3.0 8:0.0 9:0.0 
1.0 1:0.0 2:0.0 3:1.0 4:1.0 5:1.0 6:11.0 7:0.0 8:0.0 9:0.0 
1.0 1:0.0 2:1.0 3:0.0 4:1.0 5:1.0 6:1.0 7:0.0 8:0.0 9:0.0 
1.0 1:0.0 2:0.0 3:0.0 4:1.0 5:1.0 6:1.0 7:0.0 8:0.0 9:0.0 
1.0 1:0.0 2:0.0 3:0.0 4:0.0 5:1.0 6:1.0 7:0.0 8:0.0 9:0.0 
1.0 1:0.0 2:0.0 3:0.0 4:5.0 5:1.0 6:3.0 7:0.0 8:0.0 9:0.0 
1.0 1:0.0 2:0.0 3:4.0 4:3.0 5:1.0 6:9.0 7:0.0 8:0.0 9:0.0 
1.0 1:1.0 2:1.0 3:1.0 4:1.0 5:1.0 6:5.0 7:0.0 8:0.0 9:0.0 
1.0 1:0.0 2:0.0 3:0.0 4:1.0 5:1.0 6:4.0 7:1.0 8:0.0 9:0.0 
1.0 1:1.0 2:0.0 3:0.0 4:0.0 5:1.0 6:4.0 7:0.0 8:0.0 9:0.0 
1.0 1:0.0 2:1.0 3:0.0 4:3.0 5:1.0 6:4.0 7:0.0 8:0.0 9:0.0 
1.0 1:0.0 2:1.0 3:0.0 4:0.0 5:1.0 6:2.0 7:0.0 8:0.0 9:0.0 
1.0 1:0.0 2:1.0 3:0.0 4:0.0 5:1.0 6:4.0 7:0.0 8:0.0 9:0.0 
1.0 1:0.0 2:0.0 3:0.0 4:1.0 5:1.0 6:3.0 7:0.0 8:0.0 9:0.0 
1.0 1:0.0 2:0.0 3:0.0 4:0.0 5:1.0 6:10.0 7:0.0 8:2.0 9:0.0 
1.0 1:0.0 2:1.0 3:0.0 4:0.0 5:1.0 6:5.0 7:0.0 8:0.0 9:0.0 
1.0 1:0.0 2:0.0 3:0.0 4:1.0 5:1.0 6:6.0 7:1.0 8:0.0 9:0.0 
1.0 1:0.0 2:0.0 3:0.0 4:1.0 5:1.0 6:4.0 7:0.0 8:1.0 9:0.0 
0.33846540006638476 1:0.0 2:0.0 3:0.0 4:0.0 5:1.0 6:8.0 7:1.0 8:0.0 9:0.0 
1.0 1:0.0 2:0.0 3:9.0 4:1.0 5:1.0 6:8.0 7:0.0 8:0.0 9:0.0 
1.0 1:0.0 2:0.0 3:3.0 4:0.0 5:1.0 6:4.0 7:0.0 8:0.0 9:0.0 
1.0 1:0.0 2:1.0 3:1.0 4:1.0 5:1.0 6:3.0 7:0.0 8:0.0 9:0.0 
1.0 1:0.0 2:1.0 3:0.0 4:2.0 5:1.0 6:3.0 7:0.0 8:0.0 9:0.0 
1.0 1:0.0 2:0.0 3:1.0 4:3.0 5:1.0 6:4.0 7:1.0 8:0.0 9:0.0 
1.0 1:0.0 2:0.0 3:0.0 4:0.0 5:1.0 6:1.0 7:0.0 8:0.0 9:0.0 
1.0 1:0.0 2:0.0 3:0.0 4:0.0 5:1.0 6:1.0 7:0.0 8:0.0 9:0.0 
1.0 1:0.0 2:1.0 3:1.0 4:0.0 5:1.0 6:1.0 7:0.0 8:0.0 9:0.0 
1.0 1:0.0 2:0.0 3:1.0 4:0.0 5:0.0 6:0.0 7:0.0 8:0.0 9:0.0 
1.0 1:0.0 2:0.0 3:0.0 4:0.0 5:1.0 6:11.0 7:0.0 8:0.0 9:0.0 
1.0 1:0.0 2:0.0 3:0.0 4:1.0 5:1.0 6:2.0 7:1.0 8:0.0 9:0.0 
1.0 1:0.0 2:0.0 3:0.0 4:2.0 5:1.0 6:2.0 7:2.0 8:0.0 9:0.0 
1.0 1:0.0 2:0.0 3:0.0 4:0.0 5:1.0 6:1.0 7:1.0 8:0.0 9:0.0 
1.0 1:0.0 2:0.0 3:0.0 4:0.0 5:1.0 6:3.0 7:2.0 8:0.0 9:0.0 
1.0 1:0.0 2:0.0 3:0.0 4:1.0 5:0.0 6:0.0 7:0.0 8:1.0 9:0.0 
1.0 1:0.0 2:0.0 3:0.0 4:1.0 5:1.0 6:3.0 7:0.0 8:0.0 9:0.0 
1.0 1:0.0 2:0.0 3:0.0 4:3.0 5:1.0 6:10.0 7:0.0 8:0.0 9:0.0 
1.0 1:0.0 2:0.0 3:0.0 4:2.0 5:0.0 6:0.0 7:0.0 8:0.0 9:0.0 
1.0 1:0.0 2:0.0 3:1.0 4:2.0 5:1.0 6:4.0 7:0.0 8:0.0 9:0.0 
0.5442076367542011 1:0.0 2:0.0 3:1.0 4:1.0 5:1.0 6:4.0 7:0.0 8:1.0 9:0.0 
1.0 1:0.0 2:1.0 3:1.0 4:0.0 5:1.0 6:6.0 7:0.0 8:0.0 9:0.0 
1.0 1:0.0 2:0.0 3:0.0 4:3.0 5:1.0 6:5.0 7:4.0 8:0.0 9:0.0 
1.0 1:0.0 2:0.0 3:0.0 4:3.0 5:1.0 6:5.0 7:5.0 8:0.0 9:0.0 
1.0 1:0.0 2:2.0 3:0.0 4:1.0 5:1.0 6:3.0 7:0.0 8:1.0 9:0.0 
1.0 1:0.0 2:0.0 3:0.0 4:0.0 5:1.0 6:2.0 7:2.0 8:0.0 9:0.0 
1.0 1:1.0 2:1.0 3:0.0 4:1.0 5:1.0 6:3.0 7:0.0 8:0.0 9:0.0 
1.0 1:0.0 2:0.0 3:0.0 4:0.0 5:1.0 6:1.0 7:0.0 8:0.0 9:0.0 
1.0 1:0.0 2:0.0 3:0.0 4:1.0 5:1.0 6:1.0 7:0.0 8:0.0 9:0.0 
1.0 1:1.0 2:0.0 3:0.0 4:1.0 5:1.0 6:8.0 7:0.0 8:0.0 9:0.0 
1.0 1:0.0 2:1.0 3:0.0 4:0.0 5:1.0 6:1.0 7:0.0 8:1.0 9:0.0 
0.49419889711183634 1:0.0 2:0.0 3:0.0 4:0.0 5:1.0 6:7.0 7:0.0 8:0.0 9:0.0 
1.0 1:0.0 2:1.0 3:1.0 4:1.0 5:1.0 6:2.0 7:0.0 8:0.0 9:0.0 
1.0 1:0.0 2:0.0 3:0.0 4:1.0 5:1.0 6:1.0 7:0.0 8:0.0 9:0.0 
1.0 1:0.0 2:0.0 3:0.0 4:0.0 5:1.0 6:6.0 7:1.0 8:1.0 9:0.0 
1.0 1:0.0 2:1.0 3:0.0 4:0.0 5:1.0 6:4.0 7:3.0 8:1.0 9:0.0 
1.0 1:0.0 2:0.0 3:0.0 4:0.0 5:1.0 6:1.0 7:0.0 8:0.0 9:0.0 
1.0 1:0.0 2:0.0 3:0.0 4:0.0 5:1.0 6:3.0 7:3.0 8:0.0 9:0.0 
0.6853034633113989 1:1.0 2:0.0 3:5.0 4:0.0 5:1.0 6:2.0 7:0.0 8:0.0 9:0.0 
1.0 1:0.0 2:0.0 3:0.0 4:1.0 5:1.0 6:3.0 7:0.0 8:0.0 9:0.0 
1.0 1:0.0 2:1.0 3:0.0 4:0.0 5:1.0 6:2.0 7:0.0 8:1.0 9:0.0 
1.0 1:0.0 2:0.0 3:0.0 4:0.0 5:1.0 6:7.0 7:4.0 8:0.0 9:0.0 
1.0 1:0.0 2:1.0 3:0.0 4:1.0 5:1.0 6:3.0 7:0.0 8:0.0 9:0.0 
1.0 1:0.0 2:0.0 3:0.0 4:1.0 5:1.0 6:2.0 7:0.0 8:4.0 9:0.0 
1.0 1:0.0 2:0.0 3:0.0 4:0.0 5:1.0 6:4.0 7:4.0 8:0.0 9:0.0 
1.0 1:0.0 2:0.0 3:0.0 4:1.0 5:0.0 6:0.0 7:0.0 8:0.0 9:0.0 
1.0 1:0.0 2:1.0 3:1.0 4:0.0 5:1.0 6:1.0 7:1.0 8:1.0 9:0.0 
1.0 1:0.0 2:1.0 3:1.0 4:0.0 5:1.0 6:2.0 7:2.0 8:1.0 9:0.0 
1.0 1:0.0 2:0.0 3:0.0 4:0.0 5:0.0 6:0.0 7:3.0 8:0.0 9:0.0 
1.0 1:0.0 2:0.0 3:0.0 4:2.0 5:1.0 6:1.0 7:0.0 8:0.0 9:0.0 
1.0 1:0.0 2:0.0 3:0.0 4:0.0 5:1.0 6:1.0 7:0.0 8:0.0 9:0.0 
1.0 1:0.0 2:0.0 3:0.0 4:1.0 5:1.0 6:6.0 7:0.0 8:1.0 9:0.0 
1.0 1:0.0 2:0.0 3:0.0 4:0.0 5:0.0 6:0.0 7:0.0 8:0.0 9:0.0 
1.0 1:0.0 2:0.0 3:0.0 4:0.0 5:0.0 6:0.0 7:0.0 8:0.0 9:0.0 
1.0 1:0.0 2:0.0 3:0.0 4:2.0 5:1.0 6:3.0 7:0.0 8:1.0 9:0.0 
1.0 1:1.0 2:1.0 3:1.0 4:1.0 5:1.0 6:1.0 7:0.0 8:0.0 9:0.0 
1.0 1:0.0 2:1.0 3:1.0 4:2.0 5:1.0 6:2.0 7:0.0 8:0.0 9:0.0 
1.0 1:0.0 2:0.0 3:8.0 4:1.0 5:1.0 6:3.0 7:0.0 8:0.0 9:0.0 
1.0 1:0.0 2:0.0 3:1.0 4:1.0 5:1.0 6:2.0 7:0.0 8:1.0 9:0.0 
1.0 1:0.0 2:1.0 3:0.0 4:1.0 5:0.0 6:0.0 7:0.0 8:0.0 9:0.0 
1.0 1:0.0 2:1.0 3:0.0 4:1.0 5:1.0 6:6.0 7:0.0 8:0.0 9:0.0 
1.0 1:0.0 2:0.0 3:0.0 4:1.0 5:0.0 6:0.0 7:0.0 8:0.0 9:0.0 
1.0 1:0.0 2:1.0 3:1.0 4:1.0 5:1.0 6:5.0 7:0.0 8:0.0 9:0.0 
1.0 1:0.0 2:0.0 3:0.0 4:1.0 5:1.0 6:7.0 7:0.0 8:0.0 9:0.0 
1.0 1:1.0 2:1.0 3:1.0 4:0.0 5:1.0 6:4.0 7:0.0 8:0.0 9:0.0 
1.0 1:0.0 2:0.0 3:1.0 4:1.0 5:1.0 6:3.0 7:0.0 8:1.0 9:0.0 
1.0 1:0.0 2:1.0 3:1.0 4:0.0 5:1.0 6:4.0 7:2.0 8:0.0 9:0.0 
1.0 1:0.0 2:1.0 3:0.0 4:0.0 5:1.0 6:2.0 7:0.0 8:0.0 9:0.0 
1.0 1:0.0 2:2.0 3:0.0 4:1.0 5:1.0 6:4.0 7:0.0 8:0.0 9:0.0 
1.0 1:0.0 2:0.0 3:0.0 4:1.0 5:1.0 6:5.0 7:1.0 8:0.0 9:0.0 
0.5228655834452831 1:0.0 2:0.0 3:1.0 4:0.0 5:1.0 6:8.0 7:0.0 8:0.0 9:0.0 
1.0 1:0.0 2:0.0 3:0.0 4:0.0 5:0.0 6:0.0 7:0.0 8:0.0 9:0.0 
0.8761124290079612 1:0.0 2:1.0 3:0.0 4:0.0 5:1.0 6:4.0 7:0.0 8:0.0 9:0.0 
0.2366342280465509 1:0.0 2:0.0 3:6.0 4:1.0 5:1.0 6:1.0 7:0.0 8:0.0 9:0.0 
1.0 1:0.0 2:0.0 3:0.0 4:0.0 5:1.0 6:1.0 7:0.0 8:0.0 9:0.0 
1.0 1:0.0 2:1.0 3:0.0 4:0.0 5:1.0 6:2.0 7:0.0 8:0.0 9:0.0 
1.0 1:0.0 2:1.0 3:3.0 4:0.0 5:1.0 6:3.0 7:0.0 8:0.0 9:0.0 
1.0 1:0.0 2:1.0 3:0.0 4:1.0 5:1.0 6:1.0 7:0.0 8:0.0 9:0.0 
1.0 1:0.0 2:0.0 3:0.0 4:0.0 5:1.0 6:1.0 7:0.0 8:0.0 9:0.0 
1.0 1:0.0 2:0.0 3:1.0 4:0.0 5:0.0 6:0.0 7:0.0 8:0.0 9:0.0 
1.0 1:0.0 2:2.0 3:2.0 4:0.0 5:1.0 6:2.0 7:3.0 8:0.0 9:0.0 
1.0 1:0.0 2:0.0 3:0.0 4:0.0 5:1.0 6:1.0 7:0.0 8:0.0 9:0.0 
-0.5185886356967466 1:0.0 2:1.0 3:2.0 4:4.0 5:1.0 6:12.0 7:2.0 8:0.0 9:1.0 
-0.11535302054287536 1:0.0 2:1.0 3:3.0 4:4.0 5:1.0 6:6.0 7:0.0 8:0.0 9:1.0 
-0.34779833954371725 1:0.0 2:1.0 3:0.0 4:2.0 5:1.0 6:12.0 7:0.0 8:0.0 9:1.0 
-0.4446402386847445 1:0.0 2:0.0 3:0.0 4:1.0 5:1.0 6:4.0 7:3.0 8:0.0 9:1.0 
-0.6864656377206444 1:0.0 2:2.0 3:0.0 4:0.0 5:1.0 6:9.0 7:0.0 8:2.0 9:0.0 
-0.42494444780569895 1:0.0 2:1.0 3:0.0 4:6.0 5:1.0 6:6.0 7:0.0 8:0.0 9:1.0 
-1.0 1:0.0 2:0.0 3:0.0 4:0.0 5:1.0 6:5.0 7:0.0 8:1.0 9:1.0 
-0.03606233364795366 1:0.0 2:2.0 3:0.0 4:5.0 5:1.0 6:3.0 7:1.0 8:0.0 9:1.0 
-0.46274600850898506 1:0.0 2:0.0 3:3.0 4:2.0 5:1.0 6:19.0 7:3.0 8:0.0 9:1.0 
-1.0 1:0.0 2:1.0 3:2.0 4:2.0 5:1.0 6:4.0 7:0.0 8:1.0 9:0.0 
-0.35710879305045085 1:1.0 2:1.0 3:0.0 4:3.0 5:1.0 6:7.0 7:4.0 8:0.0 9:1.0 
-0.3823102678243929 1:0.0 2:2.0 3:2.0 4:2.0 5:0.0 6:0.0 7:0.0 8:0.0 9:0.0 
-1.0 1:0.0 2:0.0 3:0.0 4:0.0 5:1.0 6:5.0 7:4.0 8:0.0 9:1.0 
-1.0 1:0.0 2:1.0 3:2.0 4:0.0 5:1.0 6:3.0 7:0.0 8:1.0 9:0.0 
-0.019923313784947883 1:0.0 2:1.0 3:0.0 4:0.0 5:1.0 6:2.0 7:0.0 8:0.0 9:1.0 
-1.0 1:0.0 2:0.0 3:1.0 4:2.0 5:1.0 6:6.0 7:0.0 8:1.0 9:1.0 
-1.0 1:0.0 2:0.0 3:0.0 4:0.0 5:1.0 6:11.0 7:0.0 8:0.0 9:1.0 
-1.0 1:0.0 2:1.0 3:0.0 4:0.0 5:1.0 6:4.0 7:0.0 8:0.0 9:0.0 
-0.32437900428352834 1:0.0 2:3.0 3:3.0 4:6.0 5:1.0 6:9.0 7:1.0 8:0.0 9:1.0 
-1.0 1:0.0 2:0.0 3:3.0 4:0.0 5:1.0 6:6.0 7:0.0 8:0.0 9:1.0 
-1.0 1:0.0 2:1.0 3:0.0 4:0.0 5:1.0 6:1.0 7:0.0 8:0.0 9:0.0 
-1.0 1:0.0 2:1.0 3:0.0 4:0.0 5:1.0 6:3.0 7:0.0 8:0.0 9:0.0 
-0.3391353274266134 1:0.0 2:1.0 3:0.0 4:0.0 5:1.0 6:5.0 7:0.0 8:0.0 9:1.0 
-0.003823954955366437 1:0.0 2:1.0 3:1.0 4:2.0 5:1.0 6:11.0 7:0.0 8:1.0 9:1.0 
-0.5898897921241915 1:0.0 2:0.0 3:7.0 4:1.0 5:1.0 6:10.0 7:0.0 8:0.0 9:1.0 
-1.0 1:0.0 2:0.0 3:0.0 4:0.0 5:1.0 6:1.0 7:0.0 8:0.0 9:0.0 
-1.0 1:0.0 2:0.0 3:0.0 4:1.0 5:1.0 6:6.0 7:0.0 8:0.0 9:1.0 
-0.4631071733100449 1:1.0 2:2.0 3:17.0 4:0.0 5:1.0 6:10.0 7:0.0 8:0.0 9:1.0 
-1.0 1:0.0 2:0.0 3:2.0 4:0.0 5:1.0 6:3.0 7:0.0 8:0.0 9:1.0 
-1.0 1:1.0 2:0.0 3:0.0 4:0.0 5:1.0 6:1.0 7:0.0 8:0.0 9:0.0 
-1.0 1:1.0 2:0.0 3:0.0 4:0.0 5:1.0 6:2.0 7:1.0 8:0.0 9:0.0 
-0.32118448273369493 1:0.0 2:0.0 3:3.0 4:3.0 5:1.0 6:3.0 7:0.0 8:0.0 9:0.0 
-0.8331941975315065 1:0.0 2:1.0 3:1.0 4:3.0 5:1.0 6:13.0 7:0.0 8:0.0 9:1.0 
-1.0 1:0.0 2:0.0 3:6.0 4:3.0 5:1.0 6:3.0 7:0.0 8:0.0 9:0.0 
-0.8750161178673017 1:0.0 2:0.0 3:2.0 4:3.0 5:1.0 6:3.0 7:1.0 8:0.0 9:0.0 
-0.5463822006624552 1:0.0 2:0.0 3:0.0 4:3.0 5:1.0 6:9.0 7:1.0 8:1.0 9:1.0 
-0.21162652701407766 1:0.0 2:1.0 3:4.0 4:2.0 5:1.0 6:8.0 7:3.0 8:2.0 9:1.0 
-0.002514660181714393 1:0.0 2:1.0 3:0.0 4:3.0 5:1.0 6:14.0 7:1.0 8:0.0 9:1.0 
-1.0 1:0.0 2:0.0 3:0.0 4:2.0 5:1.0 6:7.0 7:0.0 8:0.0 9:0.0 
-1.0 1:0.0 2:0.0 3:1.0 4:2.0 5:1.0 6:4.0 7:1.0 8:0.0 9:0.0 
-1.0 1:0.0 2:0.0 3:3.0 4:2.0 5:1.0 6:2.0 7:1.0 8:0.0 9:0.0 
-1.0 1:0.0 2:0.0 3:1.0 4:2.0 5:1.0 6:5.0 7:0.0 8:0.0 9:0.0 
-1.0 1:0.0 2:0.0 3:0.0 4:2.0 5:1.0 6:1.0 7:1.0 8:0.0 9:0.0 
-1.0 1:1.0 2:0.0 3:0.0 4:2.0 5:1.0 6:7.0 7:1.0 8:0.0 9:0.0 
-1.0 1:0.0 2:0.0 3:0.0 4:2.0 5:1.0 6:3.0 7:1.0 8:0.0 9:0.0 
-1.0 1:0.0 2:0.0 3:0.0 4:2.0 5:1.0 6:5.0 7:3.0 8:0.0 9:0.0 
-1.0 1:0.0 2:0.0 3:0.0 4:0.0 5:1.0 6:1.0 7:0.0 8:0.0 9:0.0 
-1.0 1:0.0 2:0.0 3:5.0 4:0.0 5:1.0 6:2.0 7:0.0 8:0.0 9:1.0 
-1.0 1:0.0 2:0.0 3:0.0 4:0.0 5:1.0 6:2.0 7:3.0 8:0.0 9:0.0 
-1.0 1:0.0 2:1.0 3:0.0 4:2.0 5:1.0 6:3.0 7:0.0 8:0.0 9:0.0 
-1.0 1:1.0 2:1.0 3:1.0 4:0.0 5:1.0 6:1.0 7:0.0 8:0.0 9:0.0 
-0.5210899199579974 1:0.0 2:1.0 3:1.0 4:0.0 5:1.0 6:2.0 7:0.0 8:0.0 9:1.0 
-0.2717279579011536 1:0.0 2:0.0 3:0.0 4:2.0 5:1.0 6:6.0 7:0.0 8:1.0 9:1.0 
-1.0 1:0.0 2:2.0 3:0.0 4:0.0 5:1.0 6:1.0 7:0.0 8:0.0 9:1.0 
-1.0 1:0.0 2:0.0 3:0.0 4:0.0 5:1.0 6:2.0 7:0.0 8:0.0 9:1.0 
-1.0 1:0.0 2:1.0 3:0.0 4:0.0 5:0.0 6:0.0 7:0.0 8:0.0 9:0.0 
-1.0 1:0.0 2:1.0 3:0.0 4:0.0 5:1.0 6:3.0 7:0.0 8:1.0 9:0.0 
-1.0 1:0.0 2:0.0 3:0.0 4:2.0 5:1.0 6:4.0 7:2.0 8:1.0 9:0.0 
-1.0 1:0.0 2:0.0 3:0.0 4:0.0 5:1.0 6:6.0 7:0.0 8:0.0 9:0.0 
-1.0 1:0.0 2:0.0 3:0.0 4:0.0 5:1.0 6:6.0 7:4.0 8:1.0 9:0.0 
-1.0 1:0.0 2:0.0 3:1.0 4:0.0 5:1.0 6:1.0 7:2.0 8:0.0 9:1.0 
-1.0 1:0.0 2:0.0 3:0.0 4:1.0 5:0.0 6:0.0 7:0.0 8:2.0 9:0.0 
-0.7552663299973463 1:0.0 2:0.0 3:2.0 4:2.0 5:1.0 6:4.0 7:7.0 8:0.0 9:1.0 
-0.6641347055470602 1:0.0 2:0.0 3:1.0 4:2.0 5:0.0 6:0.0 7:6.0 8:0.0 9:0.0 
-0.5891151091064151 1:0.0 2:0.0 3:0.0 4:7.0 5:1.0 6:6.0 7:6.0 8:0.0 9:1.0 
-0.6820034095288505 1:0.0 2:1.0 3:0.0 4:2.0 5:1.0 6:6.0 7:0.0 8:3.0 9:0.0 
-1.0 1:0.0 2:0.0 3:0.0 4:1.0 5:1.0 6:2.0 7:0.0 8:3.0 9:0.0 
-0.7083064003199869 1:0.0 2:1.0 3:0.0 4:1.0 5:0.0 6:0.0 7:0.0 8:0.0 9:0.0 
-1.0 1:0.0 2:0.0 3:0.0 4:1.0 5:1.0 6:3.0 7:0.0 8:0.0 9:0.0 
-1.0 1:0.0 2:1.0 3:2.0 4:0.0 5:1.0 6:1.0 7:1.0 8:0.0 9:1.0 
-0.4735046338367249 1:0.0 2:0.0 3:0.0 4:0.0 5:1.0 6:3.0 7:2.0 8:0.0 9:1.0 
-0.11164700161129004 1:0.0 2:1.0 3:0.0 4:0.0 5:1.0 6:8.0 7:0.0 8:0.0 9:1.0 
-1.0 1:1.0 2:0.0 3:0.0 4:0.0 5:1.0 6:7.0 7:4.0 8:0.0 9:1.0 
-1.0 1:1.0 2:1.0 3:0.0 4:0.0 5:1.0 6:2.0 7:0.0 8:0.0 9:0.0 
-0.5205807181073988 1:0.0 2:1.0 3:0.0 4:1.0 5:1.0 6:11.0 7:0.0 8:1.0 9:1.0 
-0.4184943940281589 1:0.0 2:2.0 3:5.0 4:1.0 5:1.0 6:9.0 7:0.0 8:0.0 9:0.0 
-1.0 1:0.0 2:1.0 3:0.0 4:1.0 5:1.0 6:6.0 7:0.0 8:0.0 9:0.0 
-0.07435392369841967 1:0.0 2:1.0 3:2.0 4:1.0 5:1.0 6:8.0 7:0.0 8:0.0 9:1.0 
-1.0 1:0.0 2:1.0 3:0.0 4:1.0 5:1.0 6:1.0 7:0.0 8:0.0 9:0.0 
-1.0 1:0.0 2:1.0 3:0.0 4:1.0 5:1.0 6:6.0 7:0.0 8:0.0 9:0.0 
-1.0 1:0.0 2:1.0 3:0.0 4:1.0 5:1.0 6:2.0 7:0.0 8:0.0 9:0.0 
-0.33112447663394556 1:0.0 2:2.0 3:3.0 4:0.0 5:1.0 6:3.0 7:1.0 8:0.0 9:1.0 
-1.0 1:0.0 2:1.0 3:0.0 4:1.0 5:1.0 6:3.0 7:0.0 8:0.0 9:0.0 
-0.7104892597289485 1:0.0 2:1.0 3:1.0 4:0.0 5:1.0 6:5.0 7:3.0 8:0.0 9:1.0 
-1.0 1:0.0 2:1.0 3:0.0 4:1.0 5:1.0 6:5.0 7:0.0 8:0.0 9:0.0 
-1.0 1:0.0 2:1.0 3:0.0 4:1.0 5:1.0 6:5.0 7:0.0 8:0.0 9:0.0 
-1.0 1:0.0 2:1.0 3:0.0 4:1.0 5:1.0 6:2.0 7:0.0 8:0.0 9:0.0 
-1.0 1:0.0 2:1.0 3:0.0 4:1.0 5:0.0 6:0.0 7:0.0 8:0.0 9:0.0 
-0.9880503475245668 1:0.0 2:1.0 3:0.0 4:1.0 5:0.0 6:0.0 7:0.0 8:0.0 9:0.0 
-1.0 1:0.0 2:1.0 3:0.0 4:1.0 5:1.0 6:1.0 7:0.0 8:0.0 9:0.0 
-0.8390490282538544 1:0.0 2:0.0 3:0.0 4:0.0 5:0.0 6:0.0 7:2.0 8:0.0 9:0.0 
-0.0837207942778277 1:0.0 2:3.0 3:0.0 4:1.0 5:0.0 6:0.0 7:0.0 8:0.0 9:0.0 
-1.0 1:0.0 2:1.0 3:0.0 4:1.0 5:1.0 6:3.0 7:0.0 8:0.0 9:0.0 
-1.0 1:0.0 2:1.0 3:0.0 4:1.0 5:1.0 6:3.0 7:0.0 8:0.0 9:0.0 
-1.0 1:0.0 2:0.0 3:0.0 4:0.0 5:1.0 6:9.0 7:0.0 8:1.0 9:0.0 
-0.8220627298591209 1:0.0 2:1.0 3:0.0 4:5.0 5:1.0 6:7.0 7:0.0 8:0.0 9:0.0 
-1.0 1:0.0 2:0.0 3:1.0 4:0.0 5:1.0 6:11.0 7:0.0 8:0.0 9:1.0 
-1.0 1:1.0 2:1.0 3:0.0 4:0.0 5:1.0 6:2.0 7:0.0 8:2.0 9:0.0 
-1.0 1:0.0 2:1.0 3:0.0 4:1.0 5:1.0 6:4.0 7:0.0 8:1.0 9:0.0 
-1.0 1:0.0 2:1.0 3:0.0 4:1.0 5:1.0 6:4.0 7:0.0 8:2.0 9:0.0 
-1.0 1:0.0 2:1.0 3:0.0 4:0.0 5:1.0 6:3.0 7:0.0 8:0.0 9:0.0 
-0.26932459842010137 1:0.0 2:1.0 3:3.0 4:0.0 5:1.0 6:7.0 7:0.0 8:0.0 9:1.0 
-0.7054542478307959 1:0.0 2:1.0 3:0.0 4:2.0 5:1.0 6:3.0 7:0.0 8:1.0 9:0.0 
-1.0 1:0.0 2:1.0 3:1.0 4:0.0 5:1.0 6:4.0 7:0.0 8:0.0 9:1.0 
-0.8870472733235698 1:0.0 2:1.0 3:1.0 4:0.0 5:1.0 6:12.0 7:0.0 8:0.0 9:1.0 
-1.0 1:0.0 2:1.0 3:0.0 4:0.0 5:1.0 6:8.0 7:0.0 8:0.0 9:1.0 
-1.0 1:0.0 2:1.0 3:0.0 4:0.0 5:1.0 6:7.0 7:0.0 8:0.0 9:0.0 
-1.0 1:0.0 2:0.0 3:0.0 4:0.0 5:1.0 6:1.0 7:0.0 8:0.0 9:0.0 
-1.0 1:1.0 2:0.0 3:0.0 4:0.0 5:1.0 6:3.0 7:0.0 8:0.0 9:0.0 
-1.0 1:0.0 2:1.0 3:0.0 4:0.0 5:1.0 6:1.0 7:0.0 8:0.0 9:0.0 
-0.4702339066122637 1:1.0 2:0.0 3:7.0 4:0.0 5:1.0 6:8.0 7:0.0 8:0.0 9:1.0 
-1.0 1:0.0 2:1.0 3:0.0 4:1.0 5:1.0 6:2.0 7:0.0 8:0.0 9:0.0 
-1.0 1:0.0 2:0.0 3:0.0 4:2.0 5:1.0 6:2.0 7:1.0 8:0.0 9:0.0 
-1.0 1:0.0 2:0.0 3:0.0 4:2.0 5:1.0 6:1.0 7:4.0 8:0.0 9:0.0 
-1.0 1:0.0 2:0.0 3:0.0 4:2.0 5:1.0 6:1.0 7:1.0 8:0.0 9:0.0 
-1.0 1:0.0 2:0.0 3:0.0 4:2.0 5:1.0 6:1.0 7:1.0 8:0.0 9:0.0 
-1.0 1:0.0 2:0.0 3:0.0 4:2.0 5:1.0 6:2.0 7:1.0 8:0.0 9:0.0 
-0.4169510531918344 1:0.0 2:0.0 3:2.0 4:2.0 5:0.0 6:0.0 7:0.0 8:0.0 9:1.0 
-1.0 1:0.0 2:0.0 3:0.0 4:2.0 5:0.0 6:0.0 7:0.0 8:0.0 9:0.0 
-0.6752729121086624 1:0.0 2:1.0 3:2.0 4:0.0 5:1.0 6:4.0 7:4.0 8:1.0 9:1.0 
-0.7720561508509612 1:1.0 2:1.0 3:2.0 4:0.0 5:1.0 6:2.0 7:3.0 8:1.0 9:1.0 
-0.3936013770082414 1:0.0 2:1.0 3:0.0 4:0.0 5:1.0 6:6.0 7:9.0 8:1.0 9:1.0 
-1.0 1:1.0 2:0.0 3:0.0 4:0.0 5:1.0 6:6.0 7:1.0 8:0.0 9:0.0 
-1.0 1:1.0 2:0.0 3:0.0 4:0.0 5:1.0 6:1.0 7:3.0 8:0.0 9:0.0 
-0.16644036010064675 1:1.0 2:1.0 3:4.0 4:0.0 5:1.0 6:5.0 7:7.0 8:1.0 9:1.0 
-1.0 1:0.0 2:0.0 3:0.0 4:0.0 5:1.0 6:1.0 7:1.0 8:0.0 9:0.0 
-0.447442495162549 1:0.0 2:0.0 3:0.0 4:1.0 5:1.0 6:3.0 7:0.0 8:2.0 9:1.0 
-0.19887279807503006 1:0.0 2:4.0 3:1.0 4:4.0 5:1.0 6:7.0 7:1.0 8:4.0 9:1.0 
-1.0 1:0.0 2:1.0 3:0.0 4:2.0 5:1.0 6:3.0 7:0.0 8:1.0 9:0.0 
-1.0 1:0.0 2:1.0 3:0.0 4:2.0 5:1.0 6:3.0 7:0.0 8:1.0 9:0.0 
-0.6348076406325092 1:0.0 2:1.0 3:0.0 4:1.0 5:1.0 6:9.0 7:0.0 8:0.0 9:1.0 
-1.0 1:0.0 2:1.0 3:0.0 4:2.0 5:1.0 6:3.0 7:0.0 8:1.0 9:0.0 
-1.0 1:0.0 2:1.0 3:0.0 4:0.0 5:1.0 6:1.0 7:0.0 8:0.0 9:0.0 
-0.9392274249208004 1:0.0 2:1.0 3:0.0 4:2.0 5:1.0 6:3.0 7:0.0 8:1.0 9:0.0 
-1.0 1:0.0 2:1.0 3:0.0 4:1.0 5:1.0 6:4.0 7:0.0 8:1.0 9:0.0 
-1.0 1:0.0 2:1.0 3:0.0 4:2.0 5:1.0 6:5.0 7:0.0 8:1.0 9:0.0 
-1.0 1:0.0 2:0.0 3:0.0 4:1.0 5:0.0 6:0.0 7:0.0 8:0.0 9:0.0 
-1.0 1:0.0 2:1.0 3:0.0 4:2.0 5:1.0 6:1.0 7:0.0 8:1.0 9:0.0 
-1.0 1:0.0 2:1.0 3:0.0 4:2.0 5:1.0 6:1.0 7:0.0 8:1.0 9:0.0 
-1.0 1:0.0 2:0.0 3:0.0 4:0.0 5:1.0 6:3.0 7:1.0 8:0.0 9:0.0 
-1.0 1:0.0 2:0.0 3:0.0 4:0.0 5:1.0 6:2.0 7:0.0 8:0.0 9:1.0 
-1.0 1:0.0 2:1.0 3:1.0 4:0.0 5:1.0 6:1.0 7:0.0 8:1.0 9:0.0 
-1.0 1:0.0 2:0.0 3:0.0 4:0.0 5:0.0 6:0.0 7:0.0 8:0.0 9:0.0 
-1.0 1:0.0 2:0.0 3:0.0 4:0.0 5:1.0 6:1.0 7:0.0 8:0.0 9:0.0 
-1.0 1:0.0 2:1.0 3:1.0 4:1.0 5:1.0 6:1.0 7:0.0 8:0.0 9:0.0 
-1.0 1:0.0 2:0.0 3:0.0 4:0.0 5:1.0 6:1.0 7:1.0 8:0.0 9:0.0 
-0.0194291767536879 1:0.0 2:0.0 3:0.0 4:0.0 5:0.0 6:0.0 7:1.0 8:0.0 9:0.0 
-1.0 1:1.0 2:0.0 3:0.0 4:0.0 5:1.0 6:1.0 7:2.0 8:0.0 9:0.0 
-1.0 1:0.0 2:0.0 3:0.0 4:0.0 5:1.0 6:2.0 7:0.0 8:0.0 9:0.0 
-1.0 1:0.0 2:0.0 3:0.0 4:0.0 5:0.0 6:0.0 7:3.0 8:0.0 9:0.0 
-1.0 1:1.0 2:1.0 3:0.0 4:1.0 5:1.0 6:2.0 7:0.0 8:0.0 9:0.0 
-1.0 1:0.0 2:1.0 3:0.0 4:0.0 5:0.0 6:0.0 7:0.0 8:0.0 9:0.0 
-1.0 1:1.0 2:0.0 3:0.0 4:1.0 5:1.0 6:3.0 7:0.0 8:0.0 9:0.0 
-1.0 1:0.0 2:0.0 3:0.0 4:0.0 5:0.0 6:0.0 7:0.0 8:0.0 9:0.0 
-1.0 1:0.0 2:0.0 3:0.0 4:0.0 5:0.0 6:0.0 7:0.0 8:0.0 9:0.0 
-1.0 1:1.0 2:0.0 3:0.0 4:1.0 5:1.0 6:3.0 7:0.0 8:0.0 9:0.0 
-1.0 1:0.0 2:0.0 3:0.0 4:1.0 5:1.0 6:2.0 7:0.0 8:0.0 9:0.0 
-1.0 1:1.0 2:0.0 3:0.0 4:1.0 5:1.0 6:3.0 7:0.0 8:0.0 9:0.0 
-1.0 1:1.0 2:0.0 3:0.0 4:1.0 5:1.0 6:4.0 7:0.0 8:0.0 9:0.0 
-1.0 1:0.0 2:0.0 3:0.0 4:1.0 5:1.0 6:4.0 7:0.0 8:0.0 9:0.0 
-1.0 1:1.0 2:0.0 3:0.0 4:1.0 5:1.0 6:7.0 7:0.0 8:0.0 9:0.0 
-1.0 1:1.0 2:0.0 3:0.0 4:0.0 5:1.0 6:2.0 7:1.0 8:0.0 9:0.0 
-1.0 1:1.0 2:0.0 3:0.0 4:1.0 5:1.0 6:5.0 7:0.0 8:0.0 9:0.0 
-1.0 1:1.0 2:0.0 3:0.0 4:0.0 5:1.0 6:4.0 7:1.0 8:0.0 9:0.0 
-1.0 1:0.0 2:1.0 3:1.0 4:0.0 5:1.0 6:4.0 7:0.0 8:0.0 9:0.0 
-1.0 1:0.0 2:1.0 3:1.0 4:0.0 5:1.0 6:2.0 7:0.0 8:0.0 9:0.0 
-1.0 1:0.0 2:0.0 3:0.0 4:0.0 5:0.0 6:0.0 7:0.0 8:0.0 9:0.0 
-1.0 1:0.0 2:1.0 3:1.0 4:2.0 5:1.0 6:9.0 7:0.0 8:0.0 9:0.0 
-1.0 1:1.0 2:1.0 3:0.0 4:2.0 5:1.0 6:4.0 7:0.0 8:0.0 9:0.0 
-1.0 1:0.0 2:0.0 3:0.0 4:0.0 5:1.0 6:1.0 7:0.0 8:0.0 9:0.0 
-1.0 1:0.0 2:1.0 3:1.0 4:2.0 5:1.0 6:3.0 7:0.0 8:0.0 9:0.0 
-1.0 1:0.0 2:1.0 3:0.0 4:0.0 5:1.0 6:5.0 7:1.0 8:0.0 9:0.0 
-1.0 1:0.0 2:0.0 3:5.0 4:0.0 5:1.0 6:4.0 7:0.0 8:0.0 9:1.0 
-0.30927791828135265 1:0.0 2:0.0 3:0.0 4:2.0 5:1.0 6:1.0 7:0.0 8:0.0 9:1.0 
-0.6779710259163348 1:0.0 2:1.0 3:12.0 4:3.0 5:1.0 6:5.0 7:0.0 8:0.0 9:1.0 
-0.24646913672353737 1:0.0 2:5.0 3:2.0 4:3.0 5:0.0 6:0.0 7:0.0 8:0.0 9:1.0 
-0.12173892701686799 1:0.0 2:0.0 3:1.0 4:1.0 5:1.0 6:3.0 7:0.0 8:0.0 9:1.0 
-1.0 1:0.0 2:1.0 3:3.0 4:0.0 5:1.0 6:2.0 7:0.0 8:0.0 9:1.0 
-0.038491832772515375 1:0.0 2:1.0 3:0.0 4:0.0 5:1.0 6:2.0 7:0.0 8:0.0 9:1.0 
-0.1446624611129402 1:0.0 2:1.0 3:0.0 4:2.0 5:1.0 6:12.0 7:2.0 8:0.0 9:1.0 
-1.0 1:1.0 2:0.0 3:0.0 4:2.0 5:1.0 6:4.0 7:0.0 8:0.0 9:0.0 
-1.0 1:0.0 2:0.0 3:0.0 4:0.0 5:0.0 6:0.0 7:0.0 8:0.0 9:0.0 
-1.0 1:0.0 2:0.0 3:0.0 4:0.0 5:1.0 6:1.0 7:0.0 8:0.0 9:0.0 
-1.0 1:0.0 2:0.0 3:0.0 4:0.0 5:0.0 6:0.0 7:0.0 8:0.0 9:0.0 
-1.0 1:0.0 2:0.0 3:0.0 4:0.0 5:0.0 6:0.0 7:0.0 8:0.0 9:0.0 
-1.0 1:0.0 2:0.0 3:0.0 4:0.0 5:1.0 6:3.0 7:2.0 8:0.0 9:0.0 
-1.0 1:1.0 2:0.0 3:0.0 4:2.0 5:1.0 6:1.0 7:0.0 8:0.0 9:0.0 
-1.0 1:0.0 2:0.0 3:0.0 4:2.0 5:1.0 6:6.0 7:1.0 8:0.0 9:1.0 
-1.0 1:0.0 2:0.0 3:0.0 4:0.0 5:1.0 6:2.0 7:0.0 8:0.0 9:1.0 
-1.0 1:0.0 2:0.0 3:0.0 4:0.0 5:1.0 6:5.0 7:0.0 8:0.0 9:1.0 
-0.5942991452440403 1:0.0 2:0.0 3:0.0 4:0.0 5:0.0 6:0.0 7:1.0 8:0.0 9:0.0 
-1.0 1:0.0 2:0.0 3:0.0 4:0.0 5:0.0 6:0.0 7:0.0 8:0.0 9:0.0 
-1.0 1:0.0 2:0.0 3:0.0 4:0.0 5:1.0 6:2.0 7:0.0 8:0.0 9:0.0 
-1.0 1:0.0 2:0.0 3:0.0 4:0.0 5:0.0 6:0.0 7:0.0 8:1.0 9:0.0 
-1.0 1:0.0 2:1.0 3:1.0 4:0.0 5:1.0 6:4.0 7:0.0 8:1.0 9:0.0 
-0.09173669376048461 1:0.0 2:1.0 3:0.0 4:0.0 5:1.0 6:2.0 7:1.0 8:1.0 9:1.0 
-0.36834810910751836 1:0.0 2:1.0 3:1.0 4:0.0 5:1.0 6:3.0 7:2.0 8:1.0 9:1.0 
-1.0 1:0.0 2:1.0 3:0.0 4:0.0 5:1.0 6:6.0 7:0.0 8:1.0 9:0.0 
-1.0 1:0.0 2:1.0 3:1.0 4:0.0 5:1.0 6:2.0 7:0.0 8:1.0 9:0.0 
-1.0 1:0.0 2:0.0 3:0.0 4:0.0 5:1.0 6:2.0 7:0.0 8:1.0 9:0.0 
-1.0 1:0.0 2:1.0 3:0.0 4:0.0 5:1.0 6:1.0 7:0.0 8:1.0 9:0.0 
