svm_type c_svc
kernel_type rbf
gamma 0.125
nr_class 3
total_sv 11668
rho -0.37127030720918314 -0.3353732057288197 -0.08120179422817123
label 1 0 2
nr_sv 4883 3216 3569
SV
1.0 1.0 1:0.0 2:0.0 3:0.0 4:3.0 5:1.0 6:3.0 7:1.0 8:0.0 
0.0 0.15095180419143234 1:0.0 2:0.0 3:0.0 4:0.0 5:0.0 6:2.0 7:4.0 8:0.0 
0.0 1.0 1:0.0 2:0.0 3:0.0 4:3.0 5:0.0 6:9.0 7:2.0 8:1.0 
0.0 0.3498652791622752 1:0.0 2:0.0 3:0.0 4:1.0 5:0.0 6:7.0 7:2.0 8:2.0 
1.0 1.0 1:0.0 2:0.0 3:0.0 4:2.0 5:0.0 6:2.0 7:2.0 8:1.0 
1.0 0.0 1:0.0 2:0.0 3:0.0 4:0.0 5:1.0 6:0.0 7:0.0 8:0.0 
0.0 1.0 1:0.0 2:0.0 3:0.0 4:4.0 5:1.0 6:4.0 7:0.0 8:0.0 
0.0 1.0 1:0.0 2:0.0 3:0.0 4:2.0 5:0.0 6:2.0 7:0.0 8:0.0 
1.0 1.0 1:0.0 2:0.0 3:0.0 4:0.0 5:2.0 6:3.0 7:2.0 8:0.0 
1.0 1.0 1:0.0 2:0.0 3:0.0 4:4.0 5:1.0 6:10.0 7:1.0 8:0.0 
1.0 0.0 1:0.0 2:0.0 3:0.0 4:0.0 5:1.0 6:1.0 7:1.0 8:0.0 
1.0 0.0 1:0.0 2:0.0 3:0.0 4:0.0 5:1.0 6:2.0 7:2.0 8:2.0 
0.0 1.0 1:0.0 2:0.0 3:0.0 4:2.0 5:0.0 6:5.0 7:2.0 8:0.0 
1.0 0.4293199823386738 1:0.0 2:0.0 3:0.0 4:0.0 5:0.0 6:3.0 7:0.0 8:2.0 
0.0 1.0 1:0.0 2:0.0 3:0.0 4:2.0 5:0.0 6:4.0 7:0.0 8:0.0 
1.0 0.0 1:0.0 2:0.0 3:0.0 4:3.0 5:2.0 6:3.0 7:0.0 8:3.0 
1.0 1.0 1:0.0 2:0.0 3:0.0 4:1.0 5:2.0 6:2.0 7:0.0 8:0.0 
1.0 1.0 1:0.0 2:0.0 3:0.0 4:2.0 5:0.0 6:3.0 7:1.0 8:1.0 
1.0 1.0 1:0.0 2:0.0 3:0.0 4:2.0 5:5.0 6:5.0 7:1.0 8:0.0 
1.0 1.0 1:0.0 2:0.0 3:0.0 4:4.0 5:2.0 6:7.0 7:0.0 8:1.0 
1.0 1.0 1:0.0 2:0.0 3:0.0 4:0.0 5:2.0 6:2.0 7:0.0 8:1.0 
1.0 1.0 1:1.0 2:0.0 3:2.0 4:0.0 5:0.0 6:0.0 7:1.0 8:0.0 
0.42770866855470613 0.11098739613645843 1:0.0 2:0.0 3:0.0 4:4.0 5:5.0 6:2.0 7:2.0 8:6.0 
1.0 1.0 1:0.0 2:0.0 3:0.0 4:3.0 5:1.0 6:9.0 7:2.0 8:0.0 
1.0 1.0 1:0.0 2:0.0 3:0.0 4:3.0 5:2.0 6:5.0 7:0.0 8:1.0 
1.0 0.8195982741577166 1:0.0 2:0.0 3:0.0 4:0.0 5:2.0 6:6.0 7:2.0 8:3.0 
0.0 1.0 1:0.0 2:0.0 3:0.0 4:7.0 5:1.0 6:6.0 7:1.0 8:3.0 
0.0 1.0 1:0.0 2:0.0 3:0.0 4:2.0 5:1.0 6:9.0 7:0.0 8:0.0 
1.0 0.0 1:0.0 2:0.0 3:0.0 4:0.0 5:1.0 6:4.0 7:2.0 8:1.0 
1.0 1.0 1:0.0 2:0.0 3:0.0 4:5.0 5:2.0 6:5.0 7:2.0 8:0.0 
1.0 1.0 1:0.0 2:0.0 3:0.0 4:0.0 5:0.0 6:2.0 7:1.0 8:1.0 
1.0 1.0 1:1.0 2:1.0 3:0.0 4:4.0 5:4.0 6:3.0 7:0.0 8:1.0 
1.0 1.0 1:0.0 2:0.0 3:0.0 4:1.0 5:3.0 6:3.0 7:1.0 8:1.0 
1.0 0.0 1:0.0 2:0.0 3:0.0 4:1.0 5:0.0 6:1.0 7:1.0 8:1.0 
1.0 1.0 1:0.0 2:0.0 3:0.0 4:3.0 5:1.0 6:2.0 7:2.0 8:1.0 
1.0 0.0 1:0.0 2:0.0 3:0.0 4:1.0 5:1.0 6:5.0 7:3.0 8:0.0 
1.0 1.0 1:1.0 2:0.0 3:3.0 4:0.0 5:0.0 6:4.0 7:0.0 8:0.0 
1.0 0.0 1:0.0 2:0.0 3:0.0 4:0.0 5:3.0 6:3.0 7:1.0 8:0.0 
1.0 0.0 1:0.0 2:0.0 3:0.0 4:3.0 5:3.0 6:3.0 7:0.0 8:5.0 
1.0 0.0 1:0.0 2:0.0 3:0.0 4:0.0 5:1.0 6:1.0 7:0.0 8:1.0 
1.0 0.63553634964083 1:0.0 2:0.0 3:0.0 4:1.0 5:2.0 6:8.0 7:0.0 8:1.0 
0.0 1.0 1:0.0 2:0.0 3:0.0 4:5.0 5:1.0 6:7.0 7:0.0 8:0.0 
1.0 0.0 1:0.0 2:0.0 3:0.0 4:1.0 5:1.0 6:3.0 7:0.0 8:0.0 
0.17679042014672547 0.0 1:0.0 2:0.0 3:0.0 4:1.0 5:1.0 6:10.0 7:1.0 8:0.0 
0.4777561053973696 1.0 1:1.0 2:1.0 3:0.0 4:1.0 5:0.0 6:5.0 7:0.0 8:1.0 
1.0 0.5511652813651078 1:0.0 2:0.0 3:0.0 4:0.0 5:1.0 6:3.0 7:1.0 8:1.0 
1.0 0.0 1:0.0 2:0.0 3:0.0 4:3.0 5:1.0 6:5.0 7:2.0 8:1.0 
1.0 0.0 1:0.0 2:0.0 3:0.0 4:0.0 5:0.0 6:1.0 7:1.0 8:3.0 
1.0 1.0 1:0.0 2:0.0 3:0.0 4:2.0 5:0.0 6:2.0 7:0.0 8:1.0 
0.0 1.0 1:0.0 2:0.0 3:0.0 4:1.0 5:0.0 6:2.0 7:2.0 8:0.0 
1.0 0.0 1:0.0 2:0.0 3:0.0 4:2.0 5:1.0 6:7.0 7:3.0 8:3.0 
1.0 0.0 1:0.0 2:0.0 3:0.0 4:0.0 5:1.0 6:2.0 7:1.0 8:0.0 
1.0 1.0 1:0.0 2:0.0 3:0.0 4:2.0 5:1.0 6:10.0 7:3.0 8:2.0 
1.0 1.0 1:1.0 2:0.0 3:0.0 4:2.0 5:3.0 6:2.0 7:0.0 8:0.0 
1.0 1.0 1:0.0 2:0.0 3:0.0 4:2.0 5:0.0 6:3.0 7:1.0 8:1.0 
0.0 1.0 1:0.0 2:0.0 3:0.0 4:3.0 5:0.0 6:6.0 7:0.0 8:1.0 
1.0 1.0 1:1.0 2:0.0 3:0.0 4:2.0 5:1.0 6:2.0 7:1.0 8:1.0 
1.0 1.0 1:0.0 2:0.0 3:0.0 4:0.0 5:2.0 6:2.0 7:3.0 8:0.0 
0.5498883366258057 1.0 1:0.0 2:0.0 3:0.0 4:3.0 5:0.0 6:7.0 7:1.0 8:1.0 
0.0 1.0 1:0.0 2:0.0 3:0.0 4:5.0 5:0.0 6:5.0 7:1.0 8:0.0 
0.0 1.0 1:0.0 2:0.0 3:0.0 4:5.0 5:1.0 6:10.0 7:1.0 8:2.0 
0.0 1.0 1:0.0 2:0.0 3:0.0 4:3.0 5:0.0 6:5.0 7:0.0 8:0.0 
1.0 1.0 1:0.0 2:0.0 3:0.0 4:2.0 5:0.0 6:6.0 7:1.0 8:0.0 
1.0 0.0 1:0.0 2:0.0 3:0.0 4:1.0 5:1.0 6:1.0 7:1.0 8:0.0 
1.0 0.0 1:0.0 2:0.0 3:0.0 4:1.0 5:1.0 6:2.0 7:2.0 8:1.0 
1.0 0.9891277829862203 1:0.0 2:0.0 3:0.0 4:4.0 5:0.0 6:3.0 7:3.0 8:4.0 
0.02954218036924206 0.0 1:0.0 2:0.0 3:0.0 4:1.0 5:1.0 6:4.0 7:0.0 8:0.0 
0.7586856184656575 0.0 1:0.0 2:0.0 3:0.0 4:3.0 5:0.0 6:1.0 7:3.0 8:3.0 
1.0 1.0 1:1.0 2:0.0 3:0.0 4:0.0 5:0.0 6:3.0 7:0.0 8:2.0 
0.0 1.0 1:1.0 2:1.0 3:0.0 4:0.0 5:0.0 6:2.0 7:0.0 8:0.0 
0.0 1.0 1:0.0 2:0.0 3:0.0 4:2.0 5:0.0 6:1.0 7:0.0 8:0.0 
1.0 0.0 1:0.0 2:0.0 3:0.0 4:0.0 5:1.0 6:4.0 7:3.0 8:0.0 
1.0 1.0 1:0.0 2:0.0 3:0.0 4:6.0 5:2.0 6:4.0 7:3.0 8:0.0 
1.0 0.0 1:0.0 2:0.0 3:0.0 4:1.0 5:0.0 6:1.0 7:1.0 8:1.0 
1.0 1.0 1:0.0 2:0.0 3:0.0 4:3.0 5:0.0 6:3.0 7:0.0 8:2.0 
0.0 1.0 1:0.0 2:0.0 3:0.0 4:3.0 5:0.0 6:4.0 7:0.0 8:0.0 
0.0 1.0 1:0.0 2:0.0 3:0.0 4:2.0 5:0.0 6:3.0 7:1.0 8:0.0 
0.0 1.0 1:0.0 2:0.0 3:0.0 4:2.0 5:0.0 6:4.0 7:0.0 8:0.0 
1.0 0.0 1:0.0 2:0.0 3:0.0 4:0.0 5:1.0 6:5.0 7:4.0 8:1.0 
1.0 1.0 1:0.0 2:0.0 3:0.0 4:3.0 5:4.0 6:6.0 7:2.0 8:2.0 
1.0 0.0 1:0.0 2:0.0 3:0.0 4:0.0 5:0.0 6:4.0 7:1.0 8:1.0 
1.0 1.0 1:1.0 2:0.0 3:0.0 4:1.0 5:2.0 6:5.0 7:0.0 8:2.0 
1.0 1.0 1:0.0 2:0.0 3:0.0 4:3.0 5:2.0 6:6.0 7:2.0 8:3.0 
0.0 1.0 1:1.0 2:1.0 3:0.0 4:2.0 5:0.0 6:3.0 7:1.0 8:0.0 
0.0 1.0 1:1.0 2:0.0 3:0.0 4:1.0 5:0.0 6:0.0 7:0.0 8:0.0 
1.0 1.0 1:0.0 2:0.0 3:0.0 4:2.0 5:1.0 6:6.0 7:0.0 8:2.0 
1.0 0.0 1:0.0 2:0.0 3:0.0 4:1.0 5:0.0 6:4.0 7:1.0 8:1.0 
0.39788246873785094 0.0 1:0.0 2:0.0 3:0.0 4:5.0 5:3.0 6:8.0 7:2.0 8:1.0 
1.0 1.0 1:1.0 2:0.0 3:1.0 4:1.0 5:1.0 6:4.0 7:0.0 8:0.0 
1.0 0.0 1:0.0 2:0.0 3:0.0 4:0.0 5:1.0 6:0.0 7:0.0 8:1.0 
1.0 0.0 1:0.0 2:0.0 3:0.0 4:0.0 5:1.0 6:1.0 7:1.0 8:0.0 
0.0 1.0 1:0.0 2:0.0 3:0.0 4:1.0 5:1.0 6:5.0 7:0.0 8:1.0 
1.0 1.0 1:1.0 2:1.0 3:0.0 4:3.0 5:1.0 6:6.0 7:0.0 8:0.0 
1.0 0.0 1:0.0 2:0.0 3:0.0 4:2.0 5:2.0 6:4.0 7:0.0 8:2.0 
1.0 0.0 1:0.0 2:0.0 3:0.0 4:4.0 5:1.0 6:7.0 7:1.0 8:3.0 
1.0 0.0 1:0.0 2:0.0 3:0.0 4:1.0 5:0.0 6:2.0 7:2.0 8:1.0 
1.0 1.0 1:0.0 2:0.0 3:0.0 4:1.0 5:0.0 6:3.0 7:0.0 8:1.0 
1.0 1.0 1:0.0 2:0.0 3:0.0 4:2.0 5:0.0 6:2.0 7:0.0 8:1.0 
0.0 1.0 1:0.0 2:0.0 3:0.0 4:4.0 5:2.0 6:7.0 7:1.0 8:0.0 
1.0 1.0 1:0.0 2:0.0 3:0.0 4:0.0 5:0.0 6:2.0 7:1.0 8:1.0 
0.2136448781792857 0.44037483221664586 1:0.0 2:0.0 3:0.0 4:4.0 5:2.0 6:18.0 7:0.0 8:0.0 
0.0 0.8376564177257575 1:0.0 2:0.0 3:0.0 4:1.0 5:0.0 6:7.0 7:1.0 8:0.0 
1.0 1.0 1:0.0 2:0.0 3:0.0 4:6.0 5:2.0 6:7.0 7:1.0 8:1.0 
1.0 1.0 1:1.0 2:0.0 3:0.0 4:2.0 5:1.0 6:10.0 7:0.0 8:3.0 
1.0 0.0 1:0.0 2:0.0 3:0.0 4:1.0 5:4.0 6:2.0 7:2.0 8:0.0 
0.3109108119879203 0.0 1:0.0 2:0.0 3:0.0 4:0.0 5:0.0 6:2.0 7:2.0 8:2.0 
1.0 1.0 1:0.0 2:0.0 3:0.0 4:1.0 5:1.0 6:1.0 7:2.0 8:0.0 
1.0 0.0 1:0.0 2:0.0 3:0.0 4:0.0 5:3.0 6:3.0 7:1.0 8:0.0 
1.0 0.0 1:0.0 2:0.0 3:0.0 4:0.0 5:1.0 6:2.0 7:2.0 8:3.0 
1.0 1.0 1:0.0 2:0.0 3:0.0 4:0.0 5:1.0 6:8.0 7:4.0 8:0.0 
1.0 0.23463161378514297 1:0.0 2:0.0 3:0.0 4:1.0 5:1.0 6:3.0 7:2.0 8:4.0 
1.0 0.08302331152465123 1:0.0 2:0.0 3:0.0 4:1.0 5:0.0 6:7.0 7:1.0 8:2.0 
1.0 0.0 1:0.0 2:0.0 3:0.0 4:0.0 5:2.0 6:5.0 7:1.0 8:2.0 
0.0 1.0 1:0.0 2:0.0 3:0.0 4:4.0 5:0.0 6:5.0 7:0.0 8:1.0 
1.0 1.0 1:0.0 2:0.0 3:0.0 4:0.0 5:2.0 6:5.0 7:2.0 8:0.0 
1.0 1.0 1:1.0 2:0.0 3:0.0 4:1.0 5:1.0 6:7.0 7:2.0 8:1.0 
0.0 0.3458500578264105 1:0.0 2:0.0 3:0.0 4:1.0 5:3.0 6:9.0 7:1.0 8:3.0 
0.0 1.0 1:0.0 2:0.0 3:0.0 4:1.0 5:0.0 6:6.0 7:0.0 8:2.0 
0.0 1.0 1:0.0 2:0.0 3:0.0 4:2.0 5:0.0 6:2.0 7:0.0 8:0.0 
1.0 0.0 1:0.0 2:0.0 3:0.0 4:2.0 5:3.0 6:6.0 7:1.0 8:3.0 
1.0 1.0 1:0.0 2:0.0 3:0.0 4:0.0 5:0.0 6:1.0 7:1.0 8:1.0 
1.0 0.0 1:0.0 2:0.0 3:0.0 4:1.0 5:1.0 6:4.0 7:2.0 8:0.0 
1.0 0.0 1:0.0 2:0.0 3:0.0 4:1.0 5:1.0 6:1.0 7:0.0 8:2.0 
0.0 1.0 1:0.0 2:0.0 3:0.0 4:2.0 5:0.0 6:3.0 7:0.0 8:0.0 
0.0 1.0 1:0.0 2:0.0 3:0.0 4:2.0 5:0.0 6:3.0 7:0.0 8:0.0 
1.0 0.0 1:0.0 2:0.0 3:0.0 4:2.0 5:2.0 6:6.0 7:1.0 8:0.0 
0.272380164902652 1.0 1:0.0 2:0.0 3:0.0 4:2.0 5:0.0 6:4.0 7:0.0 8:1.0 
0.0 1.0 1:0.0 2:0.0 3:0.0 4:2.0 5:0.0 6:2.0 7:0.0 8:0.0 
0.867582275094223 1.0 1:0.0 2:0.0 3:0.0 4:5.0 5:0.0 6:9.0 7:1.0 8:0.0 
1.0 0.0 1:0.0 2:0.0 3:0.0 4:4.0 5:0.0 6:5.0 7:2.0 8:2.0 
1.0 1.0 1:1.0 2:0.0 3:3.0 4:0.0 5:1.0 6:2.0 7:1.0 8:0.0 
0.0 1.0 1:0.0 2:0.0 3:0.0 4:5.0 5:0.0 6:6.0 7:0.0 8:0.0 
1.0 0.0 1:0.0 2:0.0 3:0.0 4:0.0 5:0.0 6:4.0 7:1.0 8:2.0 
0.2889462742859408 1.0 1:0.0 2:0.0 3:0.0 4:3.0 5:1.0 6:1.0 7:0.0 8:0.0 
0.4713150276201291 1.0 1:0.0 2:0.0 3:0.0 4:1.0 5:1.0 6:2.0 7:0.0 8:3.0 
0.0 1.0 1:0.0 2:0.0 3:0.0 4:2.0 5:0.0 6:7.0 7:2.0 8:1.0 
1.0 0.0 1:0.0 2:0.0 3:0.0 4:1.0 5:2.0 6:2.0 7:1.0 8:0.0 
1.0 0.0 1:0.0 2:0.0 3:0.0 4:0.0 5:1.0 6:1.0 7:0.0 8:0.0 
1.0 0.0 1:0.0 2:0.0 3:0.0 4:3.0 5:0.0 6:6.0 7:1.0 8:2.0 
0.0 1.0 1:0.0 2:0.0 3:0.0 4:3.0 5:0.0 6:3.0 7:0.0 8:0.0 
0.0 1.0 1:0.0 2:0.0 3:0.0 4:2.0 5:1.0 6:6.0 7:1.0 8:0.0 
1.0 0.0 1:0.0 2:0.0 3:0.0 4:2.0 5:1.0 6:12.0 7:3.0 8:2.0 
1.0 1.0 1:0.0 2:0.0 3:0.0 4:3.0 5:0.0 6:2.0 7:1.0 8:1.0 
0.947551314169495 1.0 1:0.0 2:0.0 3:0.0 4:5.0 5:2.0 6:2.0 7:0.0 8:1.0 
1.0 0.0 1:0.0 2:0.0 3:0.0 4:1.0 5:1.0 6:4.0 7:2.0 8:0.0 
1.0 0.29218285906871655 1:0.0 2:0.0 3:0.0 4:1.0 5:2.0 6:0.0 7:1.0 8:1.0 
0.16465036371365854 0.0 1:0.0 2:0.0 3:0.0 4:0.0 5:6.0 6:7.0 7:1.0 8:0.0 
0.0 1.0 1:0.0 2:0.0 3:0.0 4:3.0 5:0.0 6:4.0 7:1.0 8:0.0 
1.0 1.0 1:0.0 2:0.0 3:0.0 4:2.0 5:0.0 6:1.0 7:1.0 8:1.0 
0.3567313089636432 0.0 1:0.0 2:0.0 3:0.0 4:0.0 5:0.0 6:11.0 7:1.0 8:2.0 
0.6404779740770782 0.9760626931141956 1:1.0 2:0.0 3:0.0 4:0.0 5:1.0 6:13.0 7:0.0 8:1.0 
1.0 1.0 1:0.0 2:0.0 3:0.0 4:1.0 5:2.0 6:2.0 7:2.0 8:0.0 
1.0 0.0 1:0.0 2:0.0 3:0.0 4:0.0 5:1.0 6:4.0 7:2.0 8:0.0 
1.0 0.0 1:0.0 2:0.0 3:0.0 4:0.0 5:0.0 6:0.0 7:1.0 8:1.0 
0.0 1.0 1:0.0 2:0.0 3:0.0 4:1.0 5:0.0 6:6.0 7:1.0 8:0.0 
1.0 1.0 1:0.0 2:0.0 3:0.0 4:2.0 5:0.0 6:3.0 7:1.0 8:1.0 
0.0 1.0 1:0.0 2:0.0 3:0.0 4:2.0 5:0.0 6:2.0 7:0.0 8:0.0 
0.0 1.0 1:0.0 2:0.0 3:0.0 4:3.0 5:1.0 6:4.0 7:0.0 8:0.0 
1.0 0.0 1:0.0 2:0.0 3:0.0 4:1.0 5:1.0 6:2.0 7:5.0 8:0.0 
1.0 0.0 1:0.0 2:0.0 3:0.0 4:1.0 5:0.0 6:2.0 7:1.0 8:1.0 
0.43279685387080524 0.0 1:0.0 2:0.0 3:0.0 4:1.0 5:1.0 6:8.0 7:1.0 8:2.0 
1.0 1.0 1:1.0 2:0.0 3:0.0 4:0.0 5:1.0 6:1.0 7:1.0 8:0.0 
0.0 0.4140812770012197 1:0.0 2:0.0 3:0.0 4:5.0 5:0.0 6:16.0 7:0.0 8:0.0 
0.0 0.8229497986997343 1:0.0 2:0.0 3:0.0 4:0.0 5:1.0 6:2.0 7:0.0 8:2.0 
1.0 0.8030002110682948 1:0.0 2:0.0 3:0.0 4:1.0 5:1.0 6:0.0 7:0.0 8:3.0 
1.0 1.0 1:0.0 2:0.0 3:0.0 4:2.0 5:1.0 6:3.0 7:0.0 8:0.0 
1.0 0.0 1:0.0 2:0.0 3:0.0 4:0.0 5:1.0 6:1.0 7:1.0 8:0.0 
0.0 0.36654015798702505 1:0.0 2:0.0 3:0.0 4:0.0 5:0.0 6:12.0 7:5.0 8:1.0 
1.0 0.0 1:0.0 2:0.0 3:0.0 4:0.0 5:3.0 6:1.0 7:1.0 8:1.0 
1.0 1.0 1:0.0 2:0.0 3:0.0 4:0.0 5:1.0 6:1.0 7:1.0 8:1.0 
1.0 1.0 1:0.0 2:0.0 3:0.0 4:2.0 5:0.0 6:5.0 7:2.0 8:3.0 
0.0 1.0 1:0.0 2:0.0 3:0.0 4:2.0 5:0.0 6:2.0 7:0.0 8:0.0 
1.0 0.5764622955457545 1:0.0 2:0.0 3:0.0 4:4.0 5:0.0 6:8.0 7:2.0 8:1.0 
0.0 1.0 1:0.0 2:0.0 3:0.0 4:2.0 5:0.0 6:2.0 7:0.0 8:2.0 
0.0 1.0 1:0.0 2:0.0 3:0.0 4:3.0 5:1.0 6:3.0 7:0.0 8:1.0 
1.0 0.07613135567915322 1:0.0 2:0.0 3:0.0 4:0.0 5:1.0 6:2.0 7:2.0 8:1.0 
0.27103714120092764 0.512980768882771 1:0.0 2:0.0 3:0.0 4:0.0 5:0.0 6:17.0 7:7.0 8:0.0 
0.5252808151794116 0.5709392283304919 1:0.0 2:0.0 3:0.0 4:18.0 5:0.0 6:7.0 7:2.0 8:0.0 
1.0 0.8611180638272103 1:0.0 2:0.0 3:0.0 4:1.0 5:0.0 6:1.0 7:0.0 8:4.0 
0.0 0.513080145057638 1:0.0 2:0.0 3:0.0 4:2.0 5:0.0 6:8.0 7:0.0 8:0.0 
1.0 0.0 1:0.0 2:0.0 3:0.0 4:0.0 5:1.0 6:7.0 7:2.0 8:1.0 
0.3555872140300529 0.0 1:0.0 2:0.0 3:0.0 4:0.0 5:1.0 6:3.0 7:5.0 8:0.0 
1.0 0.0 1:0.0 2:0.0 3:0.0 4:2.0 5:1.0 6:5.0 7:1.0 8:2.0 
0.0 1.0 1:0.0 2:0.0 3:0.0 4:2.0 5:0.0 6:4.0 7:2.0 8:0.0 
0.0 1.0 1:0.0 2:0.0 3:0.0 4:5.0 5:0.0 6:1.0 7:1.0 8:0.0 
0.0 1.0 1:0.0 2:0.0 3:0.0 4:2.0 5:0.0 6:3.0 7:0.0 8:0.0 
0.011719756896781756 1.0 1:1.0 2:0.0 3:0.0 4:0.0 5:0.0 6:3.0 7:0.0 8:0.0 
1.0 1.0 1:0.0 2:0.0 3:0.0 4:4.0 5:2.0 6:4.0 7:3.0 8:1.0 
0.0 1.0 1:0.0 2:0.0 3:0.0 4:1.0 5:0.0 6:6.0 7:1.0 8:0.0 
0.0 1.0 1:0.0 2:0.0 3:0.0 4:3.0 5:0.0 6:1.0 7:1.0 8:0.0 
0.0 1.0 1:0.0 2:0.0 3:0.0 4:3.0 5:0.0 6:7.0 7:2.0 8:2.0 
0.0 0.8118861974933804 1:0.0 2:0.0 3:0.0 4:6.0 5:0.0 6:8.0 7:2.0 8:0.0 
0.0 1.0 1:0.0 2:0.0 3:0.0 4:2.0 5:0.0 6:3.0 7:0.0 8:0.0 
1.0 0.16699569232318018 1:0.0 2:0.0 3:0.0 4:7.0 5:4.0 6:5.0 7:0.0 8:1.0 
1.0 1.0 1:0.0 2:0.0 3:0.0 4:4.0 5:2.0 6:7.0 7:1.0 8:1.0 
1.0 0.7787706527656454 1:0.0 2:0.0 3:0.0 4:2.0 5:3.0 6:7.0 7:0.0 8:1.0 
1.0 0.48589904868654593 1:0.0 2:0.0 3:0.0 4:3.0 5:1.0 6:6.0 7:4.0 8:4.0 
1.0 0.0 1:0.0 2:0.0 3:0.0 4:0.0 5:2.0 6:0.0 7:4.0 8:1.0 
0.0 1.0 1:0.0 2:0.0 3:0.0 4:3.0 5:0.0 6:6.0 7:0.0 8:1.0 
1.0 0.0 1:0.0 2:0.0 3:0.0 4:2.0 5:2.0 6:4.0 7:1.0 8:1.0 
1.0 0.0 1:0.0 2:0.0 3:0.0 4:1.0 5:0.0 6:7.0 7:3.0 8:1.0 
0.3916534744663326 0.07664638186087451 1:0.0 2:0.0 3:0.0 4:2.0 5:2.0 6:9.0 7:5.0 8:0.0 
1.0 1.0 1:0.0 2:0.0 3:0.0 4:0.0 5:0.0 6:8.0 7:1.0 8:2.0 
0.9518869328017617 0.5885019472724029 1:0.0 2:0.0 3:0.0 4:12.0 5:1.0 6:18.0 7:2.0 8:0.0 
1.0 1.0 1:0.0 2:0.0 3:0.0 4:0.0 5:2.0 6:5.0 7:2.0 8:1.0 
1.0 0.0 1:0.0 2:0.0 3:0.0 4:0.0 5:1.0 6:8.0 7:1.0 8:0.0 
1.0 1.0 1:0.0 2:0.0 3:0.0 4:1.0 5:2.0 6:4.0 7:0.0 8:1.0 
1.0 0.0 1:0.0 2:0.0 3:0.0 4:0.0 5:1.0 6:1.0 7:0.0 8:0.0 
1.0 1.0 1:1.0 2:1.0 3:0.0 4:0.0 5:1.0 6:2.0 7:1.0 8:0.0 
0.0 0.38246138657913026 1:0.0 2:0.0 3:0.0 4:0.0 5:0.0 6:7.0 7:2.0 8:0.0 
0.0 1.0 1:0.0 2:0.0 3:0.0 4:2.0 5:1.0 6:4.0 7:0.0 8:1.0 
1.0 1.0 1:0.0 2:0.0 3:0.0 4:3.0 5:2.0 6:4.0 7:0.0 8:3.0 
1.0 1.0 1:0.0 2:0.0 3:0.0 4:1.0 5:2.0 6:3.0 7:0.0 8:0.0 
0.3876702100447004 0.29051579862458726 1:0.0 2:0.0 3:0.0 4:0.0 5:0.0 6:8.0 7:3.0 8:0.0 
1.0 0.0 1:0.0 2:0.0 3:0.0 4:0.0 5:1.0 6:4.0 7:2.0 8:0.0 
0.0 0.6849809814733183 1:0.0 2:0.0 3:0.0 4:3.0 5:0.0 6:1.0 7:4.0 8:0.0 
0.0 1.0 1:0.0 2:0.0 3:0.0 4:1.0 5:0.0 6:3.0 7:3.0 8:0.0 
0.892001054595907 0.0 1:0.0 2:0.0 3:0.0 4:2.0 5:0.0 6:4.0 7:0.0 8:3.0 
0.5764416950554128 1.0 1:0.0 2:0.0 3:0.0 4:3.0 5:0.0 6:4.0 7:0.0 8:2.0 
1.0 1.0 1:0.0 2:0.0 3:0.0 4:2.0 5:1.0 6:6.0 7:2.0 8:1.0 
0.0 1.0 1:0.0 2:0.0 3:0.0 4:2.0 5:0.0 6:2.0 7:0.0 8:2.0 
1.0 1.0 1:0.0 2:0.0 3:0.0 4:1.0 5:0.0 6:4.0 7:3.0 8:1.0 
1.0 0.0 1:0.0 2:0.0 3:0.0 4:0.0 5:3.0 6:4.0 7:1.0 8:0.0 
0.9667019278522826 0.0 1:0.0 2:0.0 3:0.0 4:3.0 5:0.0 6:8.0 7:1.0 8:2.0 
1.0 1.0 1:0.0 2:0.0 3:0.0 4:5.0 5:1.0 6:2.0 7:1.0 8:0.0 
0.0 1.0 1:0.0 2:0.0 3:0.0 4:2.0 5:0.0 6:5.0 7:1.0 8:0.0 
0.0 1.0 1:0.0 2:0.0 3:0.0 4:1.0 5:1.0 6:5.0 7:0.0 8:0.0 
0.0 1.0 1:0.0 2:0.0 3:0.0 4:1.0 5:0.0 6:2.0 7:2.0 8:0.0 
1.0 0.0 1:0.0 2:0.0 3:0.0 4:2.0 5:1.0 6:5.0 7:1.0 8:1.0 
1.0 1.0 1:1.0 2:0.0 3:1.0 4:2.0 5:2.0 6:2.0 7:1.0 8:1.0 
1.0 0.0 1:0.0 2:0.0 3:0.0 4:5.0 5:2.0 6:8.0 7:1.0 8:2.0 
0.8300608408452789 0.9926797329717798 1:0.0 2:0.0 3:0.0 4:7.0 5:1.0 6:6.0 7:3.0 8:7.0 
1.0 1.0 1:0.0 2:0.0 3:0.0 4:4.0 5:0.0 6:6.0 7:0.0 8:1.0 
0.0 1.0 1:0.0 2:0.0 3:0.0 4:8.0 5:0.0 6:4.0 7:0.0 8:0.0 
0.0 1.0 1:0.0 2:0.0 3:0.0 4:3.0 5:0.0 6:5.0 7:0.0 8:0.0 
0.18811553093404623 1.0 1:1.0 2:0.0 3:1.0 4:5.0 5:0.0 6:15.0 7:1.0 8:0.0 
1.0 1.0 1:0.0 2:0.0 3:0.0 4:3.0 5:0.0 6:2.0 7:0.0 8:1.0 
1.0 1.0 1:0.0 2:0.0 3:0.0 4:2.0 5:0.0 6:2.0 7:2.0 8:1.0 
1.0 0.8402652377685315 1:0.0 2:0.0 3:0.0 4:3.0 5:2.0 6:7.0 7:0.0 8:2.0 
1.0 1.0 1:1.0 2:1.0 3:1.0 4:1.0 5:0.0 6:2.0 7:2.0 8:0.0 
1.0 0.039547716120463317 1:0.0 2:0.0 3:0.0 4:0.0 5:0.0 6:1.0 7:1.0 8:2.0 
1.0 0.0 1:0.0 2:0.0 3:0.0 4:1.0 5:1.0 6:2.0 7:2.0 8:2.0 
1.0 1.0 1:0.0 2:0.0 3:0.0 4:1.0 5:2.0 6:3.0 7:1.0 8:0.0 
1.0 1.0 1:0.0 2:0.0 3:0.0 4:1.0 5:0.0 6:3.0 7:2.0 8:2.0 
1.0 0.6344398771626554 1:0.0 2:0.0 3:0.0 4:3.0 5:2.0 6:1.0 7:4.0 8:1.0 
1.0 1.0 1:0.0 2:0.0 3:0.0 4:1.0 5:1.0 6:7.0 7:3.0 8:1.0 
1.0 0.0 1:0.0 2:0.0 3:0.0 4:1.0 5:1.0 6:4.0 7:0.0 8:0.0 
0.0 0.7163331021507433 1:0.0 2:0.0 3:0.0 4:1.0 5:0.0 6:14.0 7:2.0 8:0.0 
0.5348583328355714 1.0 1:0.0 2:0.0 3:0.0 4:3.0 5:2.0 6:7.0 7:0.0 8:0.0 
1.0 1.0 1:0.0 2:0.0 3:0.0 4:0.0 5:1.0 6:1.0 7:1.0 8:1.0 
1.0 1.0 1:0.0 2:0.0 3:0.0 4:2.0 5:1.0 6:1.0 7:0.0 8:0.0 
1.0 0.0 1:0.0 2:0.0 3:0.0 4:0.0 5:0.0 6:1.0 7:1.0 8:2.0 
1.0 1.0 1:1.0 2:0.0 3:0.0 4:0.0 5:2.0 6:4.0 7:0.0 8:1.0 
0.9587181268700607 0.25810175305019617 1:0.0 2:0.0 3:0.0 4:3.0 5:3.0 6:10.0 7:4.0 8:4.0 
1.0 0.07058990742449528 1:0.0 2:0.0 3:0.0 4:1.0 5:0.0 6:10.0 7:0.0 8:2.0 
0.38400702985666496 0.0 1:0.0 2:0.0 3:0.0 4:3.0 5:0.0 6:10.0 7:0.0 8:2.0 
1.0 0.46982134239257894 1:0.0 2:0.0 3:0.0 4:1.0 5:4.0 6:1.0 7:0.0 8:3.0 
0.0 1.0 1:0.0 2:0.0 3:0.0 4:3.0 5:0.0 6:6.0 7:3.0 8:0.0 
1.0 0.0 1:0.0 2:0.0 3:0.0 4:0.0 5:0.0 6:5.0 7:0.0 8:2.0 
1.0 1.0 1:1.0 2:0.0 3:0.0 4:1.0 5:1.0 6:0.0 7:0.0 8:1.0 
1.0 1.0 1:1.0 2:1.0 3:0.0 4:1.0 5:2.0 6:5.0 7:1.0 8:2.0 
1.0 0.0 1:0.0 2:0.0 3:0.0 4:0.0 5:1.0 6:2.0 7:1.0 8:1.0 
1.0 1.0 1:0.0 2:0.0 3:0.0 4:1.0 5:1.0 6:7.0 7:2.0 8:0.0 
1.0 0.0 1:0.0 2:0.0 3:0.0 4:0.0 5:1.0 6:2.0 7:3.0 8:3.0 
0.8898107991280558 0.0 1:0.0 2:0.0 3:0.0 4:0.0 5:0.0 6:1.0 7:0.0 8:5.0 
0.0 0.42624937864767276 1:0.0 2:0.0 3:0.0 4:7.0 5:0.0 6:8.0 7:2.0 8:2.0 
1.0 1.0 1:0.0 2:0.0 3:0.0 4:4.0 5:0.0 6:6.0 7:1.0 8:1.0 
0.0 0.17996182970650929 1:0.0 2:0.0 3:0.0 4:2.0 5:1.0 6:12.0 7:5.0 8:0.0 
1.0 0.926119820139985 1:0.0 2:0.0 3:0.0 4:0.0 5:0.0 6:3.0 7:2.0 8:5.0 
1.0 1.0 1:0.0 2:0.0 3:0.0 4:0.0 5:2.0 6:0.0 7:2.0 8:2.0 
0.11083220607454439 0.8913037220521647 1:0.0 2:0.0 3:0.0 4:11.0 5:1.0 6:4.0 7:2.0 8:1.0 
0.0 1.0 1:0.0 2:0.0 3:0.0 4:3.0 5:0.0 6:8.0 7:2.0 8:0.0 
0.0 1.0 1:0.0 2:0.0 3:0.0 4:3.0 5:0.0 6:5.0 7:0.0 8:0.0 
1.0 1.0 1:1.0 2:0.0 3:0.0 4:1.0 5:2.0 6:2.0 7:0.0 8:2.0 
1.0 1.0 1:0.0 2:0.0 3:0.0 4:3.0 5:2.0 6:5.0 7:0.0 8:1.0 
1.0 0.42603762355926184 1:0.0 2:0.0 3:0.0 4:2.0 5:2.0 6:10.0 7:0.0 8:1.0 
1.0 1.0 1:0.0 2:0.0 3:0.0 4:1.0 5:2.0 6:4.0 7:0.0 8:1.0 
1.0 0.5839608845492879 1:0.0 2:0.0 3:0.0 4:4.0 5:0.0 6:4.0 7:2.0 8:2.0 
0.0 1.0 1:0.0 2:0.0 3:0.0 4:1.0 5:0.0 6:6.0 7:1.0 8:0.0 
1.0 0.0 1:0.0 2:0.0 3:0.0 4:2.0 5:1.0 6:3.0 7:0.0 8:2.0 
0.3083565825605449 0.6830797058173331 1:0.0 2:0.0 3:0.0 4:0.0 5:1.0 6:6.0 7:2.0 8:6.0 
0.0 1.0 1:1.0 2:0.0 3:0.0 4:1.0 5:0.0 6:0.0 7:0.0 8:0.0 
1.0 1.0 1:0.0 2:0.0 3:0.0 4:4.0 5:3.0 6:4.0 7:1.0 8:0.0 
0.0 0.9411776347863026 1:0.0 2:0.0 3:0.0 4:1.0 5:0.0 6:3.0 7:2.0 8:0.0 
0.0 0.626522825495879 1:0.0 2:0.0 3:0.0 4:1.0 5:0.0 6:10.0 7:0.0 8:0.0 
0.5947921472969366 1.0 1:0.0 2:0.0 3:0.0 4:1.0 5:0.0 6:4.0 7:0.0 8:5.0 
0.0 1.0 1:0.0 2:0.0 3:0.0 4:2.0 5:0.0 6:7.0 7:2.0 8:0.0 
0.0 0.7566559403279112 1:0.0 2:0.0 3:0.0 4:4.0 5:0.0 6:11.0 7:1.0 8:3.0 
0.5990748348344026 0.4753131227880451 1:0.0 2:0.0 3:0.0 4:3.0 5:2.0 6:9.0 7:0.0 8:10.0 
1.0 1.0 1:1.0 2:0.0 3:0.0 4:1.0 5:0.0 6:4.0 7:1.0 8:0.0 
0.5147385852796452 0.0 1:0.0 2:0.0 3:0.0 4:0.0 5:0.0 6:3.0 7:2.0 8:0.0 
0.08600269519666937 0.21749979995933333 1:0.0 2:0.0 3:0.0 4:0.0 5:5.0 6:11.0 7:0.0 8:1.0 
0.0 0.11733164612964105 1:0.0 2:0.0 3:0.0 4:1.0 5:2.0 6:7.0 7:1.0 8:0.0 
0.0 1.0 1:1.0 2:0.0 3:0.0 4:1.0 5:0.0 6:2.0 7:0.0 8:0.0 
1.0 0.0 1:0.0 2:0.0 3:0.0 4:2.0 5:1.0 6:6.0 7:3.0 8:1.0 
1.0 0.0 1:0.0 2:0.0 3:0.0 4:3.0 5:0.0 6:8.0 7:1.0 8:2.0 
1.0 0.0 1:0.0 2:0.0 3:0.0 4:0.0 5:0.0 6:3.0 7:2.0 8:0.0 
1.0 1.0 1:1.0 2:0.0 3:0.0 4:0.0 5:0.0 6:5.0 7:1.0 8:0.0 
1.0 1.0 1:0.0 2:0.0 3:0.0 4:2.0 5:2.0 6:3.0 7:3.0 8:1.0 
0.8728833694779233 0.5977838229531618 1:0.0 2:0.0 3:0.0 4:2.0 5:3.0 6:5.0 7:0.0 8:13.0 
0.0 1.0 1:0.0 2:0.0 3:0.0 4:4.0 5:0.0 6:4.0 7:1.0 8:1.0 
1.0 0.0 1:0.0 2:0.0 3:0.0 4:0.0 5:2.0 6:3.0 7:1.0 8:0.0 
1.0 0.0 1:0.0 2:0.0 3:0.0 4:0.0 5:0.0 6:4.0 7:3.0 8:1.0 
1.0 0.0 1:0.0 2:0.0 3:0.0 4:0.0 5:2.0 6:4.0 7:1.0 8:0.0 
0.0 1.0 1:0.0 2:0.0 3:0.0 4:3.0 5:0.0 6:5.0 7:2.0 8:0.0 
1.0 1.0 1:0.0 2:0.0 3:0.0 4:2.0 5:0.0 6:3.0 7:3.0 8:1.0 
1.0 1.0 1:0.0 2:0.0 3:0.0 4:1.0 5:0.0 6:6.0 7:2.0 8:2.0 
1.0 0.5297157766466202 1:0.0 2:0.0 3:0.0 4:3.0 5:5.0 6:3.0 7:0.0 8:6.0 
1.0 0.0 1:0.0 2:0.0 3:0.0 4:1.0 5:1.0 6:8.0 7:4.0 8:0.0 
0.0 1.0 1:0.0 2:0.0 3:0.0 4:2.0 5:0.0 6:4.0 7:0.0 8:0.0 
1.0 1.0 1:0.0 2:0.0 3:0.0 4:2.0 5:1.0 6:2.0 7:2.0 8:0.0 
0.0 1.0 1:0.0 2:0.0 3:0.0 4:4.0 5:0.0 6:7.0 7:1.0 8:0.0 
1.0 1.0 1:0.0 2:0.0 3:0.0 4:2.0 5:1.0 6:4.0 7:2.0 8:0.0 
1.0 1.0 1:1.0 2:1.0 3:0.0 4:4.0 5:0.0 6:3.0 7:1.0 8:0.0 
0.0 1.0 1:0.0 2:0.0 3:0.0 4:3.0 5:3.0 6:3.0 7:1.0 8:7.0 
0.3613164556370578 0.0 1:0.0 2:0.0 3:0.0 4:1.0 5:2.0 6:7.0 7:10.0 8:1.0 
1.0 1.0 1:0.0 2:0.0 3:0.0 4:0.0 5:1.0 6:1.0 7:3.0 8:0.0 
1.0 1.0 1:0.0 2:0.0 3:0.0 4:6.0 5:2.0 6:5.0 7:1.0 8:1.0 
1.0 0.0 1:0.0 2:0.0 3:0.0 4:2.0 5:2.0 6:6.0 7:3.0 8:3.0 
1.0 1.0 1:0.0 2:0.0 3:0.0 4:1.0 5:1.0 6:4.0 7:0.0 8:1.0 
0.0 1.0 1:0.0 2:0.0 3:0.0 4:3.0 5:0.0 6:7.0 7:0.0 8:0.0 
1.0 1.0 1:0.0 2:0.0 3:0.0 4:2.0 5:0.0 6:6.0 7:1.0 8:0.0 
1.0 1.0 1:0.0 2:0.0 3:0.0 4:1.0 5:0.0 6:10.0 7:2.0 8:1.0 
1.0 1.0 1:0.0 2:0.0 3:0.0 4:1.0 5:2.0 6:4.0 7:3.0 8:1.0 
0.6034300887968302 0.63763226261538 1:0.0 2:0.0 3:0.0 4:14.0 5:1.0 6:22.0 7:0.0 8:7.0 
1.0 0.0 1:0.0 2:0.0 3:0.0 4:1.0 5:1.0 6:9.0 7:0.0 8:2.0 
1.0 1.0 1:0.0 2:0.0 3:0.0 4:1.0 5:1.0 6:3.0 7:2.0 8:0.0 
1.0 1.0 1:0.0 2:0.0 3:0.0 4:0.0 5:0.0 6:8.0 7:3.0 8:0.0 
0.8259467966896021 0.0 1:0.0 2:0.0 3:0.0 4:1.0 5:1.0 6:8.0 7:1.0 8:2.0 
1.0 0.0 1:0.0 2:0.0 3:0.0 4:1.0 5:1.0 6:7.0 7:1.0 8:1.0 
0.0 1.0 1:0.0 2:0.0 3:0.0 4:1.0 5:0.0 6:2.0 7:2.0 8:0.0 
0.0 1.0 1:0.0 2:0.0 3:0.0 4:3.0 5:0.0 6:8.0 7:1.0 8:0.0 
0.3827215026607034 1.0 1:0.0 2:0.0 3:0.0 4:3.0 5:0.0 6:5.0 7:2.0 8:1.0 
0.43814864672036524 0.11754360585599208 1:0.0 2:0.0 3:0.0 4:0.0 5:0.0 6:9.0 7:3.0 8:2.0 
0.0 1.0 1:0.0 2:0.0 3:0.0 4:2.0 5:0.0 6:2.0 7:0.0 8:0.0 
0.0 0.17306411035701025 1:0.0 2:0.0 3:0.0 4:1.0 5:1.0 6:8.0 7:1.0 8:0.0 
1.0 1.0 1:0.0 2:0.0 3:0.0 4:1.0 5:0.0 6:3.0 7:4.0 8:1.0 
0.0 1.0 1:0.0 2:0.0 3:0.0 4:0.0 5:0.0 6:2.0 7:3.0 8:0.0 
0.0 1.0 1:0.0 2:0.0 3:0.0 4:2.0 5:0.0 6:10.0 7:2.0 8:1.0 
1.0 0.0 1:0.0 2:0.0 3:0.0 4:1.0 5:1.0 6:6.0 7:3.0 8:0.0 
0.0 1.0 1:0.0 2:0.0 3:0.0 4:6.0 5:1.0 6:9.0 7:0.0 8:1.0 
1.0 0.3026318664274513 1:0.0 2:0.0 3:0.0 4:0.0 5:2.0 6:1.0 7:4.0 8:0.0 
1.0 1.0 1:1.0 2:0.0 3:0.0 4:5.0 5:1.0 6:6.0 7:3.0 8:0.0 
0.7666200122619031 1.0 1:0.0 2:0.0 3:0.0 4:2.0 5:1.0 6:7.0 7:2.0 8:0.0 
1.0 0.13457305753926074 1:0.0 2:0.0 3:0.0 4:0.0 5:2.0 6:4.0 7:1.0 8:2.0 
0.0 1.0 1:0.0 2:0.0 3:0.0 4:1.0 5:1.0 6:5.0 7:0.0 8:0.0 
1.0 0.0 1:0.0 2:0.0 3:0.0 4:0.0 5:0.0 6:1.0 7:3.0 8:1.0 
1.0 1.0 1:0.0 2:0.0 3:0.0 4:0.0 5:0.0 6:2.0 7:1.0 8:1.0 
1.0 0.5889577842002418 1:0.0 2:0.0 3:0.0 4:1.0 5:2.0 6:2.0 7:4.0 8:0.0 
1.0 1.0 1:0.0 2:0.0 3:0.0 4:2.0 5:0.0 6:0.0 7:0.0 8:1.0 
1.0 1.0 1:0.0 2:0.0 3:0.0 4:3.0 5:0.0 6:4.0 7:3.0 8:0.0 
1.0 1.0 1:0.0 2:0.0 3:0.0 4:4.0 5:1.0 6:3.0 7:1.0 8:0.0 
1.0 1.0 1:0.0 2:0.0 3:0.0 4:1.0 5:0.0 6:11.0 7:1.0 8:2.0 
0.6605205873200458 1.0 1:0.0 2:0.0 3:0.0 4:4.0 5:0.0 6:9.0 7:0.0 8:0.0 
0.3652702953154354 1.0 1:1.0 2:4.0 3:0.0 4:0.0 5:1.0 6:0.0 7:1.0 8:0.0 
0.0 1.0 1:0.0 2:0.0 3:0.0 4:5.0 5:2.0 6:2.0 7:0.0 8:4.0 
1.0 0.0 1:0.0 2:0.0 3:0.0 4:1.0 5:0.0 6:0.0 7:1.0 8:0.0 
1.0 1.0 1:1.0 2:0.0 3:0.0 4:2.0 5:2.0 6:3.0 7:1.0 8:2.0 
0.0 1.0 1:1.0 2:3.0 3:0.0 4:1.0 5:0.0 6:0.0 7:0.0 8:0.0 
0.0 1.0 1:0.0 2:0.0 3:0.0 4:2.0 5:0.0 6:3.0 7:0.0 8:1.0 
0.19368330272963005 0.22454674797634397 1:0.0 2:0.0 3:0.0 4:0.0 5:1.0 6:18.0 7:6.0 8:0.0 
1.0 1.0 1:0.0 2:0.0 3:0.0 4:5.0 5:0.0 6:0.0 7:0.0 8:0.0 
1.0 1.0 1:1.0 2:1.0 3:0.0 4:1.0 5:0.0 6:5.0 7:4.0 8:0.0 
1.0 1.0 1:1.0 2:0.0 3:1.0 4:1.0 5:0.0 6:3.0 7:0.0 8:2.0 
0.0 1.0 1:0.0 2:0.0 3:0.0 4:3.0 5:0.0 6:5.0 7:2.0 8:0.0 
0.0 1.0 1:0.0 2:0.0 3:0.0 4:2.0 5:0.0 6:4.0 7:0.0 8:0.0 
0.9819712922960949 0.0 1:0.0 2:0.0 3:0.0 4:0.0 5:1.0 6:3.0 7:5.0 8:0.0 
1.0 1.0 1:0.0 2:0.0 3:0.0 4:3.0 5:0.0 6:5.0 7:1.0 8:0.0 
0.0 1.0 1:0.0 2:0.0 3:0.0 4:0.0 5:1.0 6:5.0 7:1.0 8:0.0 
0.0 0.34082043453013405 1:0.0 2:0.0 3:0.0 4:4.0 5:2.0 6:2.0 7:0.0 8:5.0 
0.0 0.49250292145452085 1:0.0 2:0.0 3:0.0 4:2.0 5:2.0 6:11.0 7:3.0 8:1.0 
1.0 1.0 1:0.0 2:0.0 3:0.0 4:3.0 5:0.0 6:1.0 7:0.0 8:1.0 
1.0 0.0 1:0.0 2:0.0 3:0.0 4:2.0 5:1.0 6:5.0 7:1.0 8:1.0 
1.0 1.0 1:0.0 2:0.0 3:0.0 4:4.0 5:2.0 6:3.0 7:1.0 8:1.0 
0.0 1.0 1:0.0 2:0.0 3:0.0 4:4.0 5:0.0 6:1.0 7:1.0 8:1.0 
1.0 0.24333563695574334 1:0.0 2:0.0 3:0.0 4:0.0 5:2.0 6:10.0 7:1.0 8:0.0 
1.0 1.0 1:0.0 2:0.0 3:0.0 4:1.0 5:0.0 6:4.0 7:2.0 8:2.0 
0.0 1.0 1:0.0 2:0.0 3:0.0 4:4.0 5:0.0 6:2.0 7:1.0 8:1.0 
0.0 1.0 1:0.0 2:0.0 3:0.0 4:3.0 5:0.0 6:6.0 7:0.0 8:0.0 
1.0 0.0 1:0.0 2:0.0 3:0.0 4:1.0 5:1.0 6:4.0 7:0.0 8:0.0 
0.0 0.4032661951501634 1:0.0 2:0.0 3:0.0 4:1.0 5:0.0 6:12.0 7:5.0 8:0.0 
1.0 1.0 1:0.0 2:0.0 3:0.0 4:2.0 5:0.0 6:5.0 7:4.0 8:0.0 
1.0 0.0 1:0.0 2:0.0 3:0.0 4:0.0 5:3.0 6:4.0 7:2.0 8:0.0 
1.0 1.0 1:1.0 2:0.0 3:0.0 4:2.0 5:0.0 6:4.0 7:0.0 8:0.0 
0.0 1.0 1:0.0 2:0.0 3:0.0 4:2.0 5:0.0 6:0.0 7:1.0 8:0.0 
1.0 0.0 1:0.0 2:0.0 3:0.0 4:0.0 5:0.0 6:1.0 7:3.0 8:0.0 
1.0 0.0 1:0.0 2:0.0 3:0.0 4:0.0 5:1.0 6:1.0 7:2.0 8:0.0 
0.47553385182009333 0.0 1:0.0 2:0.0 3:0.0 4:0.0 5:0.0 6:1.0 7:5.0 8:1.0 
1.0 1.0 1:1.0 2:0.0 3:1.0 4:1.0 5:1.0 6:5.0 7:1.0 8:2.0 
0.0 0.7748745346931096 1:0.0 2:0.0 3:0.0 4:1.0 5:0.0 6:3.0 7:1.0 8:0.0 
0.0 0.21218034423920032 1:0.0 2:0.0 3:0.0 4:0.0 5:0.0 6:2.0 7:4.0 8:0.0 
1.0 1.0 1:0.0 2:0.0 3:0.0 4:1.0 5:1.0 6:5.0 7:1.0 8:2.0 
1.0 1.0 1:0.0 2:0.0 3:0.0 4:2.0 5:1.0 6:4.0 7:1.0 8:1.0 
0.0 0.48500666865268466 1:0.0 2:0.0 3:0.0 4:1.0 5:0.0 6:1.0 7:0.0 8:0.0 
0.0 0.370318141642762 1:0.0 2:0.0 3:0.0 4:1.0 5:0.0 6:5.0 7:1.0 8:0.0 
1.0 0.0 1:0.0 2:0.0 3:0.0 4:0.0 5:1.0 6:7.0 7:3.0 8:2.0 
0.0 0.6366319484020385 1:0.0 2:0.0 3:0.0 4:2.0 5:0.0 6:9.0 7:2.0 8:1.0 
1.0 0.6813704861903207 1:0.0 2:0.0 3:0.0 4:0.0 5:2.0 6:3.0 7:2.0 8:3.0 
1.0 1.0 1:0.0 2:0.0 3:0.0 4:2.0 5:2.0 6:1.0 7:1.0 8:0.0 
1.0 0.0 1:0.0 2:0.0 3:0.0 4:0.0 5:0.0 6:4.0 7:1.0 8:1.0 
0.4719352272150942 0.0 1:0.0 2:0.0 3:0.0 4:2.0 5:2.0 6:14.0 7:4.0 8:1.0 
0.29329770057938453 0.38823361591892386 1:0.0 2:0.0 3:0.0 4:1.0 5:0.0 6:8.0 7:0.0 8:7.0 
1.0 0.95276934148135 1:0.0 2:0.0 3:0.0 4:6.0 5:0.0 6:8.0 7:3.0 8:4.0 
0.6728947123319464 0.4336610064124838 1:0.0 2:0.0 3:0.0 4:10.0 5:4.0 6:9.0 7:5.0 8:3.0 
1.0 1.0 1:1.0 2:0.0 3:2.0 4:0.0 5:0.0 6:3.0 7:1.0 8:1.0 
1.0 1.0 1:0.0 2:0.0 3:0.0 4:3.0 5:1.0 6:4.0 7:4.0 8:2.0 
0.0 1.0 1:0.0 2:0.0 3:0.0 4:3.0 5:0.0 6:8.0 7:2.0 8:0.0 
1.0 1.0 1:0.0 2:0.0 3:0.0 4:2.0 5:1.0 6:1.0 7:0.0 8:1.0 
0.018037201874608066 0.0 1:0.0 2:0.0 3:0.0 4:2.0 5:2.0 6:14.0 7:3.0 8:3.0 
0.3053243503813584 0.18577061160944452 1:0.0 2:0.0 3:0.0 4:7.0 5:0.0 6:16.0 7:2.0 8:3.0 
0.0 1.0 1:0.0 2:0.0 3:0.0 4:3.0 5:0.0 6:3.0 7:0.0 8:0.0 
0.0 1.0 1:0.0 2:0.0 3:0.0 4:4.0 5:0.0 6:5.0 7:1.0 8:1.0 
1.0 0.7963432094037706 1:0.0 2:0.0 3:0.0 4:2.0 5:1.0 6:2.0 7:4.0 8:2.0 
0.21640827667123258 1.0 1:0.0 2:0.0 3:0.0 4:3.0 5:1.0 6:0.0 7:0.0 8:1.0 
0.0 1.0 1:0.0 2:0.0 3:0.0 4:2.0 5:0.0 6:5.0 7:2.0 8:0.0 
0.0 0.9798411873498601 1:0.0 2:0.0 3:0.0 4:2.0 5:2.0 6:10.0 7:1.0 8:1.0 
1.0 0.0 1:0.0 2:0.0 3:0.0 4:0.0 5:0.0 6:2.0 7:1.0 8:2.0 
0.0 1.0 1:1.0 2:2.0 3:0.0 4:3.0 5:0.0 6:6.0 7:2.0 8:0.0 
1.0 0.0 1:0.0 2:0.0 3:0.0 4:1.0 5:0.0 6:4.0 7:1.0 8:1.0 
1.0 1.0 1:0.0 2:0.0 3:0.0 4:2.0 5:1.0 6:2.0 7:2.0 8:1.0 
0.0 1.0 1:0.0 2:0.0 3:0.0 4:1.0 5:1.0 6:8.0 7:1.0 8:0.0 
0.0 1.0 1:0.0 2:0.0 3:0.0 4:6.0 5:0.0 6:7.0 7:1.0 8:0.0 
1.0 1.0 1:0.0 2:0.0 3:0.0 4:3.0 5:6.0 6:3.0 7:0.0 8:1.0 
0.0 1.0 1:0.0 2:0.0 3:0.0 4:1.0 5:0.0 6:1.0 7:0.0 8:0.0 
0.0 1.0 1:0.0 2:0.0 3:0.0 4:1.0 5:0.0 6:12.0 7:3.0 8:0.0 
0.0 1.0 1:1.0 2:1.0 3:0.0 4:0.0 5:0.0 6:7.0 7:0.0 8:0.0 
1.0 0.0 1:0.0 2:0.0 3:0.0 4:0.0 5:1.0 6:4.0 7:0.0 8:0.0 
0.8865640680726323 1.0 1:1.0 2:0.0 3:0.0 4:1.0 5:0.0 6:0.0 7:0.0 8:0.0 
1.0 0.0 1:0.0 2:0.0 3:0.0 4:0.0 5:3.0 6:4.0 7:0.0 8:1.0 
1.0 0.0 1:0.0 2:0.0 3:0.0 4:1.0 5:0.0 6:2.0 7:1.0 8:1.0 
0.4216915995568619 0.0 1:0.0 2:0.0 3:0.0 4:0.0 5:0.0 6:9.0 7:1.0 8:0.0 
0.0 1.0 1:1.0 2:1.0 3:0.0 4:0.0 5:0.0 6:0.0 7:0.0 8:0.0 
1.0 1.0 1:0.0 2:0.0 3:0.0 4:4.0 5:1.0 6:3.0 7:2.0 8:1.0 
0.0 1.0 1:0.0 2:0.0 3:0.0 4:3.0 5:0.0 6:8.0 7:0.0 8:1.0 
1.0 0.0 1:0.0 2:0.0 3:0.0 4:0.0 5:0.0 6:0.0 7:1.0 8:1.0 
1.0 1.0 1:0.0 2:0.0 3:0.0 4:4.0 5:0.0 6:8.0 7:2.0 8:0.0 
1.0 0.0 1:0.0 2:0.0 3:0.0 4:0.0 5:1.0 6:1.0 7:0.0 8:0.0 
1.0 1.0 1:0.0 2:0.0 3:0.0 4:0.0 5:0.0 6:0.0 7:3.0 8:0.0 
1.0 1.0 1:1.0 2:0.0 3:0.0 4:1.0 5:1.0 6:5.0 7:3.0 8:1.0 
1.0 0.0 1:0.0 2:0.0 3:0.0 4:2.0 5:1.0 6:6.0 7:3.0 8:1.0 
0.0 1.0 1:0.0 2:0.0 3:0.0 4:4.0 5:1.0 6:2.0 7:0.0 8:1.0 
0.0 1.0 1:0.0 2:0.0 3:0.0 4:2.0 5:0.0 6:5.0 7:0.0 8:0.0 
1.0 0.0 1:0.0 2:0.0 3:0.0 4:1.0 5:0.0 6:1.0 7:3.0 8:3.0 
0.9531191628733534 1.0 1:0.0 2:0.0 3:0.0 4:2.0 5:0.0 6:3.0 7:1.0 8:0.0 
0.0 1.0 1:0.0 2:0.0 3:0.0 4:10.0 5:0.0 6:6.0 7:2.0 8:1.0 
0.0 1.0 1:1.0 2:1.0 3:0.0 4:2.0 5:0.0 6:4.0 7:0.0 8:0.0 
1.0 1.0 1:0.0 2:0.0 3:0.0 4:3.0 5:0.0 6:3.0 7:3.0 8:0.0 
0.0 1.0 1:0.0 2:0.0 3:0.0 4:4.0 5:2.0 6:5.0 7:0.0 8:8.0 
0.0 1.0 1:0.0 2:0.0 3:0.0 4:3.0 5:0.0 6:2.0 7:0.0 8:0.0 
1.0 0.0 1:0.0 2:0.0 3:0.0 4:2.0 5:1.0 6:2.0 7:0.0 8:2.0 
0.0 1.0 1:0.0 2:0.0 3:0.0 4:2.0 5:0.0 6:4.0 7:0.0 8:0.0 
1.0 1.0 1:0.0 2:0.0 3:0.0 4:3.0 5:1.0 6:3.0 7:0.0 8:0.0 
0.0 1.0 1:0.0 2:0.0 3:0.0 4:5.0 5:0.0 6:5.0 7:0.0 8:1.0 
1.0 0.9884235864916523 1:0.0 2:0.0 3:0.0 4:0.0 5:2.0 6:6.0 7:2.0 8:3.0 
0.0 1.0 1:1.0 2:1.0 3:0.0 4:0.0 5:0.0 6:1.0 7:0.0 8:0.0 
0.0 1.0 1:0.0 2:0.0 3:0.0 4:0.0 5:0.0 6:1.0 7:4.0 8:0.0 
1.0 1.0 1:0.0 2:0.0 3:0.0 4:1.0 5:0.0 6:4.0 7:4.0 8:0.0 
0.0 1.0 1:0.0 2:0.0 3:0.0 4:7.0 5:0.0 6:2.0 7:1.0 8:1.0 
0.0 1.0 1:0.0 2:0.0 3:0.0 4:2.0 5:0.0 6:1.0 7:0.0 8:0.0 
0.40418093683990897 0.0 1:0.0 2:0.0 3:0.0 4:1.0 5:1.0 6:3.0 7:1.0 8:0.0 
1.0 1.0 1:1.0 2:0.0 3:0.0 4:3.0 5:0.0 6:5.0 7:2.0 8:1.0 
0.7126306898186073 0.9857622382023984 1:0.0 2:0.0 3:0.0 4:5.0 5:1.0 6:10.0 7:2.0 8:2.0 
1.0 0.8782670175065367 1:0.0 2:0.0 3:0.0 4:0.0 5:0.0 6:4.0 7:0.0 8:3.0 
1.0 0.0 1:0.0 2:0.0 3:0.0 4:0.0 5:1.0 6:1.0 7:1.0 8:0.0 
0.5288127606592362 1.0 1:0.0 2:0.0 3:0.0 4:4.0 5:0.0 6:4.0 7:0.0 8:0.0 
0.0 0.8506289360804932 1:0.0 2:0.0 3:0.0 4:1.0 5:0.0 6:0.0 7:0.0 8:1.0 
1.0 1.0 1:0.0 2:0.0 3:0.0 4:3.0 5:2.0 6:7.0 7:0.0 8:1.0 
1.0 1.0 1:1.0 2:1.0 3:0.0 4:1.0 5:0.0 6:0.0 7:1.0 8:0.0 
0.47825005514249525 1.0 1:0.0 2:0.0 3:0.0 4:8.0 5:0.0 6:12.0 7:0.0 8:0.0 
0.0 1.0 1:0.0 2:0.0 3:0.0 4:1.0 5:0.0 6:1.0 7:0.0 8:0.0 
1.0 1.0 1:1.0 2:0.0 3:1.0 4:0.0 5:1.0 6:0.0 7:2.0 8:0.0 
1.0 1.0 1:0.0 2:0.0 3:0.0 4:1.0 5:2.0 6:4.0 7:1.0 8:0.0 
1.0 1.0 1:0.0 2:0.0 3:0.0 4:3.0 5:1.0 6:7.0 7:0.0 8:2.0 
1.0 0.0 1:0.0 2:0.0 3:0.0 4:0.0 5:1.0 6:1.0 7:3.0 8:1.0 
1.0 0.0 1:0.0 2:0.0 3:0.0 4:1.0 5:4.0 6:6.0 7:2.0 8:1.0 
1.0 1.0 1:1.0 2:0.0 3:1.0 4:1.0 5:0.0 6:2.0 7:0.0 8:0.0 
1.0 0.5311230538848974 1:0.0 2:0.0 3:0.0 4:0.0 5:2.0 6:4.0 7:1.0 8:2.0 
0.0 1.0 1:0.0 2:0.0 3:0.0 4:5.0 5:2.0 6:3.0 7:0.0 8:0.0 
1.0 1.0 1:0.0 2:0.0 3:0.0 4:2.0 5:0.0 6:4.0 7:2.0 8:1.0 
0.6369780613887891 0.5094704379993146 1:0.0 2:0.0 3:0.0 4:4.0 5:2.0 6:9.0 7:3.0 8:6.0 
1.0 0.0 1:0.0 2:0.0 3:0.0 4:0.0 5:0.0 6:3.0 7:2.0 8:0.0 
1.0 1.0 1:0.0 2:0.0 3:0.0 4:0.0 5:0.0 6:3.0 7:0.0 8:2.0 
1.0 0.6974350769290332 1:0.0 2:0.0 3:0.0 4:1.0 5:4.0 6:6.0 7:4.0 8:0.0 
0.0 1.0 1:0.0 2:0.0 3:0.0 4:2.0 5:0.0 6:3.0 7:0.0 8:0.0 
1.0 1.0 1:0.0 2:0.0 3:0.0 4:2.0 5:0.0 6:1.0 7:0.0 8:1.0 
1.0 0.0 1:0.0 2:0.0 3:0.0 4:0.0 5:0.0 6:2.0 7:4.0 8:1.0 
1.0 1.0 1:0.0 2:0.0 3:0.0 4:4.0 5:1.0 6:2.0 7:1.0 8:1.0 
1.0 1.0 1:0.0 2:0.0 3:0.0 4:2.0 5:1.0 6:2.0 7:1.0 8:1.0 
1.0 0.0 1:0.0 2:0.0 3:0.0 4:0.0 5:0.0 6:4.0 7:1.0 8:3.0 
0.16729058674838032 1.0 1:0.0 2:0.0 3:0.0 4:2.0 5:0.0 6:10.0 7:3.0 8:0.0 
0.0 1.0 1:0.0 2:0.0 3:0.0 4:2.0 5:0.0 6:2.0 7:0.0 8:2.0 
0.0 1.0 1:0.0 2:0.0 3:0.0 4:0.0 5:1.0 6:6.0 7:2.0 8:0.0 
0.0 0.2886731758766513 1:0.0 2:0.0 3:0.0 4:5.0 5:3.0 6:7.0 7:0.0 8:0.0 
0.0 1.0 1:0.0 2:0.0 3:0.0 4:1.0 5:0.0 6:6.0 7:1.0 8:0.0 
0.0 1.0 1:0.0 2:0.0 3:0.0 4:9.0 5:1.0 6:6.0 7:1.0 8:1.0 
1.0 1.0 1:0.0 2:0.0 3:0.0 4:4.0 5:2.0 6:9.0 7:4.0 8:2.0 
1.0 1.0 1:1.0 2:0.0 3:1.0 4:3.0 5:2.0 6:4.0 7:3.0 8:2.0 
1.0 0.0 1:0.0 2:0.0 3:0.0 4:1.0 5:1.0 6:1.0 7:1.0 8:0.0 
1.0 0.0 1:0.0 2:0.0 3:0.0 4:1.0 5:1.0 6:0.0 7:0.0 8:0.0 
1.0 0.6145848264256143 1:0.0 2:0.0 3:0.0 4:2.0 5:1.0 6:5.0 7:2.0 8:0.0 
0.9799076244290124 0.0 1:0.0 2:0.0 3:0.0 4:1.0 5:0.0 6:9.0 7:2.0 8:1.0 
0.0 1.0 1:0.0 2:0.0 3:0.0 4:3.0 5:0.0 6:4.0 7:1.0 8:1.0 
0.0 1.0 1:0.0 2:0.0 3:0.0 4:1.0 5:0.0 6:3.0 7:1.0 8:0.0 
1.0 1.0 1:1.0 2:0.0 3:0.0 4:2.0 5:1.0 6:7.0 7:1.0 8:1.0 
1.0 1.0 1:0.0 2:0.0 3:0.0 4:2.0 5:0.0 6:2.0 7:3.0 8:1.0 
1.0 0.0 1:0.0 2:0.0 3:0.0 4:0.0 5:1.0 6:1.0 7:0.0 8:1.0 
0.0 1.0 1:0.0 2:0.0 3:0.0 4:10.0 5:0.0 6:5.0 7:1.0 8:2.0 
1.0 1.0 1:0.0 2:0.0 3:0.0 4:2.0 5:0.0 6:1.0 7:2.0 8:0.0 
0.0 1.0 1:0.0 2:0.0 3:0.0 4:2.0 5:0.0 6:7.0 7:1.0 8:2.0 
0.0 0.061290057331693654 1:0.0 2:0.0 3:0.0 4:1.0 5:1.0 6:11.0 7:0.0 8:6.0 
1.0 0.8286248670544153 1:0.0 2:0.0 3:0.0 4:1.0 5:1.0 6:1.0 7:1.0 8:0.0 
0.0 1.0 1:0.0 2:0.0 3:0.0 4:1.0 5:0.0 6:1.0 7:1.0 8:0.0 
1.0 1.0 1:0.0 2:0.0 3:0.0 4:1.0 5:1.0 6:4.0 7:0.0 8:2.0 
1.0 1.0 1:1.0 2:0.0 3:0.0 4:0.0 5:0.0 6:3.0 7:0.0 8:1.0 
0.7586943423345949 0.767957883649936 1:0.0 2:0.0 3:0.0 4:6.0 5:6.0 6:1.0 7:0.0 8:0.0 
1.0 1.0 1:0.0 2:0.0 3:0.0 4:3.0 5:1.0 6:4.0 7:4.0 8:2.0 
0.0 1.0 1:0.0 2:0.0 3:0.0 4:2.0 5:0.0 6:0.0 7:0.0 8:0.0 
1.0 0.0 1:0.0 2:0.0 3:0.0 4:3.0 5:2.0 6:8.0 7:0.0 8:1.0 
0.7697961020160472 1.0 1:0.0 2:0.0 3:0.0 4:6.0 5:1.0 6:9.0 7:3.0 8:0.0 
1.0 1.0 1:0.0 2:0.0 3:0.0 4:0.0 5:2.0 6:1.0 7:0.0 8:0.0 
1.0 1.0 1:0.0 2:0.0 3:0.0 4:5.0 5:2.0 6:3.0 7:5.0 8:0.0 
1.0 1.0 1:0.0 2:0.0 3:0.0 4:4.0 5:1.0 6:3.0 7:1.0 8:0.0 
0.0 1.0 1:0.0 2:0.0 3:0.0 4:4.0 5:0.0 6:1.0 7:0.0 8:1.0 
0.0 1.0 1:0.0 2:0.0 3:0.0 4:1.0 5:0.0 6:1.0 7:0.0 8:0.0 
0.0 1.0 1:0.0 2:0.0 3:0.0 4:1.0 5:0.0 6:1.0 7:0.0 8:0.0 
1.0 1.0 1:0.0 2:0.0 3:0.0 4:0.0 5:2.0 6:1.0 7:1.0 8:1.0 
1.0 0.10160031268788114 1:0.0 2:0.0 3:0.0 4:0.0 5:0.0 6:5.0 7:6.0 8:1.0 
0.0 1.0 1:0.0 2:0.0 3:0.0 4:2.0 5:0.0 6:3.0 7:0.0 8:0.0 
0.0 1.0 1:0.0 2:0.0 3:0.0 4:2.0 5:0.0 6:5.0 7:0.0 8:0.0 
1.0 1.0 1:0.0 2:0.0 3:0.0 4:2.0 5:0.0 6:2.0 7:1.0 8:0.0 
1.0 1.0 1:0.0 2:0.0 3:0.0 4:2.0 5:0.0 6:3.0 7:2.0 8:1.0 
1.0 0.0 1:0.0 2:0.0 3:0.0 4:0.0 5:1.0 6:2.0 7:1.0 8:0.0 
1.0 1.0 1:0.0 2:0.0 3:0.0 4:2.0 5:1.0 6:0.0 7:1.0 8:0.0 
0.0 1.0 1:0.0 2:0.0 3:0.0 4:4.0 5:0.0 6:5.0 7:3.0 8:0.0 
0.0 0.8245109062967891 1:0.0 2:0.0 3:0.0 4:4.0 5:2.0 6:8.0 7:1.0 8:0.0 
0.0 1.0 1:0.0 2:0.0 3:0.0 4:1.0 5:1.0 6:3.0 7:0.0 8:3.0 
1.0 0.0 1:0.0 2:0.0 3:0.0 4:0.0 5:1.0 6:2.0 7:1.0 8:0.0 
0.0 1.0 1:0.0 2:0.0 3:0.0 4:1.0 5:0.0 6:1.0 7:0.0 8:0.0 
0.8634582621037806 1.0 1:1.0 2:2.0 3:0.0 4:1.0 5:0.0 6:0.0 7:1.0 8:1.0 
1.0 1.0 1:1.0 2:0.0 3:2.0 4:0.0 5:0.0 6:5.0 7:0.0 8:0.0 
1.0 0.0 1:0.0 2:0.0 3:0.0 4:0.0 5:1.0 6:1.0 7:1.0 8:0.0 
0.0 1.0 1:0.0 2:0.0 3:0.0 4:3.0 5:0.0 6:1.0 7:1.0 8:0.0 
1.0 0.0 1:0.0 2:0.0 3:0.0 4:1.0 5:0.0 6:1.0 7:1.0 8:3.0 
1.0 1.0 1:1.0 2:1.0 3:1.0 4:1.0 5:0.0 6:1.0 7:1.0 8:0.0 
1.0 0.0 1:0.0 2:0.0 3:0.0 4:1.0 5:0.0 6:4.0 7:0.0 8:2.0 
1.0 1.0 1:1.0 2:0.0 3:0.0 4:3.0 5:0.0 6:3.0 7:1.0 8:0.0 
0.0 1.0 1:0.0 2:0.0 3:0.0 4:0.0 5:0.0 6:2.0 7:3.0 8:0.0 
0.0 1.0 1:0.0 2:0.0 3:0.0 4:1.0 5:0.0 6:5.0 7:1.0 8:0.0 
1.0 0.0 1:0.0 2:0.0 3:0.0 4:3.0 5:3.0 6:4.0 7:1.0 8:3.0 
1.0 0.0 1:0.0 2:0.0 3:0.0 4:1.0 5:0.0 6:4.0 7:1.0 8:1.0 
1.0 1.0 1:0.0 2:0.0 3:0.0 4:1.0 5:0.0 6:0.0 7:1.0 8:1.0 
0.0 1.0 1:0.0 2:0.0 3:0.0 4:2.0 5:0.0 6:2.0 7:0.0 8:0.0 
1.0 0.12872269424243607 1:0.0 2:0.0 3:0.0 4:0.0 5:2.0 6:2.0 7:1.0 8:0.0 
0.0 1.0 1:0.0 2:0.0 3:0.0 4:1.0 5:0.0 6:3.0 7:1.0 8:0.0 
0.0 1.0 1:0.0 2:0.0 3:0.0 4:5.0 5:2.0 6:7.0 7:1.0 8:0.0 
1.0 1.0 1:0.0 2:0.0 3:0.0 4:2.0 5:0.0 6:4.0 7:0.0 8:1.0 
1.0 1.0 1:0.0 2:0.0 3:0.0 4:2.0 5:1.0 6:4.0 7:4.0 8:2.0 
0.5190661966658588 0.0 1:0.0 2:0.0 3:0.0 4:4.0 5:0.0 6:6.0 7:1.0 8:4.0 
1.0 1.0 1:0.0 2:0.0 3:0.0 4:0.0 5:2.0 6:1.0 7:0.0 8:0.0 
1.0 0.0 1:0.0 2:0.0 3:0.0 4:1.0 5:1.0 6:5.0 7:1.0 8:1.0 
0.0 1.0 1:0.0 2:0.0 3:0.0 4:4.0 5:0.0 6:4.0 7:2.0 8:0.0 
0.0 1.0 1:0.0 2:0.0 3:0.0 4:6.0 5:0.0 6:6.0 7:0.0 8:1.0 
1.0 0.9289163325985937 1:0.0 2:0.0 3:0.0 4:3.0 5:3.0 6:8.0 7:7.0 8:1.0 
1.0 1.0 1:0.0 2:0.0 3:0.0 4:1.0 5:0.0 6:5.0 7:2.0 8:2.0 
1.0 0.6145614761376785 1:0.0 2:0.0 3:0.0 4:3.0 5:6.0 6:7.0 7:1.0 8:3.0 
1.0 0.0 1:0.0 2:0.0 3:0.0 4:0.0 5:1.0 6:1.0 7:0.0 8:0.0 
0.0 1.0 1:0.0 2:0.0 3:0.0 4:1.0 5:0.0 6:1.0 7:0.0 8:0.0 
0.0 1.0 1:0.0 2:0.0 3:0.0 4:1.0 5:0.0 6:1.0 7:0.0 8:0.0 
1.0 0.0 1:0.0 2:0.0 3:0.0 4:0.0 5:0.0 6:2.0 7:5.0 8:2.0 
1.0 0.0 1:0.0 2:0.0 3:0.0 4:2.0 5:1.0 6:3.0 7:1.0 8:3.0 
1.0 1.0 1:0.0 2:0.0 3:0.0 4:2.0 5:2.0 6:2.0 7:0.0 8:0.0 
1.0 1.0 1:0.0 2:0.0 3:0.0 4:0.0 5:1.0 6:3.0 7:2.0 8:1.0 
0.0 1.0 1:0.0 2:0.0 3:0.0 4:1.0 5:1.0 6:6.0 7:0.0 8:0.0 
1.0 0.0 1:0.0 2:0.0 3:0.0 4:0.0 5:1.0 6:1.0 7:0.0 8:0.0 
1.0 1.0 1:0.0 2:0.0 3:0.0 4:1.0 5:1.0 6:3.0 7:0.0 8:1.0 
1.0 0.0 1:0.0 2:0.0 3:0.0 4:1.0 5:2.0 6:6.0 7:1.0 8:2.0 
0.8567646829944656 0.0 1:0.0 2:0.0 3:0.0 4:1.0 5:1.0 6:5.0 7:5.0 8:0.0 
0.0 1.0 1:0.0 2:0.0 3:0.0 4:6.0 5:0.0 6:3.0 7:1.0 8:1.0 
1.0 0.0 1:0.0 2:0.0 3:0.0 4:1.0 5:5.0 6:6.0 7:1.0 8:2.0 
0.10297778845523656 0.0 1:0.0 2:0.0 3:0.0 4:4.0 5:4.0 6:9.0 7:1.0 8:4.0 
1.0 0.0 1:0.0 2:0.0 3:0.0 4:0.0 5:0.0 6:1.0 7:1.0 8:3.0 
0.521709507159127 0.0 1:0.0 2:0.0 3:0.0 4:4.0 5:1.0 6:11.0 7:3.0 8:3.0 
0.8963166503045557 1.0 1:0.0 2:0.0 3:0.0 4:3.0 5:0.0 6:5.0 7:2.0 8:1.0 
0.0 1.0 1:0.0 2:0.0 3:0.0 4:5.0 5:1.0 6:4.0 7:0.0 8:0.0 
0.003189363139380369 0.0 1:0.0 2:0.0 3:0.0 4:5.0 5:4.0 6:10.0 7:2.0 8:1.0 
0.0 1.0 1:1.0 2:2.0 3:0.0 4:2.0 5:1.0 6:5.0 7:3.0 8:0.0 
0.0 1.0 1:0.0 2:0.0 3:0.0 4:5.0 5:1.0 6:6.0 7:1.0 8:0.0 
1.0 1.0 1:0.0 2:0.0 3:0.0 4:1.0 5:1.0 6:3.0 7:2.0 8:0.0 
0.22019009066986686 1.0 1:0.0 2:0.0 3:0.0 4:10.0 5:3.0 6:11.0 7:2.0 8:4.0 
0.0 1.0 1:0.0 2:0.0 3:0.0 4:1.0 5:0.0 6:2.0 7:2.0 8:0.0 
1.0 1.0 1:0.0 2:0.0 3:0.0 4:5.0 5:0.0 6:4.0 7:2.0 8:0.0 
0.049903849830510896 1.0 1:0.0 2:0.0 3:0.0 4:3.0 5:0.0 6:8.0 7:0.0 8:0.0 
0.0 1.0 1:0.0 2:0.0 3:0.0 4:6.0 5:0.0 6:5.0 7:2.0 8:0.0 
1.0 0.0 1:0.0 2:0.0 3:0.0 4:2.0 5:2.0 6:8.0 7:3.0 8:0.0 
1.0 0.0 1:0.0 2:0.0 3:0.0 4:0.0 5:1.0 6:1.0 7:2.0 8:1.0 
0.89590994764296 0.0 1:0.0 2:0.0 3:0.0 4:2.0 5:0.0 6:6.0 7:2.0 8:1.0 
1.0 0.7792385310497333 1:0.0 2:0.0 3:0.0 4:0.0 5:4.0 6:3.0 7:3.0 8:6.0 
0.49060819853163634 1.0 1:0.0 2:0.0 3:0.0 4:3.0 5:0.0 6:4.0 7:1.0 8:0.0 
1.0 0.0 1:0.0 2:0.0 3:0.0 4:1.0 5:2.0 6:4.0 7:0.0 8:4.0 
1.0 1.0 1:1.0 2:0.0 3:0.0 4:4.0 5:0.0 6:5.0 7:3.0 8:0.0 
0.019845268645268272 0.0 1:0.0 2:0.0 3:0.0 4:3.0 5:0.0 6:4.0 7:0.0 8:7.0 
1.0 0.0 1:0.0 2:0.0 3:0.0 4:1.0 5:0.0 6:1.0 7:1.0 8:1.0 
1.0 1.0 1:0.0 2:0.0 3:0.0 4:2.0 5:0.0 6:3.0 7:1.0 8:0.0 
1.0 1.0 1:0.0 2:0.0 3:0.0 4:2.0 5:1.0 6:2.0 7:0.0 8:1.0 
1.0 1.0 1:1.0 2:0.0 3:0.0 4:1.0 5:0.0 6:3.0 7:3.0 8:0.0 
0.0 0.019295183796016316 1:0.0 2:0.0 3:0.0 4:0.0 5:0.0 6:7.0 7:1.0 8:0.0 
0.0 1.0 1:0.0 2:0.0 3:0.0 4:1.0 5:0.0 6:1.0 7:0.0 8:0.0 
1.0 0.0 1:0.0 2:0.0 3:0.0 4:2.0 5:1.0 6:2.0 7:1.0 8:3.0 
0.0 1.0 1:0.0 2:0.0 3:0.0 4:2.0 5:0.0 6:3.0 7:0.0 8:0.0 
1.0 1.0 1:0.0 2:0.0 3:0.0 4:0.0 5:1.0 6:2.0 7:2.0 8:0.0 
0.04608148450536438 1.0 1:0.0 2:0.0 3:0.0 4:1.0 5:4.0 6:7.0 7:0.0 8:0.0 
0.0 1.0 1:0.0 2:0.0 3:0.0 4:3.0 5:0.0 6:3.0 7:0.0 8:0.0 
0.3858930147259149 1.0 1:0.0 2:0.0 3:0.0 4:3.0 5:0.0 6:1.0 7:4.0 8:0.0 
1.0 0.0 1:0.0 2:0.0 3:0.0 4:2.0 5:1.0 6:4.0 7:0.0 8:3.0 
1.0 0.7792483249307105 1:0.0 2:0.0 3:0.0 4:2.0 5:3.0 6:1.0 7:0.0 8:0.0 
0.0 1.0 1:0.0 2:0.0 3:0.0 4:2.0 5:0.0 6:4.0 7:2.0 8:0.0 
1.0 1.0 1:0.0 2:0.0 3:0.0 4:0.0 5:2.0 6:5.0 7:1.0 8:0.0 
1.0 0.0 1:0.0 2:0.0 3:0.0 4:0.0 5:0.0 6:4.0 7:0.0 8:2.0 
1.0 0.0 1:0.0 2:0.0 3:0.0 4:2.0 5:2.0 6:6.0 7:0.0 8:1.0 
1.0 0.6470131622665483 1:0.0 2:0.0 3:0.0 4:1.0 5:0.0 6:8.0 7:0.0 8:3.0 
0.0 1.0 1:0.0 2:0.0 3:0.0 4:1.0 5:0.0 6:7.0 7:0.0 8:1.0 
1.0 1.0 1:0.0 2:0.0 3:0.0 4:2.0 5:0.0 6:1.0 7:0.0 8:1.0 
1.0 1.0 1:1.0 2:0.0 3:1.0 4:0.0 5:1.0 6:2.0 7:1.0 8:0.0 
0.5451669345094676 1.0 1:1.0 2:3.0 3:0.0 4:6.0 5:0.0 6:1.0 7:4.0 8:0.0 
1.0 1.0 1:0.0 2:0.0 3:0.0 4:4.0 5:4.0 6:5.0 7:1.0 8:2.0 
0.0 1.0 1:0.0 2:0.0 3:0.0 4:2.0 5:0.0 6:3.0 7:0.0 8:0.0 
1.0 0.4375662312724839 1:0.0 2:0.0 3:0.0 4:2.0 5:1.0 6:5.0 7:1.0 8:2.0 
0.0 1.0 1:0.0 2:0.0 3:0.0 4:2.0 5:0.0 6:3.0 7:0.0 8:1.0 
1.0 1.0 1:0.0 2:0.0 3:0.0 4:2.0 5:1.0 6:5.0 7:0.0 8:3.0 
0.0 1.0 1:0.0 2:0.0 3:0.0 4:10.0 5:0.0 6:10.0 7:2.0 8:1.0 
0.0 1.0 1:1.0 2:1.0 3:0.0 4:0.0 5:0.0 6:3.0 7:0.0 8:0.0 
1.0 1.0 1:0.0 2:0.0 3:0.0 4:2.0 5:0.0 6:9.0 7:1.0 8:1.0 
0.0 1.0 1:0.0 2:0.0 3:0.0 4:1.0 5:0.0 6:7.0 7:2.0 8:1.0 
0.0 1.0 1:0.0 2:0.0 3:0.0 4:2.0 5:0.0 6:1.0 7:1.0 8:0.0 
1.0 0.0 1:0.0 2:0.0 3:0.0 4:0.0 5:0.0 6:8.0 7:5.0 8:0.0 
0.0 1.0 1:0.0 2:0.0 3:0.0 4:2.0 5:0.0 6:0.0 7:0.0 8:0.0 
1.0 0.0 1:0.0 2:0.0 3:0.0 4:1.0 5:1.0 6:3.0 7:1.0 8:0.0 
1.0 1.0 1:0.0 2:0.0 3:0.0 4:0.0 5:1.0 6:6.0 7:1.0 8:0.0 
1.0 0.0 1:0.0 2:0.0 3:0.0 4:2.0 5:0.0 6:6.0 7:3.0 8:3.0 
0.0 1.0 1:0.0 2:0.0 3:0.0 4:4.0 5:0.0 6:3.0 7:0.0 8:0.0 
1.0 0.0 1:0.0 2:0.0 3:0.0 4:2.0 5:2.0 6:9.0 7:3.0 8:0.0 
1.0 1.0 1:0.0 2:0.0 3:0.0 4:0.0 5:2.0 6:2.0 7:1.0 8:1.0 
1.0 0.0 1:0.0 2:0.0 3:0.0 4:1.0 5:1.0 6:1.0 7:2.0 8:1.0 
0.0 1.0 1:0.0 2:0.0 3:0.0 4:1.0 5:0.0 6:3.0 7:1.0 8:0.0 
1.0 0.0 1:0.0 2:0.0 3:0.0 4:1.0 5:1.0 6:5.0 7:3.0 8:4.0 
0.32205227928936137 0.3308402869396767 1:0.0 2:0.0 3:0.0 4:6.0 5:0.0 6:11.0 7:3.0 8:1.0 
1.0 0.0 1:0.0 2:0.0 3:0.0 4:1.0 5:5.0 6:4.0 7:0.0 8:0.0 
1.0 0.0 1:0.0 2:0.0 3:0.0 4:0.0 5:0.0 6:5.0 7:3.0 8:1.0 
1.0 1.0 1:0.0 2:0.0 3:0.0 4:1.0 5:0.0 6:0.0 7:1.0 8:2.0 
1.0 0.0 1:0.0 2:0.0 3:0.0 4:1.0 5:1.0 6:4.0 7:0.0 8:0.0 
0.0 1.0 1:0.0 2:0.0 3:0.0 4:4.0 5:0.0 6:2.0 7:0.0 8:0.0 
0.0 1.0 1:0.0 2:0.0 3:0.0 4:3.0 5:0.0 6:7.0 7:1.0 8:0.0 
0.0 1.0 1:0.0 2:0.0 3:0.0 4:0.0 5:1.0 6:4.0 7:1.0 8:0.0 
0.0 1.0 1:0.0 2:0.0 3:0.0 4:2.0 5:1.0 6:8.0 7:0.0 8:1.0 
0.0 1.0 1:0.0 2:0.0 3:0.0 4:4.0 5:0.0 6:5.0 7:3.0 8:0.0 
0.0 0.31256852321252576 1:0.0 2:0.0 3:0.0 4:1.0 5:0.0 6:16.0 7:1.0 8:2.0 
1.0 1.0 1:0.0 2:0.0 3:0.0 4:2.0 5:0.0 6:4.0 7:3.0 8:0.0 
0.1949171398229212 1.0 1:0.0 2:0.0 3:0.0 4:0.0 5:1.0 6:5.0 7:1.0 8:0.0 
1.0 0.6326623798611849 1:0.0 2:0.0 3:0.0 4:3.0 5:0.0 6:5.0 7:3.0 8:3.0 
1.0 1.0 1:0.0 2:0.0 3:0.0 4:1.0 5:0.0 6:3.0 7:3.0 8:1.0 
1.0 1.0 1:0.0 2:0.0 3:0.0 4:2.0 5:1.0 6:9.0 7:2.0 8:2.0 
1.0 0.23652849850163607 1:0.0 2:0.0 3:0.0 4:1.0 5:3.0 6:11.0 7:0.0 8:2.0 
0.0 1.0 1:0.0 2:0.0 3:0.0 4:2.0 5:0.0 6:4.0 7:0.0 8:0.0 
1.0 1.0 1:0.0 2:0.0 3:0.0 4:6.0 5:0.0 6:8.0 7:0.0 8:1.0 
1.0 0.0 1:0.0 2:0.0 3:0.0 4:1.0 5:0.0 6:2.0 7:1.0 8:1.0 
1.0 1.0 1:0.0 2:0.0 3:0.0 4:2.0 5:2.0 6:5.0 7:3.0 8:1.0 
0.609129005764757 1.0 1:0.0 2:0.0 3:0.0 4:2.0 5:0.0 6:8.0 7:0.0 8:0.0 
0.770756089446824 0.0 1:0.0 2:0.0 3:0.0 4:1.0 5:1.0 6:1.0 7:0.0 8:1.0 
0.5884529032261097 0.6230096646981683 1:0.0 2:0.0 3:0.0 4:2.0 5:0.0 6:14.0 7:17.0 8:0.0 
0.0 1.0 1:0.0 2:0.0 3:0.0 4:2.0 5:0.0 6:7.0 7:3.0 8:0.0 
0.0 0.6276566897631364 1:0.0 2:0.0 3:0.0 4:3.0 5:2.0 6:11.0 7:2.0 8:7.0 
1.0 1.0 1:0.0 2:0.0 3:0.0 4:0.0 5:1.0 6:5.0 7:1.0 8:1.0 
0.9897461031674986 0.8926247757841818 1:0.0 2:0.0 3:0.0 4:3.0 5:0.0 6:11.0 7:3.0 8:2.0 
0.0 0.37634950294756403 1:0.0 2:0.0 3:0.0 4:3.0 5:1.0 6:2.0 7:0.0 8:2.0 
0.0 0.6966497984289705 1:0.0 2:0.0 3:0.0 4:0.0 5:3.0 6:3.0 7:0.0 8:0.0 
1.0 0.0 1:0.0 2:0.0 3:0.0 4:4.0 5:0.0 6:4.0 7:2.0 8:2.0 
0.0 1.0 1:0.0 2:0.0 3:0.0 4:1.0 5:0.0 6:2.0 7:2.0 8:0.0 
1.0 0.32240317729976214 1:0.0 2:0.0 3:0.0 4:1.0 5:0.0 6:7.0 7:1.0 8:2.0 
1.0 0.0 1:0.0 2:0.0 3:0.0 4:1.0 5:0.0 6:6.0 7:1.0 8:2.0 
0.0 1.0 1:0.0 2:0.0 3:0.0 4:0.0 5:1.0 6:4.0 7:1.0 8:0.0 
0.0 1.0 1:0.0 2:0.0 3:0.0 4:2.0 5:0.0 6:5.0 7:1.0 8:0.0 
0.8295375408708685 0.0 1:0.0 2:0.0 3:0.0 4:9.0 5:0.0 6:2.0 7:3.0 8:2.0 
1.0 0.6471552286879033 1:0.0 2:0.0 3:0.0 4:1.0 5:0.0 6:7.0 7:2.0 8:0.0 
1.0 0.5046185804655775 1:0.0 2:0.0 3:0.0 4:1.0 5:4.0 6:3.0 7:2.0 8:0.0 
1.0 0.07731460401158197 1:0.0 2:0.0 3:0.0 4:1.0 5:2.0 6:5.0 7:2.0 8:1.0 
0.0 1.0 1:0.0 2:0.0 3:0.0 4:5.0 5:0.0 6:6.0 7:0.0 8:1.0 
1.0 0.20631104229117378 1:0.0 2:0.0 3:0.0 4:3.0 5:2.0 6:7.0 7:3.0 8:0.0 
1.0 1.0 1:1.0 2:0.0 3:0.0 4:1.0 5:0.0 6:2.0 7:0.0 8:1.0 
1.0 1.0 1:0.0 2:0.0 3:0.0 4:2.0 5:1.0 6:3.0 7:4.0 8:2.0 
1.0 1.0 1:0.0 2:0.0 3:0.0 4:1.0 5:0.0 6:1.0 7:2.0 8:0.0 
1.0 1.0 1:0.0 2:0.0 3:0.0 4:4.0 5:0.0 6:3.0 7:2.0 8:1.0 
1.0 1.0 1:0.0 2:0.0 3:0.0 4:6.0 5:4.0 6:11.0 7:1.0 8:0.0 
1.0 0.39493042591727073 1:0.0 2:0.0 3:0.0 4:3.0 5:3.0 6:3.0 7:2.0 8:3.0 
0.0 1.0 1:0.0 2:0.0 3:0.0 4:1.0 5:0.0 6:5.0 7:1.0 8:0.0 
0.0 1.0 1:0.0 2:0.0 3:0.0 4:2.0 5:0.0 6:1.0 7:0.0 8:0.0 
0.0 1.0 1:0.0 2:0.0 3:0.0 4:1.0 5:0.0 6:1.0 7:0.0 8:0.0 
1.0 0.0 1:0.0 2:0.0 3:0.0 4:1.0 5:3.0 6:5.0 7:1.0 8:5.0 
1.0 0.6426297300369987 1:0.0 2:0.0 3:0.0 4:0.0 5:3.0 6:1.0 7:1.0 8:1.0 
1.0 0.0 1:0.0 2:0.0 3:0.0 4:0.0 5:1.0 6:5.0 7:0.0 8:1.0 
1.0 0.0 1:0.0 2:0.0 3:0.0 4:2.0 5:2.0 6:5.0 7:0.0 8:1.0 
0.0 1.0 1:0.0 2:0.0 3:0.0 4:3.0 5:1.0 6:3.0 7:1.0 8:1.0 
0.0 0.7228519766483281 1:0.0 2:0.0 3:0.0 4:1.0 5:0.0 6:3.0 7:3.0 8:0.0 
1.0 0.0 1:0.0 2:0.0 3:0.0 4:1.0 5:2.0 6:5.0 7:4.0 8:3.0 
1.0 1.0 1:0.0 2:0.0 3:0.0 4:3.0 5:1.0 6:6.0 7:1.0 8:2.0 
1.0 1.0 1:0.0 2:0.0 3:0.0 4:3.0 5:1.0 6:7.0 7:0.0 8:0.0 
1.0 1.0 1:0.0 2:0.0 3:0.0 4:2.0 5:1.0 6:3.0 7:0.0 8:0.0 
0.0 1.0 1:0.0 2:0.0 3:0.0 4:2.0 5:0.0 6:1.0 7:0.0 8:0.0 
1.0 0.0 1:0.0 2:0.0 3:0.0 4:1.0 5:5.0 6:2.0 7:2.0 8:0.0 
0.0 0.0411425986629261 1:0.0 2:0.0 3:0.0 4:0.0 5:0.0 6:3.0 7:3.0 8:0.0 
1.0 1.0 1:0.0 2:0.0 3:0.0 4:3.0 5:2.0 6:6.0 7:0.0 8:0.0 
0.0 1.0 1:0.0 2:0.0 3:0.0 4:1.0 5:0.0 6:1.0 7:0.0 8:0.0 
1.0 1.0 1:1.0 2:0.0 3:0.0 4:0.0 5:0.0 6:2.0 7:3.0 8:0.0 
0.0 1.0 1:0.0 2:0.0 3:0.0 4:3.0 5:0.0 6:0.0 7:1.0 8:0.0 
1.0 0.0 1:0.0 2:0.0 3:0.0 4:1.0 5:1.0 6:2.0 7:1.0 8:1.0 
1.0 1.0 1:0.0 2:0.0 3:0.0 4:3.0 5:0.0 6:7.0 7:3.0 8:0.0 
0.0 1.0 1:0.0 2:0.0 3:0.0 4:3.0 5:0.0 6:4.0 7:2.0 8:0.0 
1.0 1.0 1:1.0 2:0.0 3:0.0 4:1.0 5:1.0 6:3.0 7:1.0 8:1.0 
1.0 0.0 1:0.0 2:0.0 3:0.0 4:2.0 5:3.0 6:2.0 7:0.0 8:1.0 
0.11217128483530074 1.0 1:0.0 2:0.0 3:0.0 4:6.0 5:0.0 6:18.0 7:1.0 8:0.0 
0.0 1.0 1:0.0 2:0.0 3:0.0 4:1.0 5:0.0 6:3.0 7:1.0 8:0.0 
1.0 1.0 1:1.0 2:0.0 3:1.0 4:0.0 5:1.0 6:1.0 7:0.0 8:0.0 
1.0 1.0 1:0.0 2:0.0 3:0.0 4:3.0 5:0.0 6:3.0 7:0.0 8:2.0 
1.0 0.500455791845182 1:0.0 2:0.0 3:0.0 4:0.0 5:4.0 6:3.0 7:4.0 8:2.0 
1.0 1.0 1:0.0 2:0.0 3:0.0 4:2.0 5:1.0 6:2.0 7:1.0 8:0.0 
0.0 0.17199518868293048 1:0.0 2:0.0 3:0.0 4:1.0 5:0.0 6:4.0 7:0.0 8:1.0 
1.0 1.0 1:0.0 2:0.0 3:0.0 4:3.0 5:0.0 6:2.0 7:4.0 8:0.0 
0.0 1.0 1:0.0 2:0.0 3:0.0 4:2.0 5:0.0 6:5.0 7:0.0 8:0.0 
1.0 0.0 1:0.0 2:0.0 3:0.0 4:0.0 5:1.0 6:4.0 7:0.0 8:0.0 
0.5982298432998484 0.3831186001800465 1:0.0 2:0.0 3:0.0 4:0.0 5:0.0 6:19.0 7:3.0 8:3.0 
0.0 1.0 1:0.0 2:0.0 3:0.0 4:5.0 5:0.0 6:6.0 7:0.0 8:0.0 
1.0 0.0 1:0.0 2:0.0 3:0.0 4:1.0 5:1.0 6:7.0 7:3.0 8:2.0 
0.0 1.0 1:1.0 2:1.0 3:0.0 4:1.0 5:0.0 6:2.0 7:1.0 8:0.0 
1.0 0.2940015898879148 1:0.0 2:0.0 3:0.0 4:2.0 5:1.0 6:2.0 7:2.0 8:2.0 
0.0 1.0 1:1.0 2:1.0 3:0.0 4:0.0 5:0.0 6:2.0 7:0.0 8:0.0 
1.0 0.0 1:0.0 2:0.0 3:0.0 4:0.0 5:1.0 6:2.0 7:1.0 8:0.0 
1.0 0.2154396510237126 1:0.0 2:0.0 3:0.0 4:6.0 5:1.0 6:4.0 7:2.0 8:2.0 
1.0 0.08560258982312392 1:0.0 2:0.0 3:0.0 4:3.0 5:4.0 6:4.0 7:4.0 8:6.0 
1.0 1.0 1:0.0 2:0.0 3:0.0 4:4.0 5:0.0 6:9.0 7:0.0 8:0.0 
0.0 1.0 1:0.0 2:0.0 3:0.0 4:1.0 5:0.0 6:1.0 7:0.0 8:0.0 
0.0 1.0 1:0.0 2:0.0 3:0.0 4:0.0 5:0.0 6:2.0 7:3.0 8:0.0 
1.0 1.0 1:0.0 2:0.0 3:0.0 4:0.0 5:1.0 6:1.0 7:1.0 8:1.0 
0.21338771455983477 0.0 1:0.0 2:0.0 3:0.0 4:1.0 5:0.0 6:3.0 7:0.0 8:4.0 
1.0 0.0 1:0.0 2:0.0 3:0.0 4:2.0 5:1.0 6:3.0 7:0.0 8:2.0 
0.0 1.0 1:0.0 2:0.0 3:0.0 4:1.0 5:0.0 6:2.0 7:2.0 8:0.0 
1.0 0.0 1:0.0 2:0.0 3:0.0 4:4.0 5:1.0 6:3.0 7:1.0 8:2.0 
1.0 1.0 1:1.0 2:0.0 3:0.0 4:2.0 5:1.0 6:3.0 7:1.0 8:1.0 
1.0 0.0 1:0.0 2:0.0 3:0.0 4:1.0 5:1.0 6:2.0 7:2.0 8:1.0 
1.0 1.0 1:0.0 2:0.0 3:0.0 4:3.0 5:0.0 6:2.0 7:0.0 8:1.0 
0.0 1.0 1:0.0 2:0.0 3:0.0 4:1.0 5:0.0 6:6.0 7:0.0 8:2.0 
0.0 1.0 1:1.0 2:1.0 3:0.0 4:0.0 5:0.0 6:3.0 7:0.0 8:0.0 
0.0 1.0 1:0.0 2:0.0 3:0.0 4:3.0 5:0.0 6:6.0 7:1.0 8:1.0 
1.0 0.0 1:0.0 2:0.0 3:0.0 4:0.0 5:0.0 6:2.0 7:3.0 8:2.0 
1.0 0.003668685930654857 1:0.0 2:0.0 3:0.0 4:2.0 5:3.0 6:0.0 7:1.0 8:2.0 
1.0 0.0 1:0.0 2:0.0 3:0.0 4:0.0 5:1.0 6:0.0 7:0.0 8:0.0 
0.5048378691589487 0.47522339209736686 1:0.0 2:0.0 3:0.0 4:2.0 5:6.0 6:4.0 7:12.0 8:1.0 
0.0 1.0 1:0.0 2:0.0 3:0.0 4:2.0 5:0.0 6:8.0 7:0.0 8:2.0 
1.0 0.697391664790028 1:0.0 2:0.0 3:0.0 4:15.0 5:0.0 6:8.0 7:0.0 8:1.0 
1.0 1.0 1:1.0 2:0.0 3:0.0 4:0.0 5:0.0 6:2.0 7:1.0 8:1.0 
2.7834734181659995E-4 1.0 1:0.0 2:0.0 3:0.0 4:5.0 5:0.0 6:2.0 7:0.0 8:0.0 
1.0 0.0 1:0.0 2:0.0 3:0.0 4:0.0 5:1.0 6:5.0 7:3.0 8:3.0 
1.0 1.0 1:1.0 2:0.0 3:0.0 4:1.0 5:1.0 6:5.0 7:1.0 8:0.0 
1.0 0.0 1:0.0 2:0.0 3:0.0 4:1.0 5:2.0 6:7.0 7:0.0 8:1.0 
1.0 0.09547230643305683 1:0.0 2:0.0 3:0.0 4:2.0 5:4.0 6:1.0 7:3.0 8:2.0 
1.0 1.0 1:0.0 2:0.0 3:0.0 4:1.0 5:2.0 6:3.0 7:0.0 8:1.0 
1.0 1.0 1:0.0 2:0.0 3:0.0 4:3.0 5:1.0 6:5.0 7:0.0 8:1.0 
1.0 0.0 1:0.0 2:0.0 3:0.0 4:1.0 5:1.0 6:3.0 7:1.0 8:1.0 
1.0 1.0 1:0.0 2:0.0 3:0.0 4:1.0 5:0.0 6:1.0 7:1.0 8:1.0 
0.0 1.0 1:0.0 2:0.0 3:0.0 4:4.0 5:0.0 6:3.0 7:0.0 8:0.0 
0.9508708531489445 0.3974276699357983 1:0.0 2:0.0 3:0.0 4:0.0 5:6.0 6:7.0 7:1.0 8:0.0 
1.0 0.0 1:0.0 2:0.0 3:0.0 4:1.0 5:1.0 6:4.0 7:2.0 8:1.0 
1.0 0.5012444510982457 1:0.0 2:0.0 3:0.0 4:3.0 5:1.0 6:3.0 7:1.0 8:4.0 
1.0 0.0 1:0.0 2:0.0 3:0.0 4:1.0 5:0.0 6:2.0 7:1.0 8:1.0 
1.0 1.0 1:0.0 2:0.0 3:0.0 4:0.0 5:2.0 6:3.0 7:2.0 8:1.0 
1.0 0.0 1:0.0 2:0.0 3:0.0 4:0.0 5:3.0 6:3.0 7:2.0 8:4.0 
1.0 0.9974165131241991 1:0.0 2:0.0 3:0.0 4:3.0 5:1.0 6:4.0 7:0.0 8:4.0 
1.0 0.0 1:0.0 2:0.0 3:0.0 4:0.0 5:4.0 6:3.0 7:0.0 8:2.0 
0.1524620918735291 0.0 1:0.0 2:0.0 3:0.0 4:1.0 5:0.0 6:5.0 7:8.0 8:0.0 
1.0 1.0 1:0.0 2:0.0 3:0.0 4:5.0 5:0.0 6:3.0 7:4.0 8:0.0 
1.0 0.0 1:0.0 2:0.0 3:0.0 4:1.0 5:0.0 6:6.0 7:1.0 8:2.0 
0.0 0.8965441049330681 1:0.0 2:0.0 3:0.0 4:3.0 5:0.0 6:0.0 7:1.0 8:3.0 
1.0 1.0 1:0.0 2:0.0 3:0.0 4:0.0 5:1.0 6:6.0 7:2.0 8:4.0 
0.0 1.0 1:0.0 2:0.0 3:0.0 4:0.0 5:1.0 6:3.0 7:0.0 8:0.0 
0.0 1.0 1:0.0 2:0.0 3:0.0 4:6.0 5:1.0 6:8.0 7:1.0 8:1.0 
7.74523900422892E-4 0.0 1:0.0 2:0.0 3:0.0 4:0.0 5:0.0 6:10.0 7:4.0 8:0.0 
1.0 0.0 1:0.0 2:0.0 3:0.0 4:0.0 5:3.0 6:1.0 7:0.0 8:1.0 
0.11975599794202799 0.5111166987866732 1:1.0 2:0.0 3:0.0 4:4.0 5:0.0 6:2.0 7:2.0 8:8.0 
1.0 1.0 1:0.0 2:0.0 3:0.0 4:3.0 5:6.0 6:3.0 7:0.0 8:0.0 
1.0 1.0 1:0.0 2:0.0 3:0.0 4:3.0 5:1.0 6:3.0 7:2.0 8:1.0 
0.8910021953800014 0.0 1:0.0 2:0.0 3:0.0 4:2.0 5:4.0 6:8.0 7:1.0 8:3.0 
1.0 0.0 1:0.0 2:0.0 3:0.0 4:1.0 5:2.0 6:2.0 7:1.0 8:1.0 
1.0 0.0 1:0.0 2:0.0 3:0.0 4:1.0 5:0.0 6:6.0 7:3.0 8:0.0 
1.0 0.0 1:0.0 2:0.0 3:0.0 4:2.0 5:2.0 6:5.0 7:2.0 8:1.0 
0.4827448296418914 0.06630404793978122 1:0.0 2:0.0 3:0.0 4:1.0 5:6.0 6:13.0 7:1.0 8:1.0 
1.0 0.29090846206848875 1:0.0 2:0.0 3:0.0 4:1.0 5:3.0 6:5.0 7:6.0 8:1.0 
1.0 1.0 1:0.0 2:0.0 3:0.0 4:1.0 5:1.0 6:4.0 7:2.0 8:1.0 
0.0 1.0 1:0.0 2:0.0 3:0.0 4:7.0 5:1.0 6:5.0 7:0.0 8:0.0 
1.0 0.3095987080648304 1:0.0 2:0.0 3:0.0 4:0.0 5:2.0 6:8.0 7:1.0 8:0.0 
1.0 0.0 1:0.0 2:0.0 3:0.0 4:2.0 5:1.0 6:5.0 7:1.0 8:1.0 
0.8565020948617751 0.20166012609434336 1:0.0 2:0.0 3:0.0 4:1.0 5:1.0 6:5.0 7:3.0 8:7.0 
0.48814326087668286 0.5092455316738298 1:0.0 2:0.0 3:0.0 4:7.0 5:0.0 6:13.0 7:0.0 8:7.0 
0.0 1.0 1:0.0 2:0.0 3:0.0 4:2.0 5:0.0 6:5.0 7:2.0 8:0.0 
1.0 1.0 1:1.0 2:0.0 3:0.0 4:0.0 5:0.0 6:2.0 7:2.0 8:1.0 
0.0 0.5416398921322124 1:0.0 2:0.0 3:0.0 4:0.0 5:0.0 6:10.0 7:3.0 8:0.0 
1.0 1.0 1:0.0 2:0.0 3:0.0 4:0.0 5:2.0 6:2.0 7:2.0 8:0.0 
0.07416826410199553 0.0 1:0.0 2:0.0 3:0.0 4:2.0 5:0.0 6:2.0 7:0.0 8:6.0 
1.0 1.0 1:1.0 2:0.0 3:1.0 4:2.0 5:1.0 6:2.0 7:2.0 8:0.0 
0.7570792439353092 1.0 1:1.0 2:0.0 3:0.0 4:0.0 5:1.0 6:6.0 7:0.0 8:5.0 
0.0 1.0 1:0.0 2:0.0 3:0.0 4:9.0 5:0.0 6:2.0 7:0.0 8:0.0 
0.7915851867565786 0.12886832535995113 1:0.0 2:0.0 3:0.0 4:2.0 5:1.0 6:13.0 7:6.0 8:0.0 
0.0 0.8809337361281085 1:0.0 2:0.0 3:0.0 4:0.0 5:1.0 6:7.0 7:1.0 8:2.0 
0.6968159048112291 1.0 1:0.0 2:0.0 3:0.0 4:3.0 5:0.0 6:1.0 7:0.0 8:0.0 
0.0 1.0 1:0.0 2:0.0 3:0.0 4:1.0 5:0.0 6:11.0 7:0.0 8:1.0 
0.9251896502368352 0.0 1:0.0 2:0.0 3:0.0 4:1.0 5:0.0 6:7.0 7:1.0 8:0.0 
1.0 1.0 1:0.0 2:0.0 3:0.0 4:3.0 5:1.0 6:3.0 7:0.0 8:0.0 
0.8858663106161614 0.0 1:0.0 2:0.0 3:0.0 4:1.0 5:0.0 6:2.0 7:0.0 8:3.0 
0.0 1.0 1:0.0 2:0.0 3:0.0 4:6.0 5:0.0 6:11.0 7:0.0 8:0.0 
0.0 1.0 1:0.0 2:0.0 3:0.0 4:0.0 5:1.0 6:6.0 7:3.0 8:0.0 
1.0 1.0 1:0.0 2:0.0 3:0.0 4:1.0 5:2.0 6:8.0 7:0.0 8:1.0 
1.0 0.0 1:0.0 2:0.0 3:0.0 4:0.0 5:0.0 6:1.0 7:3.0 8:0.0 
0.0 1.0 1:0.0 2:0.0 3:0.0 4:0.0 5:0.0 6:3.0 7:3.0 8:0.0 
1.0 1.0 1:0.0 2:0.0 3:0.0 4:2.0 5:0.0 6:3.0 7:1.0 8:0.0 
1.0 1.0 1:0.0 2:0.0 3:0.0 4:0.0 5:2.0 6:2.0 7:1.0 8:0.0 
1.0 1.0 1:0.0 2:0.0 3:0.0 4:2.0 5:0.0 6:1.0 7:0.0 8:1.0 
1.0 1.0 1:0.0 2:0.0 3:0.0 4:2.0 5:1.0 6:2.0 7:0.0 8:0.0 
0.8467652756728754 0.0 1:0.0 2:0.0 3:0.0 4:4.0 5:2.0 6:3.0 7:1.0 8:5.0 
0.0 1.0 1:0.0 2:0.0 3:0.0 4:1.0 5:0.0 6:3.0 7:1.0 8:0.0 
1.0 1.0 1:1.0 2:0.0 3:0.0 4:0.0 5:0.0 6:6.0 7:0.0 8:1.0 
0.0 0.45323377066911774 1:0.0 2:0.0 3:0.0 4:0.0 5:2.0 6:7.0 7:2.0 8:0.0 
0.0 1.0 1:0.0 2:0.0 3:0.0 4:3.0 5:0.0 6:3.0 7:1.0 8:0.0 
1.0 0.0 1:0.0 2:0.0 3:0.0 4:0.0 5:1.0 6:4.0 7:0.0 8:0.0 
0.0 1.0 1:0.0 2:0.0 3:0.0 4:1.0 5:0.0 6:4.0 7:0.0 8:1.0 
0.4329047857246725 0.0 1:0.0 2:0.0 3:0.0 4:1.0 5:0.0 6:2.0 7:3.0 8:0.0 
0.9516368884306603 0.0 1:0.0 2:0.0 3:0.0 4:0.0 5:0.0 6:7.0 7:4.0 8:2.0 
1.0 1.0 1:1.0 2:0.0 3:0.0 4:0.0 5:0.0 6:0.0 7:0.0 8:1.0 
0.0 1.0 1:1.0 2:1.0 3:0.0 4:1.0 5:0.0 6:3.0 7:1.0 8:0.0 
1.0 1.0 1:0.0 2:0.0 3:0.0 4:4.0 5:0.0 6:2.0 7:1.0 8:2.0 
0.0 1.0 1:0.0 2:0.0 3:0.0 4:2.0 5:0.0 6:1.0 7:0.0 8:0.0 
0.0 1.0 1:0.0 2:0.0 3:0.0 4:2.0 5:0.0 6:3.0 7:0.0 8:0.0 
0.25010702307537297 0.20864823332037158 1:0.0 2:0.0 3:0.0 4:0.0 5:0.0 6:12.0 7:1.0 8:3.0 
0.0 1.0 1:0.0 2:0.0 3:0.0 4:2.0 5:0.0 6:3.0 7:0.0 8:0.0 
1.0 1.0 1:0.0 2:0.0 3:0.0 4:2.0 5:1.0 6:2.0 7:0.0 8:1.0 
1.0 0.8787663099020376 1:0.0 2:0.0 3:0.0 4:0.0 5:0.0 6:1.0 7:3.0 8:0.0 
0.0 1.0 1:0.0 2:0.0 3:0.0 4:2.0 5:0.0 6:3.0 7:0.0 8:0.0 
0.7291945221303103 1.0 1:0.0 2:0.0 3:0.0 4:3.0 5:0.0 6:1.0 7:0.0 8:0.0 
0.0 1.0 1:0.0 2:0.0 3:0.0 4:2.0 5:0.0 6:12.0 7:1.0 8:1.0 
0.0 1.0 1:0.0 2:0.0 3:0.0 4:3.0 5:0.0 6:8.0 7:2.0 8:2.0 
0.0 1.0 1:0.0 2:0.0 3:0.0 4:3.0 5:0.0 6:8.0 7:1.0 8:0.0 
0.0 1.0 1:0.0 2:0.0 3:0.0 4:3.0 5:0.0 6:7.0 7:0.0 8:0.0 
1.0 1.0 1:0.0 2:0.0 3:0.0 4:3.0 5:0.0 6:4.0 7:0.0 8:2.0 
1.0 1.0 1:1.0 2:1.0 3:0.0 4:2.0 5:0.0 6:3.0 7:0.0 8:1.0 
0.10912486045695946 0.0 1:0.0 2:0.0 3:0.0 4:1.0 5:1.0 6:4.0 7:0.0 8:0.0 
0.0 0.05554877767807272 1:0.0 2:0.0 3:0.0 4:0.0 5:0.0 6:7.0 7:2.0 8:0.0 
0.0 0.2773465646139388 1:0.0 2:0.0 3:0.0 4:0.0 5:0.0 6:8.0 7:3.0 8:2.0 
0.25874095532168645 0.2595959008830315 1:0.0 2:0.0 3:0.0 4:2.0 5:2.0 6:9.0 7:2.0 8:2.0 
0.4944636016417669 1.0 1:0.0 2:0.0 3:0.0 4:6.0 5:0.0 6:7.0 7:1.0 8:0.0 
1.0 1.0 1:0.0 2:0.0 3:0.0 4:0.0 5:0.0 6:2.0 7:1.0 8:1.0 
0.8971813634718797 0.0 1:0.0 2:0.0 3:0.0 4:6.0 5:4.0 6:5.0 7:0.0 8:7.0 
0.0 0.5747951794864535 1:0.0 2:0.0 3:0.0 4:0.0 5:0.0 6:10.0 7:0.0 8:0.0 
1.0 1.0 1:0.0 2:0.0 3:0.0 4:2.0 5:0.0 6:2.0 7:1.0 8:0.0 
0.34040471194471117 0.0 1:0.0 2:0.0 3:0.0 4:1.0 5:4.0 6:14.0 7:1.0 8:1.0 
1.0 0.0 1:0.0 2:0.0 3:0.0 4:1.0 5:0.0 6:0.0 7:1.0 8:0.0 
1.0 0.0 1:0.0 2:0.0 3:0.0 4:0.0 5:1.0 6:3.0 7:3.0 8:2.0 
1.0 1.0 1:0.0 2:0.0 3:0.0 4:2.0 5:1.0 6:3.0 7:1.0 8:0.0 
1.0 0.0 1:0.0 2:0.0 3:0.0 4:2.0 5:0.0 6:6.0 7:2.0 8:1.0 
1.0 0.0 1:0.0 2:0.0 3:0.0 4:1.0 5:1.0 6:4.0 7:2.0 8:0.0 
0.0 1.0 1:0.0 2:0.0 3:0.0 4:5.0 5:0.0 6:4.0 7:0.0 8:0.0 
0.0 0.5861736638312184 1:0.0 2:0.0 3:0.0 4:0.0 5:4.0 6:3.0 7:0.0 8:1.0 
1.0 1.0 1:0.0 2:0.0 3:0.0 4:3.0 5:0.0 6:3.0 7:1.0 8:1.0 
1.0 1.0 1:0.0 2:0.0 3:0.0 4:0.0 5:1.0 6:3.0 7:3.0 8:0.0 
1.0 0.0 1:0.0 2:0.0 3:0.0 4:0.0 5:4.0 6:4.0 7:1.0 8:3.0 
0.0 1.0 1:0.0 2:0.0 3:0.0 4:2.0 5:0.0 6:0.0 7:0.0 8:0.0 
1.0 0.0 1:0.0 2:0.0 3:0.0 4:1.0 5:1.0 6:3.0 7:1.0 8:0.0 
0.6397920389669017 0.0 1:0.0 2:0.0 3:0.0 4:3.0 5:2.0 6:8.0 7:1.0 8:1.0 
1.0 1.0 1:0.0 2:0.0 3:0.0 4:2.0 5:0.0 6:0.0 7:2.0 8:0.0 
0.0 1.0 1:0.0 2:0.0 3:0.0 4:4.0 5:0.0 6:3.0 7:1.0 8:0.0 
0.0 0.574485259336078 1:0.0 2:0.0 3:0.0 4:1.0 5:1.0 6:4.0 7:0.0 8:0.0 
1.0 1.0 1:0.0 2:0.0 3:0.0 4:0.0 5:1.0 6:1.0 7:1.0 8:1.0 
1.0 0.0 1:0.0 2:0.0 3:0.0 4:1.0 5:1.0 6:5.0 7:1.0 8:1.0 
1.0 1.0 1:0.0 2:0.0 3:0.0 4:2.0 5:1.0 6:7.0 7:2.0 8:0.0 
1.0 0.0 1:0.0 2:0.0 3:0.0 4:0.0 5:1.0 6:4.0 7:3.0 8:2.0 
1.0 1.0 1:0.0 2:0.0 3:0.0 4:4.0 5:1.0 6:2.0 7:2.0 8:1.0 
0.0 1.0 1:0.0 2:0.0 3:0.0 4:4.0 5:0.0 6:3.0 7:0.0 8:0.0 
1.0 0.0 1:0.0 2:0.0 3:0.0 4:3.0 5:4.0 6:2.0 7:0.0 8:0.0 
0.2679781605405623 0.6212610582739843 1:0.0 2:0.0 3:0.0 4:6.0 5:2.0 6:5.0 7:0.0 8:3.0 
1.0 1.0 1:0.0 2:0.0 3:0.0 4:1.0 5:1.0 6:1.0 7:1.0 8:0.0 
1.0 0.8895073219389432 1:0.0 2:0.0 3:0.0 4:0.0 5:0.0 6:6.0 7:3.0 8:0.0 
0.0 1.0 1:0.0 2:0.0 3:0.0 4:2.0 5:0.0 6:4.0 7:0.0 8:0.0 
0.17900087982051635 0.0 1:0.0 2:0.0 3:0.0 4:1.0 5:0.0 6:2.0 7:0.0 8:1.0 
1.0 0.0 1:0.0 2:0.0 3:0.0 4:0.0 5:0.0 6:3.0 7:2.0 8:0.0 
1.0 1.0 1:1.0 2:0.0 3:1.0 4:2.0 5:1.0 6:2.0 7:1.0 8:0.0 
1.0 0.040168100111537194 1:0.0 2:0.0 3:0.0 4:1.0 5:1.0 6:8.0 7:2.0 8:1.0 
0.18988158149003026 0.1528502717888975 1:0.0 2:0.0 3:0.0 4:0.0 5:0.0 6:8.0 7:2.0 8:7.0 
1.0 0.0 1:0.0 2:0.0 3:0.0 4:1.0 5:1.0 6:2.0 7:1.0 8:0.0 
1.0 1.0 1:1.0 2:0.0 3:0.0 4:5.0 5:0.0 6:7.0 7:1.0 8:1.0 
0.0 1.0 1:0.0 2:0.0 3:0.0 4:1.0 5:0.0 6:6.0 7:1.0 8:0.0 
1.0 1.0 1:1.0 2:1.0 3:0.0 4:2.0 5:1.0 6:5.0 7:1.0 8:0.0 
1.0 1.0 1:0.0 2:0.0 3:0.0 4:3.0 5:0.0 6:2.0 7:0.0 8:2.0 
0.0 1.0 1:0.0 2:0.0 3:0.0 4:3.0 5:0.0 6:5.0 7:0.0 8:0.0 
0.0 1.0 1:0.0 2:0.0 3:0.0 4:3.0 5:0.0 6:1.0 7:1.0 8:0.0 
1.0 1.0 1:0.0 2:0.0 3:0.0 4:1.0 5:0.0 6:1.0 7:2.0 8:0.0 
0.0 1.0 1:0.0 2:0.0 3:0.0 4:3.0 5:0.0 6:6.0 7:0.0 8:0.0 
0.0 1.0 1:0.0 2:0.0 3:0.0 4:4.0 5:0.0 6:3.0 7:0.0 8:0.0 
0.0 1.0 1:0.0 2:0.0 3:0.0 4:9.0 5:0.0 6:10.0 7:1.0 8:0.0 
0.0 1.0 1:0.0 2:0.0 3:0.0 4:3.0 5:1.0 6:2.0 7:1.0 8:0.0 
1.0 1.0 1:0.0 2:0.0 3:0.0 4:4.0 5:1.0 6:3.0 7:1.0 8:0.0 
1.0 0.0 1:0.0 2:0.0 3:0.0 4:1.0 5:2.0 6:2.0 7:1.0 8:0.0 
0.0 1.0 1:0.0 2:0.0 3:0.0 4:1.0 5:0.0 6:1.0 7:0.0 8:0.0 
0.0 1.0 1:0.0 2:0.0 3:0.0 4:4.0 5:1.0 6:10.0 7:0.0 8:2.0 
1.0 1.0 1:0.0 2:0.0 3:0.0 4:3.0 5:0.0 6:4.0 7:2.0 8:1.0 
1.0 1.0 1:1.0 2:1.0 3:0.0 4:1.0 5:0.0 6:3.0 7:2.0 8:0.0 
1.0 1.0 1:0.0 2:0.0 3:0.0 4:1.0 5:1.0 6:1.0 7:1.0 8:0.0 
1.0 1.0 1:1.0 2:1.0 3:0.0 4:1.0 5:1.0 6:3.0 7:1.0 8:0.0 
1.0 0.0 1:0.0 2:0.0 3:0.0 4:0.0 5:0.0 6:3.0 7:2.0 8:0.0 
0.35220891362895906 1.0 1:0.0 2:0.0 3:0.0 4:3.0 5:3.0 6:10.0 7:0.0 8:3.0 
1.0 0.0 1:0.0 2:0.0 3:0.0 4:2.0 5:1.0 6:4.0 7:1.0 8:2.0 
0.0 1.0 1:0.0 2:0.0 3:0.0 4:1.0 5:0.0 6:1.0 7:0.0 8:0.0 
1.0 0.2968127951698418 1:0.0 2:0.0 3:0.0 4:0.0 5:6.0 6:5.0 7:5.0 8:1.0 
0.18147653224068253 1.0 1:0.0 2:0.0 3:0.0 4:1.0 5:0.0 6:6.0 7:0.0 8:2.0 
1.0 0.0 1:0.0 2:0.0 3:0.0 4:1.0 5:1.0 6:5.0 7:1.0 8:3.0 
1.0 1.0 1:0.0 2:0.0 3:0.0 4:0.0 5:1.0 6:3.0 7:1.0 8:1.0 
0.0 1.0 1:0.0 2:0.0 3:0.0 4:5.0 5:0.0 6:4.0 7:1.0 8:0.0 
1.0 0.49000708969105844 1:0.0 2:0.0 3:0.0 4:5.0 5:2.0 6:5.0 7:4.0 8:2.0 
0.6032305618670278 1.0 1:1.0 2:1.0 3:0.0 4:6.0 5:0.0 6:6.0 7:0.0 8:0.0 
1.0 1.0 1:0.0 2:0.0 3:0.0 4:1.0 5:2.0 6:8.0 7:0.0 8:1.0 
0.1882685649490004 1.0 1:0.0 2:0.0 3:0.0 4:3.0 5:0.0 6:12.0 7:2.0 8:1.0 
0.0 1.0 1:0.0 2:0.0 3:0.0 4:3.0 5:0.0 6:6.0 7:0.0 8:0.0 
0.0 1.0 1:0.0 2:0.0 3:0.0 4:2.0 5:0.0 6:1.0 7:0.0 8:0.0 
0.37237621520349184 0.8487346860070998 1:1.0 2:0.0 3:0.0 4:5.0 5:7.0 6:8.0 7:2.0 8:0.0 
1.0 0.0 1:0.0 2:0.0 3:0.0 4:0.0 5:0.0 6:1.0 7:2.0 8:4.0 
0.0 1.0 1:0.0 2:0.0 3:0.0 4:3.0 5:0.0 6:8.0 7:0.0 8:1.0 
0.25042053892129346 1.0 1:0.0 2:0.0 3:0.0 4:3.0 5:0.0 6:6.0 7:0.0 8:0.0 
0.486906152570407 0.43843966669932505 1:0.0 2:0.0 3:0.0 4:8.0 5:0.0 6:1.0 7:3.0 8:3.0 
1.0 1.0 1:0.0 2:0.0 3:0.0 4:2.0 5:1.0 6:6.0 7:0.0 8:0.0 
1.0 1.0 1:0.0 2:0.0 3:0.0 4:3.0 5:1.0 6:6.0 7:2.0 8:1.0 
1.0 1.0 1:0.0 2:0.0 3:0.0 4:1.0 5:0.0 6:4.0 7:5.0 8:3.0 
0.0 0.13618965952741924 1:0.0 2:0.0 3:0.0 4:0.0 5:3.0 6:6.0 7:10.0 8:1.0 
1.0 1.0 1:0.0 2:0.0 3:0.0 4:3.0 5:0.0 6:4.0 7:0.0 8:2.0 
0.2873154372314759 1.0 1:0.0 2:0.0 3:0.0 4:8.0 5:1.0 6:3.0 7:1.0 8:0.0 
1.0 0.0 1:0.0 2:0.0 3:0.0 4:0.0 5:2.0 6:3.0 7:0.0 8:1.0 
0.0 1.0 1:0.0 2:0.0 3:0.0 4:3.0 5:0.0 6:3.0 7:0.0 8:0.0 
1.0 1.0 1:0.0 2:0.0 3:0.0 4:2.0 5:1.0 6:4.0 7:1.0 8:1.0 
0.0 1.0 1:0.0 2:0.0 3:0.0 4:2.0 5:0.0 6:1.0 7:0.0 8:0.0 
0.9511720314399752 0.0616116950406357 1:0.0 2:0.0 3:0.0 4:12.0 5:1.0 6:3.0 7:3.0 8:2.0 
1.0 1.0 1:0.0 2:0.0 3:0.0 4:2.0 5:0.0 6:4.0 7:3.0 8:0.0 
0.6141665392740587 1.0 1:0.0 2:0.0 3:0.0 4:3.0 5:2.0 6:5.0 7:6.0 8:0.0 
1.0 0.3968360665759578 1:0.0 2:0.0 3:0.0 4:3.0 5:0.0 6:7.0 7:7.0 8:1.0 
0.04271821822977474 0.043822516661911136 1:0.0 2:0.0 3:0.0 4:8.0 5:0.0 6:0.0 7:0.0 8:2.0 
1.0 0.0 1:0.0 2:0.0 3:0.0 4:1.0 5:0.0 6:4.0 7:4.0 8:4.0 
1.0 0.0 1:0.0 2:0.0 3:0.0 4:1.0 5:1.0 6:2.0 7:0.0 8:2.0 
0.6595787602427551 1.0 1:0.0 2:0.0 3:0.0 4:1.0 5:0.0 6:7.0 7:2.0 8:0.0 
0.0 1.0 1:0.0 2:0.0 3:0.0 4:1.0 5:0.0 6:10.0 7:0.0 8:0.0 
1.0 1.0 1:1.0 2:1.0 3:1.0 4:0.0 5:0.0 6:3.0 7:1.0 8:1.0 
1.0 1.0 1:0.0 2:0.0 3:0.0 4:3.0 5:0.0 6:3.0 7:4.0 8:2.0 
1.0 1.0 1:1.0 2:0.0 3:1.0 4:1.0 5:0.0 6:1.0 7:1.0 8:2.0 
0.0 1.0 1:0.0 2:0.0 3:0.0 4:0.0 5:1.0 6:3.0 7:1.0 8:0.0 
1.0 0.0 1:0.0 2:0.0 3:0.0 4:0.0 5:1.0 6:4.0 7:3.0 8:0.0 
0.0 1.0 1:0.0 2:0.0 3:0.0 4:2.0 5:0.0 6:5.0 7:1.0 8:0.0 
1.0 0.0 1:0.0 2:0.0 3:0.0 4:0.0 5:2.0 6:7.0 7:4.0 8:3.0 
0.08145043911499875 1.0 1:1.0 2:3.0 3:0.0 4:5.0 5:0.0 6:2.0 7:0.0 8:0.0 
1.0 0.0 1:0.0 2:0.0 3:0.0 4:0.0 5:0.0 6:4.0 7:1.0 8:1.0 
1.0 1.0 1:1.0 2:0.0 3:0.0 4:0.0 5:1.0 6:3.0 7:1.0 8:2.0 
0.0 0.8307616181082544 1:0.0 2:0.0 3:0.0 4:4.0 5:0.0 6:0.0 7:2.0 8:3.0 
0.0 0.12862369439303473 1:0.0 2:0.0 3:0.0 4:0.0 5:1.0 6:5.0 7:2.0 8:0.0 
0.0 1.0 1:0.0 2:0.0 3:0.0 4:5.0 5:0.0 6:6.0 7:1.0 8:5.0 
1.0 0.0 1:0.0 2:0.0 3:0.0 4:2.0 5:1.0 6:4.0 7:1.0 8:2.0 
1.0 1.0 1:1.0 2:0.0 3:0.0 4:2.0 5:1.0 6:2.0 7:1.0 8:2.0 
1.0 0.0 1:0.0 2:0.0 3:0.0 4:6.0 5:2.0 6:4.0 7:2.0 8:4.0 
1.0 1.0 1:0.0 2:0.0 3:0.0 4:2.0 5:0.0 6:2.0 7:0.0 8:1.0 
1.0 0.0 1:0.0 2:0.0 3:0.0 4:0.0 5:0.0 6:4.0 7:1.0 8:1.0 
0.0 1.0 1:1.0 2:3.0 3:0.0 4:5.0 5:0.0 6:4.0 7:0.0 8:1.0 
0.0 0.8414556455843097 1:0.0 2:0.0 3:0.0 4:4.0 5:0.0 6:3.0 7:0.0 8:5.0 
1.0 1.0 1:1.0 2:0.0 3:0.0 4:0.0 5:0.0 6:0.0 7:0.0 8:0.0 
1.0 1.0 1:0.0 2:0.0 3:0.0 4:3.0 5:2.0 6:2.0 7:0.0 8:0.0 
1.0 0.0 1:0.0 2:0.0 3:0.0 4:0.0 5:0.0 6:1.0 7:1.0 8:2.0 
1.0 0.26784246690572494 1:0.0 2:0.0 3:0.0 4:1.0 5:0.0 6:9.0 7:5.0 8:2.0 
0.0 1.0 1:0.0 2:0.0 3:0.0 4:2.0 5:0.0 6:8.0 7:0.0 8:1.0 
1.0 0.0 1:0.0 2:0.0 3:0.0 4:0.0 5:0.0 6:2.0 7:1.0 8:2.0 
1.0 1.0 1:0.0 2:0.0 3:0.0 4:1.0 5:0.0 6:4.0 7:2.0 8:2.0 
1.0 1.0 1:0.0 2:0.0 3:0.0 4:1.0 5:0.0 6:5.0 7:3.0 8:0.0 
1.0 1.0 1:0.0 2:0.0 3:0.0 4:5.0 5:1.0 6:10.0 7:1.0 8:1.0 
1.0 0.0 1:0.0 2:0.0 3:0.0 4:1.0 5:0.0 6:7.0 7:1.0 8:0.0 
0.06015806685605739 1.0 1:0.0 2:0.0 3:0.0 4:2.0 5:0.0 6:3.0 7:2.0 8:0.0 
1.0 1.0 1:1.0 2:0.0 3:1.0 4:0.0 5:0.0 6:6.0 7:2.0 8:1.0 
0.0 1.0 1:0.0 2:0.0 3:0.0 4:4.0 5:0.0 6:5.0 7:0.0 8:0.0 
1.0 1.0 1:0.0 2:0.0 3:0.0 4:2.0 5:2.0 6:6.0 7:2.0 8:2.0 
1.0 0.0 1:0.0 2:0.0 3:0.0 4:1.0 5:0.0 6:7.0 7:3.0 8:2.0 
0.0 1.0 1:0.0 2:0.0 3:0.0 4:1.0 5:0.0 6:1.0 7:0.0 8:0.0 
1.0 1.0 1:0.0 2:0.0 3:0.0 4:3.0 5:0.0 6:4.0 7:0.0 8:2.0 
1.0 0.0 1:0.0 2:0.0 3:0.0 4:1.0 5:0.0 6:2.0 7:0.0 8:1.0 
0.0 1.0 1:0.0 2:0.0 3:0.0 4:4.0 5:0.0 6:6.0 7:0.0 8:0.0 
0.0 1.0 1:0.0 2:0.0 3:0.0 4:2.0 5:1.0 6:4.0 7:0.0 8:1.0 
1.0 0.0 1:0.0 2:0.0 3:0.0 4:1.0 5:0.0 6:0.0 7:1.0 8:0.0 
1.0 0.0 1:0.0 2:0.0 3:0.0 4:0.0 5:0.0 6:1.0 7:4.0 8:1.0 
1.0 1.0 1:0.0 2:0.0 3:0.0 4:2.0 5:0.0 6:2.0 7:1.0 8:1.0 
1.0 1.0 1:0.0 2:0.0 3:0.0 4:0.0 5:0.0 6:1.0 7:1.0 8:1.0 
0.0 1.0 1:0.0 2:0.0 3:0.0 4:1.0 5:0.0 6:1.0 7:1.0 8:0.0 
1.0 1.0 1:0.0 2:0.0 3:0.0 4:4.0 5:2.0 6:8.0 7:0.0 8:1.0 
1.0 0.0 1:0.0 2:0.0 3:0.0 4:2.0 5:4.0 6:6.0 7:1.0 8:3.0 
1.0 0.9449148104508633 1:0.0 2:0.0 3:0.0 4:5.0 5:4.0 6:3.0 7:1.0 8:2.0 
1.0 0.0 1:0.0 2:0.0 3:0.0 4:3.0 5:0.0 6:6.0 7:1.0 8:2.0 
0.0 1.0 1:0.0 2:0.0 3:0.0 4:2.0 5:0.0 6:0.0 7:0.0 8:0.0 
1.0 0.0 1:0.0 2:0.0 3:0.0 4:2.0 5:2.0 6:4.0 7:1.0 8:1.0 
0.07155891567428478 0.0 1:0.0 2:0.0 3:0.0 4:0.0 5:1.0 6:4.0 7:0.0 8:1.0 
1.0 1.0 1:0.0 2:0.0 3:0.0 4:2.0 5:0.0 6:1.0 7:0.0 8:1.0 
0.0 0.6949200622628042 1:0.0 2:0.0 3:0.0 4:5.0 5:1.0 6:5.0 7:0.0 8:3.0 
0.0 1.0 1:0.0 2:0.0 3:0.0 4:4.0 5:1.0 6:4.0 7:0.0 8:1.0 
0.4251080625733238 0.16562200206507618 1:0.0 2:0.0 3:0.0 4:10.0 5:2.0 6:4.0 7:3.0 8:6.0 
0.0 1.0 1:0.0 2:0.0 3:0.0 4:3.0 5:0.0 6:0.0 7:1.0 8:0.0 
0.0 0.12028951155929077 1:0.0 2:0.0 3:0.0 4:1.0 5:0.0 6:2.0 7:1.0 8:0.0 
1.0 1.0 1:0.0 2:0.0 3:0.0 4:1.0 5:0.0 6:6.0 7:2.0 8:1.0 
1.0 1.0 1:0.0 2:0.0 3:0.0 4:1.0 5:2.0 6:2.0 7:0.0 8:0.0 
1.0 0.0 1:0.0 2:0.0 3:0.0 4:0.0 5:0.0 6:0.0 7:0.0 8:1.0 
1.0 0.874518504237723 1:0.0 2:0.0 3:0.0 4:0.0 5:2.0 6:2.0 7:1.0 8:0.0 
0.0 1.0 1:1.0 2:1.0 3:0.0 4:1.0 5:0.0 6:5.0 7:1.0 8:0.0 
1.0 1.0 1:0.0 2:0.0 3:0.0 4:2.0 5:0.0 6:4.0 7:1.0 8:1.0 
0.42216076420626014 0.5324827816807691 1:0.0 2:0.0 3:0.0 4:12.0 5:1.0 6:6.0 7:4.0 8:2.0 
1.0 1.0 1:0.0 2:0.0 3:0.0 4:2.0 5:1.0 6:4.0 7:3.0 8:0.0 
1.0 1.0 1:0.0 2:0.0 3:0.0 4:4.0 5:0.0 6:7.0 7:2.0 8:1.0 
1.0 1.0 1:0.0 2:0.0 3:0.0 4:3.0 5:5.0 6:3.0 7:3.0 8:0.0 
1.0 1.0 1:0.0 2:0.0 3:0.0 4:2.0 5:1.0 6:0.0 7:0.0 8:0.0 
0.0 1.0 1:0.0 2:0.0 3:0.0 4:0.0 5:0.0 6:4.0 7:2.0 8:1.0 
0.0 1.0 1:0.0 2:0.0 3:0.0 4:4.0 5:0.0 6:1.0 7:0.0 8:0.0 
1.0 0.0 1:0.0 2:0.0 3:0.0 4:0.0 5:0.0 6:3.0 7:2.0 8:0.0 
0.0 1.0 1:0.0 2:0.0 3:0.0 4:2.0 5:0.0 6:4.0 7:1.0 8:0.0 
1.0 1.0 1:0.0 2:0.0 3:0.0 4:2.0 5:0.0 6:3.0 7:4.0 8:1.0 
1.0 1.0 1:0.0 2:0.0 3:0.0 4:2.0 5:0.0 6:3.0 7:1.0 8:1.0 
1.0 0.0 1:0.0 2:0.0 3:0.0 4:0.0 5:0.0 6:5.0 7:3.0 8:2.0 
1.0 1.0 1:0.0 2:0.0 3:0.0 4:1.0 5:2.0 6:2.0 7:2.0 8:0.0 
0.0 1.0 1:1.0 2:1.0 3:0.0 4:1.0 5:0.0 6:3.0 7:1.0 8:0.0 
1.0 1.0 1:0.0 2:0.0 3:0.0 4:0.0 5:1.0 6:0.0 7:1.0 8:0.0 
1.0 1.0 1:0.0 2:0.0 3:0.0 4:2.0 5:0.0 6:4.0 7:2.0 8:1.0 
1.0 0.0 1:0.0 2:0.0 3:0.0 4:2.0 5:1.0 6:6.0 7:3.0 8:0.0 
0.0 1.0 1:0.0 2:0.0 3:0.0 4:2.0 5:0.0 6:2.0 7:0.0 8:0.0 
1.0 1.0 1:0.0 2:0.0 3:0.0 4:0.0 5:0.0 6:2.0 7:1.0 8:1.0 
1.0 1.0 1:0.0 2:0.0 3:0.0 4:4.0 5:0.0 6:12.0 7:4.0 8:1.0 
1.0 1.0 1:0.0 2:0.0 3:0.0 4:2.0 5:0.0 6:3.0 7:1.0 8:0.0 
1.0 1.0 1:0.0 2:0.0 3:0.0 4:2.0 5:1.0 6:3.0 7:1.0 8:0.0 
1.0 1.0 1:0.0 2:0.0 3:0.0 4:2.0 5:0.0 6:6.0 7:1.0 8:0.0 
1.0 0.8162603270977195 1:0.0 2:0.0 3:0.0 4:1.0 5:1.0 6:2.0 7:1.0 8:0.0 
0.7773585840828607 0.5814684981249527 1:0.0 2:0.0 3:0.0 4:2.0 5:1.0 6:6.0 7:11.0 8:0.0 
0.010356646555135568 0.0 1:0.0 2:0.0 3:0.0 4:0.0 5:0.0 6:3.0 7:0.0 8:4.0 
1.0 1.0 1:0.0 2:0.0 3:0.0 4:1.0 5:1.0 6:4.0 7:1.0 8:2.0 
0.0 1.0 1:0.0 2:0.0 3:0.0 4:1.0 5:0.0 6:3.0 7:1.0 8:0.0 
1.0 0.2801980435263881 1:0.0 2:0.0 3:0.0 4:0.0 5:0.0 6:6.0 7:3.0 8:0.0 
1.0 0.8980939582953509 1:0.0 2:0.0 3:0.0 4:1.0 5:1.0 6:3.0 7:0.0 8:0.0 
0.0 0.2575811828196327 1:0.0 2:0.0 3:0.0 4:1.0 5:6.0 6:2.0 7:0.0 8:1.0 
0.0 1.0 1:0.0 2:0.0 3:0.0 4:3.0 5:0.0 6:3.0 7:0.0 8:0.0 
1.0 0.3650554168858815 1:0.0 2:0.0 3:0.0 4:3.0 5:5.0 6:7.0 7:2.0 8:1.0 
1.0 0.0 1:0.0 2:0.0 3:0.0 4:1.0 5:2.0 6:1.0 7:1.0 8:1.0 
1.0 0.0 1:0.0 2:0.0 3:0.0 4:2.0 5:1.0 6:3.0 7:0.0 8:2.0 
0.0 1.0 1:0.0 2:0.0 3:0.0 4:0.0 5:1.0 6:5.0 7:2.0 8:0.0 
1.0 1.0 1:0.0 2:0.0 3:0.0 4:5.0 5:1.0 6:12.0 7:3.0 8:0.0 
0.0 1.0 1:0.0 2:0.0 3:0.0 4:3.0 5:0.0 6:9.0 7:0.0 8:0.0 
0.0 1.0 1:0.0 2:0.0 3:0.0 4:3.0 5:0.0 6:7.0 7:1.0 8:0.0 
1.0 1.0 1:0.0 2:0.0 3:0.0 4:2.0 5:1.0 6:5.0 7:7.0 8:1.0 
1.0 1.0 1:0.0 2:0.0 3:0.0 4:2.0 5:0.0 6:6.0 7:1.0 8:0.0 
1.0 1.0 1:0.0 2:0.0 3:0.0 4:2.0 5:2.0 6:3.0 7:1.0 8:0.0 
1.0 1.0 1:1.0 2:1.0 3:0.0 4:1.0 5:5.0 6:3.0 7:2.0 8:3.0 
0.0 0.8737610789486414 1:0.0 2:0.0 3:0.0 4:0.0 5:0.0 6:2.0 7:0.0 8:1.0 
0.0 1.0 1:0.0 2:0.0 3:0.0 4:3.0 5:1.0 6:1.0 7:1.0 8:0.0 
0.8551309176918694 0.0 1:0.0 2:0.0 3:0.0 4:3.0 5:2.0 6:8.0 7:2.0 8:3.0 
0.785086936902327 0.0 1:0.0 2:0.0 3:0.0 4:2.0 5:0.0 6:8.0 7:0.0 8:3.0 
1.0 0.0 1:0.0 2:0.0 3:0.0 4:1.0 5:2.0 6:5.0 7:2.0 8:2.0 
1.0 1.0 1:0.0 2:0.0 3:0.0 4:0.0 5:1.0 6:3.0 7:1.0 8:1.0 
1.0 1.0 1:0.0 2:0.0 3:0.0 4:1.0 5:3.0 6:4.0 7:1.0 8:2.0 
1.0 1.0 1:0.0 2:0.0 3:0.0 4:2.0 5:1.0 6:6.0 7:1.0 8:1.0 
0.0 1.0 1:0.0 2:0.0 3:0.0 4:0.0 5:0.0 6:2.0 7:0.0 8:1.0 
0.0 1.0 1:0.0 2:0.0 3:0.0 4:0.0 5:1.0 6:8.0 7:3.0 8:0.0 
1.0 1.0 1:0.0 2:0.0 3:0.0 4:2.0 5:1.0 6:3.0 7:1.0 8:0.0 
1.0 0.0 1:0.0 2:0.0 3:0.0 4:1.0 5:0.0 6:2.0 7:1.0 8:1.0 
1.0 0.0 1:0.0 2:0.0 3:0.0 4:0.0 5:2.0 6:3.0 7:1.0 8:3.0 
1.0 0.0 1:0.0 2:0.0 3:0.0 4:1.0 5:1.0 6:7.0 7:4.0 8:1.0 
1.0 1.0 1:0.0 2:0.0 3:0.0 4:1.0 5:1.0 6:3.0 7:0.0 8:2.0 
1.0 1.0 1:0.0 2:0.0 3:0.0 4:0.0 5:0.0 6:1.0 7:3.0 8:0.0 
1.0 0.0 1:0.0 2:0.0 3:0.0 4:0.0 5:1.0 6:0.0 7:0.0 8:0.0 
1.0 0.0 1:0.0 2:0.0 3:0.0 4:0.0 5:1.0 6:2.0 7:1.0 8:0.0 
1.0 0.6731100000998308 1:0.0 2:0.0 3:0.0 4:1.0 5:1.0 6:4.0 7:1.0 8:0.0 
1.0 0.0 1:0.0 2:0.0 3:0.0 4:0.0 5:2.0 6:5.0 7:4.0 8:1.0 
1.0 0.20359159867911056 1:0.0 2:0.0 3:0.0 4:1.0 5:5.0 6:4.0 7:0.0 8:0.0 
0.0 0.7629207544692856 1:0.0 2:0.0 3:0.0 4:7.0 5:0.0 6:14.0 7:0.0 8:1.0 
0.30183373559767657 1.0 1:0.0 2:0.0 3:0.0 4:4.0 5:0.0 6:7.0 7:0.0 8:4.0 
1.0 0.6780963242984885 1:0.0 2:0.0 3:0.0 4:6.0 5:0.0 6:9.0 7:7.0 8:3.0 
1.0 1.0 1:0.0 2:0.0 3:0.0 4:0.0 5:0.0 6:1.0 7:2.0 8:1.0 
0.0 0.4865118183295755 1:0.0 2:0.0 3:0.0 4:3.0 5:0.0 6:15.0 7:4.0 8:0.0 
1.0 1.0 1:0.0 2:0.0 3:0.0 4:1.0 5:0.0 6:5.0 7:3.0 8:1.0 
1.0 1.0 1:0.0 2:0.0 3:0.0 4:0.0 5:0.0 6:5.0 7:3.0 8:0.0 
1.0 1.0 1:0.0 2:0.0 3:0.0 4:2.0 5:0.0 6:3.0 7:1.0 8:0.0 
0.7943581759420847 0.0 1:0.0 2:0.0 3:0.0 4:1.0 5:0.0 6:3.0 7:0.0 8:4.0 
1.0 1.0 1:0.0 2:0.0 3:0.0 4:2.0 5:1.0 6:3.0 7:0.0 8:0.0 
0.6769123328117511 0.0 1:0.0 2:0.0 3:0.0 4:0.0 5:1.0 6:1.0 7:0.0 8:3.0 
1.0 1.0 1:1.0 2:0.0 3:0.0 4:0.0 5:2.0 6:4.0 7:3.0 8:2.0 
1.0 1.0 1:0.0 2:0.0 3:0.0 4:3.0 5:0.0 6:4.0 7:2.0 8:3.0 
1.0 0.0 1:0.0 2:0.0 3:0.0 4:0.0 5:0.0 6:1.0 7:3.0 8:2.0 
0.008495632455085715 0.0 1:0.0 2:0.0 3:0.0 4:2.0 5:1.0 6:8.0 7:2.0 8:3.0 
0.0 1.0 1:0.0 2:0.0 3:0.0 4:1.0 5:0.0 6:0.0 7:0.0 8:1.0 
1.0 0.0 1:0.0 2:0.0 3:0.0 4:1.0 5:1.0 6:2.0 7:1.0 8:2.0 
0.0 1.0 1:0.0 2:0.0 3:0.0 4:4.0 5:0.0 6:0.0 7:0.0 8:2.0 
1.0 0.0 1:0.0 2:0.0 3:0.0 4:0.0 5:1.0 6:9.0 7:1.0 8:1.0 
1.0 1.0 1:0.0 2:0.0 3:0.0 4:1.0 5:2.0 6:3.0 7:0.0 8:0.0 
1.0 0.0 1:0.0 2:0.0 3:0.0 4:5.0 5:0.0 6:9.0 7:3.0 8:4.0 
0.39805199588209 0.6189359298197263 1:0.0 2:0.0 3:0.0 4:1.0 5:3.0 6:7.0 7:2.0 8:0.0 
1.0 0.9987401702750184 1:0.0 2:0.0 3:0.0 4:4.0 5:0.0 6:8.0 7:2.0 8:1.0 
1.0 0.0 1:0.0 2:0.0 3:0.0 4:1.0 5:1.0 6:10.0 7:3.0 8:4.0 
0.0 0.44837094625371154 1:0.0 2:0.0 3:0.0 4:2.0 5:0.0 6:9.0 7:5.0 8:0.0 
1.0 1.0 1:0.0 2:0.0 3:0.0 4:2.0 5:3.0 6:2.0 7:1.0 8:0.0 
0.0 1.0 1:0.0 2:0.0 3:0.0 4:4.0 5:0.0 6:4.0 7:0.0 8:2.0 
1.0 0.0 1:0.0 2:0.0 3:0.0 4:1.0 5:0.0 6:3.0 7:0.0 8:2.0 
0.8064412380790476 0.04322989419757709 1:0.0 2:0.0 3:0.0 4:0.0 5:4.0 6:0.0 7:0.0 8:0.0 
1.0 0.2679733872329493 1:0.0 2:0.0 3:0.0 4:0.0 5:3.0 6:5.0 7:2.0 8:0.0 
1.0 0.0 1:0.0 2:0.0 3:0.0 4:1.0 5:1.0 6:1.0 7:2.0 8:1.0 
1.0 0.0 1:0.0 2:0.0 3:0.0 4:1.0 5:0.0 6:3.0 7:3.0 8:0.0 
0.0 0.4270381494493179 1:0.0 2:0.0 3:0.0 4:0.0 5:1.0 6:3.0 7:1.0 8:0.0 
1.0 1.0 1:1.0 2:0.0 3:0.0 4:1.0 5:1.0 6:0.0 7:0.0 8:0.0 
1.0 1.0 1:1.0 2:0.0 3:0.0 4:1.0 5:0.0 6:2.0 7:1.0 8:0.0 
0.0 1.0 1:0.0 2:0.0 3:0.0 4:4.0 5:0.0 6:2.0 7:2.0 8:0.0 
0.2866721386430485 0.30300400852237663 1:0.0 2:0.0 3:0.0 4:14.0 5:0.0 6:22.0 7:1.0 8:2.0 
1.0 0.05774869774792838 1:0.0 2:0.0 3:0.0 4:5.0 5:1.0 6:2.0 7:4.0 8:3.0 
0.813821437649707 1.0 1:0.0 2:0.0 3:0.0 4:0.0 5:2.0 6:7.0 7:1.0 8:0.0 
0.5935579109404195 1.0 1:0.0 2:0.0 3:0.0 4:3.0 5:1.0 6:12.0 7:0.0 8:0.0 
0.07028223551486995 0.06822617519676634 1:0.0 2:0.0 3:0.0 4:0.0 5:1.0 6:1.0 7:0.0 8:4.0 
1.0 0.0 1:0.0 2:0.0 3:0.0 4:0.0 5:3.0 6:3.0 7:0.0 8:2.0 
1.0 0.0 1:0.0 2:0.0 3:0.0 4:5.0 5:2.0 6:7.0 7:3.0 8:1.0 
0.0 1.0 1:0.0 2:0.0 3:0.0 4:1.0 5:1.0 6:5.0 7:0.0 8:0.0 
0.0 1.0 1:0.0 2:0.0 3:0.0 4:3.0 5:0.0 6:3.0 7:0.0 8:0.0 
1.0 1.0 1:0.0 2:0.0 3:0.0 4:1.0 5:1.0 6:7.0 7:1.0 8:0.0 
0.0 1.0 1:0.0 2:0.0 3:0.0 4:3.0 5:1.0 6:10.0 7:0.0 8:2.0 
1.0 1.0 1:0.0 2:0.0 3:0.0 4:5.0 5:2.0 6:5.0 7:1.0 8:0.0 
0.0 1.0 1:0.0 2:0.0 3:0.0 4:0.0 5:0.0 6:7.0 7:1.0 8:0.0 
0.0 1.0 1:0.0 2:0.0 3:0.0 4:2.0 5:0.0 6:4.0 7:0.0 8:0.0 
0.7394269554438316 1.0 1:0.0 2:0.0 3:0.0 4:9.0 5:1.0 6:6.0 7:2.0 8:0.0 
1.0 0.24742968347273847 1:0.0 2:0.0 3:0.0 4:0.0 5:1.0 6:4.0 7:2.0 8:0.0 
0.0 1.0 1:0.0 2:0.0 3:0.0 4:3.0 5:0.0 6:5.0 7:0.0 8:0.0 
1.0 0.0 1:0.0 2:0.0 3:0.0 4:0.0 5:5.0 6:4.0 7:3.0 8:1.0 
0.0 1.0 1:0.0 2:0.0 3:0.0 4:2.0 5:1.0 6:9.0 7:0.0 8:0.0 
1.0 0.0 1:0.0 2:0.0 3:0.0 4:0.0 5:0.0 6:2.0 7:1.0 8:2.0 
1.0 1.0 1:0.0 2:0.0 3:0.0 4:1.0 5:0.0 6:5.0 7:3.0 8:0.0 
1.0 1.0 1:0.0 2:0.0 3:0.0 4:2.0 5:1.0 6:3.0 7:3.0 8:0.0 
0.0 1.0 1:1.0 2:1.0 3:0.0 4:0.0 5:0.0 6:7.0 7:0.0 8:0.0 
1.0 1.0 1:0.0 2:0.0 3:0.0 4:0.0 5:0.0 6:1.0 7:3.0 8:0.0 
1.0 0.0 1:0.0 2:0.0 3:0.0 4:1.0 5:2.0 6:5.0 7:2.0 8:1.0 
1.0 1.0 1:1.0 2:0.0 3:0.0 4:2.0 5:0.0 6:0.0 7:0.0 8:1.0 
1.0 1.0 1:0.0 2:0.0 3:0.0 4:2.0 5:1.0 6:2.0 7:2.0 8:1.0 
0.0 1.0 1:0.0 2:0.0 3:0.0 4:2.0 5:0.0 6:1.0 7:1.0 8:0.0 
0.996958279478811 1.0 1:0.0 2:0.0 3:0.0 4:3.0 5:0.0 6:1.0 7:4.0 8:0.0 
0.0 1.0 1:0.0 2:0.0 3:0.0 4:3.0 5:0.0 6:3.0 7:1.0 8:0.0 
0.0 1.0 1:0.0 2:0.0 3:0.0 4:1.0 5:0.0 6:6.0 7:1.0 8:0.0 
0.0 1.0 1:0.0 2:0.0 3:0.0 4:2.0 5:0.0 6:5.0 7:0.0 8:0.0 
0.0 1.0 1:0.0 2:0.0 3:0.0 4:2.0 5:1.0 6:7.0 7:1.0 8:1.0 
0.4058264450534518 0.6453134849405358 1:0.0 2:0.0 3:0.0 4:0.0 5:0.0 6:10.0 7:3.0 8:1.0 
0.8640818588385446 0.1034617513853841 1:0.0 2:0.0 3:0.0 4:2.0 5:1.0 6:4.0 7:0.0 8:6.0 
1.0 0.5370301312292813 1:0.0 2:0.0 3:0.0 4:4.0 5:1.0 6:7.0 7:0.0 8:4.0 
0.0 1.0 1:0.0 2:0.0 3:0.0 4:4.0 5:0.0 6:1.0 7:1.0 8:0.0 
0.741703297297805 0.0 1:0.0 2:0.0 3:0.0 4:0.0 5:0.0 6:0.0 7:1.0 8:0.0 
0.0 1.0 1:0.0 2:0.0 3:0.0 4:2.0 5:0.0 6:3.0 7:0.0 8:0.0 
1.0 1.0 1:0.0 2:0.0 3:0.0 4:0.0 5:0.0 6:5.0 7:3.0 8:0.0 
0.0 0.761864703896097 1:0.0 2:0.0 3:0.0 4:2.0 5:0.0 6:9.0 7:5.0 8:1.0 
1.0 0.0 1:0.0 2:0.0 3:0.0 4:1.0 5:2.0 6:2.0 7:1.0 8:1.0 
1.0 0.0 1:0.0 2:0.0 3:0.0 4:1.0 5:1.0 6:5.0 7:1.0 8:1.0 
1.0 0.0 1:0.0 2:0.0 3:0.0 4:0.0 5:0.0 6:0.0 7:1.0 8:0.0 
0.9919029704658789 0.0 1:0.0 2:0.0 3:0.0 4:0.0 5:0.0 6:4.0 7:2.0 8:0.0 
0.0 1.0 1:0.0 2:0.0 3:0.0 4:1.0 5:0.0 6:1.0 7:0.0 8:0.0 
0.0 1.0 1:0.0 2:0.0 3:0.0 4:3.0 5:0.0 6:0.0 7:1.0 8:0.0 
0.0 1.0 1:0.0 2:0.0 3:0.0 4:2.0 5:0.0 6:4.0 7:1.0 8:0.0 
1.0 1.0 1:0.0 2:0.0 3:0.0 4:3.0 5:2.0 6:2.0 7:0.0 8:1.0 
0.11699582280044422 0.0 1:0.0 2:0.0 3:0.0 4:2.0 5:0.0 6:6.0 7:0.0 8:1.0 
0.0 1.0 1:0.0 2:0.0 3:0.0 4:1.0 5:0.0 6:1.0 7:1.0 8:0.0 
1.0 1.0 1:0.0 2:0.0 3:0.0 4:2.0 5:0.0 6:2.0 7:0.0 8:1.0 
0.0 1.0 1:0.0 2:0.0 3:0.0 4:2.0 5:0.0 6:2.0 7:0.0 8:0.0 
1.0 1.0 1:0.0 2:0.0 3:0.0 4:1.0 5:0.0 6:1.0 7:3.0 8:0.0 
1.0 1.0 1:0.0 2:0.0 3:0.0 4:3.0 5:1.0 6:12.0 7:1.0 8:1.0 
1.0 0.0 1:0.0 2:0.0 3:0.0 4:1.0 5:0.0 6:5.0 7:8.0 8:0.0 
1.0 1.0 1:0.0 2:0.0 3:0.0 4:2.0 5:2.0 6:3.0 7:4.0 8:0.0 
0.0 1.0 1:0.0 2:0.0 3:0.0 4:5.0 5:0.0 6:10.0 7:1.0 8:1.0 
0.15730948777543288 1.0 1:0.0 2:0.0 3:0.0 4:8.0 5:1.0 6:13.0 7:2.0 8:2.0 
0.0 1.0 1:0.0 2:0.0 3:0.0 4:5.0 5:0.0 6:5.0 7:0.0 8:0.0 
0.0 1.0 1:0.0 2:0.0 3:0.0 4:2.0 5:0.0 6:3.0 7:2.0 8:0.0 
1.0 1.0 1:1.0 2:0.0 3:0.0 4:1.0 5:0.0 6:7.0 7:1.0 8:0.0 
0.0 1.0 1:0.0 2:0.0 3:0.0 4:1.0 5:0.0 6:3.0 7:1.0 8:0.0 
1.0 1.0 1:0.0 2:0.0 3:0.0 4:1.0 5:0.0 6:1.0 7:2.0 8:0.0 
0.0 1.0 1:0.0 2:0.0 3:0.0 4:3.0 5:1.0 6:3.0 7:1.0 8:1.0 
1.0 1.0 1:1.0 2:0.0 3:0.0 4:0.0 5:0.0 6:2.0 7:2.0 8:0.0 
1.0 0.7309254615189904 1:0.0 2:0.0 3:0.0 4:3.0 5:3.0 6:6.0 7:1.0 8:2.0 
1.0 0.0 1:0.0 2:0.0 3:0.0 4:1.0 5:0.0 6:2.0 7:1.0 8:1.0 
0.49939507990339754 0.0 1:0.0 2:0.0 3:0.0 4:3.0 5:0.0 6:2.0 7:1.0 8:4.0 
1.0 1.0 1:0.0 2:0.0 3:0.0 4:1.0 5:2.0 6:2.0 7:0.0 8:0.0 
1.0 1.0 1:1.0 2:1.0 3:0.0 4:2.0 5:1.0 6:3.0 7:0.0 8:0.0 
0.5877656463794136 0.0 1:0.0 2:0.0 3:0.0 4:0.0 5:6.0 6:2.0 7:3.0 8:0.0 
1.0 1.0 1:0.0 2:0.0 3:0.0 4:2.0 5:1.0 6:2.0 7:0.0 8:1.0 
0.0815518196056704 0.04949775912965384 1:0.0 2:0.0 3:0.0 4:1.0 5:4.0 6:7.0 7:9.0 8:0.0 
1.0 1.0 1:0.0 2:0.0 3:0.0 4:2.0 5:0.0 6:0.0 7:0.0 8:1.0 
1.0 0.0 1:0.0 2:0.0 3:0.0 4:1.0 5:1.0 6:6.0 7:0.0 8:1.0 
1.0 0.0 1:0.0 2:0.0 3:0.0 4:1.0 5:1.0 6:0.0 7:0.0 8:0.0 
1.0 0.0 1:0.0 2:0.0 3:0.0 4:1.0 5:1.0 6:2.0 7:1.0 8:1.0 
1.0 1.0 1:0.0 2:0.0 3:0.0 4:1.0 5:2.0 6:8.0 7:3.0 8:1.0 
0.0 1.0 1:1.0 2:1.0 3:0.0 4:0.0 5:0.0 6:2.0 7:0.0 8:0.0 
1.0 0.0 1:0.0 2:0.0 3:0.0 4:4.0 5:1.0 6:6.0 7:1.0 8:2.0 
1.0 0.0 1:0.0 2:0.0 3:0.0 4:1.0 5:2.0 6:4.0 7:0.0 8:0.0 
1.0 1.0 1:0.0 2:0.0 3:0.0 4:2.0 5:0.0 6:2.0 7:1.0 8:0.0 
0.12277021267409544 1.0 1:0.0 2:0.0 3:0.0 4:0.0 5:0.0 6:4.0 7:2.0 8:2.0 
1.0 1.0 1:0.0 2:0.0 3:0.0 4:2.0 5:0.0 6:3.0 7:1.0 8:0.0 
0.24908232399589517 1.0 1:0.0 2:0.0 3:0.0 4:4.0 5:0.0 6:9.0 7:0.0 8:3.0 
0.4536605449798312 0.0 1:0.0 2:0.0 3:0.0 4:0.0 5:2.0 6:11.0 7:1.0 8:0.0 
0.6641843586042316 0.5295880027332817 1:0.0 2:0.0 3:0.0 4:2.0 5:6.0 6:13.0 7:5.0 8:2.0 
0.1786606967939005 1.0 1:0.0 2:0.0 3:0.0 4:5.0 5:0.0 6:7.0 7:3.0 8:0.0 
1.0 0.0 1:0.0 2:0.0 3:0.0 4:3.0 5:0.0 6:4.0 7:1.0 8:5.0 
1.0 0.0 1:0.0 2:0.0 3:0.0 4:0.0 5:0.0 6:2.0 7:3.0 8:2.0 
1.0 0.0 1:0.0 2:0.0 3:0.0 4:1.0 5:1.0 6:3.0 7:1.0 8:0.0 
1.0 0.0 1:0.0 2:0.0 3:0.0 4:3.0 5:2.0 6:1.0 7:0.0 8:2.0 
0.0 1.0 1:0.0 2:0.0 3:0.0 4:1.0 5:0.0 6:6.0 7:1.0 8:0.0 
0.7598962591908418 0.0 1:0.0 2:0.0 3:0.0 4:0.0 5:0.0 6:6.0 7:0.0 8:3.0 
1.0 0.0 1:0.0 2:0.0 3:0.0 4:0.0 5:0.0 6:0.0 7:0.0 8:2.0 
1.0 1.0 1:0.0 2:0.0 3:0.0 4:0.0 5:1.0 6:5.0 7:1.0 8:1.0 
1.0 1.0 1:0.0 2:0.0 3:0.0 4:2.0 5:1.0 6:6.0 7:1.0 8:1.0 
0.0 1.0 1:0.0 2:0.0 3:0.0 4:1.0 5:0.0 6:1.0 7:0.0 8:0.0 
0.45889409747767673 0.15051007222753315 1:0.0 2:0.0 3:0.0 4:0.0 5:2.0 6:8.0 7:0.0 8:0.0 
0.0 1.0 1:0.0 2:0.0 3:0.0 4:3.0 5:0.0 6:4.0 7:0.0 8:0.0 
0.0 1.0 1:0.0 2:0.0 3:0.0 4:1.0 5:0.0 6:1.0 7:1.0 8:0.0 
0.0 0.6776967989338323 1:0.0 2:0.0 3:0.0 4:0.0 5:0.0 6:11.0 7:4.0 8:0.0 
0.0 1.0 1:0.0 2:0.0 3:0.0 4:2.0 5:0.0 6:1.0 7:0.0 8:0.0 
1.0 0.0 1:0.0 2:0.0 3:0.0 4:1.0 5:3.0 6:3.0 7:0.0 8:0.0 
1.0 0.20213390572662632 1:0.0 2:0.0 3:0.0 4:2.0 5:0.0 6:7.0 7:3.0 8:1.0 
1.0 0.0 1:0.0 2:0.0 3:0.0 4:0.0 5:2.0 6:5.0 7:3.0 8:2.0 
0.0 1.0 1:0.0 2:0.0 3:0.0 4:3.0 5:0.0 6:7.0 7:0.0 8:0.0 
1.0 1.0 1:0.0 2:0.0 3:0.0 4:6.0 5:1.0 6:3.0 7:1.0 8:1.0 
0.0 0.6719061458581564 1:0.0 2:0.0 3:0.0 4:1.0 5:3.0 6:14.0 7:0.0 8:0.0 
0.0 1.0 1:0.0 2:0.0 3:0.0 4:8.0 5:0.0 6:2.0 7:0.0 8:1.0 
1.0 1.0 1:1.0 2:0.0 3:1.0 4:1.0 5:1.0 6:3.0 7:0.0 8:1.0 
1.0 0.0 1:0.0 2:0.0 3:0.0 4:1.0 5:1.0 6:2.0 7:1.0 8:1.0 
1.0 1.0 1:0.0 2:0.0 3:0.0 4:1.0 5:0.0 6:5.0 7:4.0 8:0.0 
0.0 1.0 1:0.0 2:0.0 3:0.0 4:1.0 5:0.0 6:5.0 7:5.0 8:0.0 
0.0 1.0 1:0.0 2:0.0 3:0.0 4:3.0 5:1.0 6:0.0 7:1.0 8:0.0 
1.0 1.0 1:0.0 2:0.0 3:0.0 4:0.0 5:2.0 6:1.0 7:0.0 8:0.0 
0.34767239955600493 0.35498343539606186 1:0.0 2:0.0 3:0.0 4:0.0 5:0.0 6:5.0 7:2.0 8:4.0 
0.8425907913815484 0.43075417026733825 1:0.0 2:0.0 3:0.0 4:11.0 5:1.0 6:10.0 7:3.0 8:7.0 
1.0 0.0 1:0.0 2:0.0 3:0.0 4:0.0 5:1.0 6:1.0 7:0.0 8:0.0 
0.0 1.0 1:0.0 2:0.0 3:0.0 4:3.0 5:0.0 6:6.0 7:1.0 8:1.0 
1.0 1.0 1:1.0 2:0.0 3:0.0 4:2.0 5:0.0 6:5.0 7:0.0 8:1.0 
1.0 1.0 1:0.0 2:0.0 3:0.0 4:0.0 5:1.0 6:3.0 7:1.0 8:1.0 
0.0 1.0 1:0.0 2:0.0 3:0.0 4:1.0 5:0.0 6:4.0 7:0.0 8:0.0 
1.0 1.0 1:0.0 2:0.0 3:0.0 4:0.0 5:1.0 6:5.0 7:1.0 8:0.0 
0.3603523393821848 1.0 1:0.0 2:0.0 3:0.0 4:4.0 5:2.0 6:11.0 7:1.0 8:3.0 
0.0 1.0 1:0.0 2:0.0 3:0.0 4:1.0 5:0.0 6:2.0 7:1.0 8:0.0 
0.12615326414211192 1.0 1:0.0 2:0.0 3:0.0 4:2.0 5:0.0 6:4.0 7:1.0 8:0.0 
0.0 1.0 1:0.0 2:0.0 3:0.0 4:3.0 5:1.0 6:4.0 7:0.0 8:2.0 
0.7786677998706292 0.7498846500316391 1:0.0 2:0.0 3:0.0 4:0.0 5:1.0 6:8.0 7:1.0 8:2.0 
0.0 1.0 1:0.0 2:0.0 3:0.0 4:3.0 5:1.0 6:2.0 7:0.0 8:2.0 
1.0 1.0 1:0.0 2:0.0 3:0.0 4:2.0 5:1.0 6:2.0 7:0.0 8:1.0 
1.0 0.0 1:0.0 2:0.0 3:0.0 4:4.0 5:2.0 6:6.0 7:2.0 8:1.0 
1.0 1.0 1:0.0 2:0.0 3:0.0 4:2.0 5:0.0 6:4.0 7:1.0 8:0.0 
1.0 0.0 1:0.0 2:0.0 3:0.0 4:1.0 5:1.0 6:4.0 7:3.0 8:0.0 
0.289746077901822 0.0 1:0.0 2:0.0 3:0.0 4:0.0 5:1.0 6:3.0 7:1.0 8:2.0 
1.0 0.1861386223454243 1:0.0 2:0.0 3:0.0 4:0.0 5:1.0 6:6.0 7:1.0 8:1.0 
0.0 1.0 1:0.0 2:0.0 3:0.0 4:1.0 5:0.0 6:1.0 7:0.0 8:0.0 
0.0 1.0 1:0.0 2:0.0 3:0.0 4:2.0 5:0.0 6:3.0 7:0.0 8:0.0 
1.0 0.0 1:0.0 2:0.0 3:0.0 4:3.0 5:3.0 6:4.0 7:1.0 8:2.0 
1.0 1.0 1:1.0 2:0.0 3:0.0 4:0.0 5:1.0 6:3.0 7:0.0 8:2.0 
1.0 1.0 1:0.0 2:0.0 3:0.0 4:1.0 5:0.0 6:4.0 7:2.0 8:1.0 
0.0 1.0 1:0.0 2:0.0 3:0.0 4:1.0 5:0.0 6:0.0 7:0.0 8:1.0 
0.0 1.0 1:1.0 2:2.0 3:0.0 4:2.0 5:1.0 6:4.0 7:2.0 8:0.0 
1.0 0.0 1:0.0 2:0.0 3:0.0 4:2.0 5:1.0 6:3.0 7:0.0 8:2.0 
1.0 1.0 1:0.0 2:0.0 3:0.0 4:1.0 5:0.0 6:0.0 7:2.0 8:0.0 
1.0 1.0 1:0.0 2:0.0 3:0.0 4:0.0 5:0.0 6:8.0 7:3.0 8:0.0 
1.0 1.0 1:0.0 2:0.0 3:0.0 4:2.0 5:0.0 6:5.0 7:4.0 8:1.0 
1.0 0.0 1:0.0 2:0.0 3:0.0 4:0.0 5:0.0 6:4.0 7:1.0 8:1.0 
0.0 1.0 1:0.0 2:0.0 3:0.0 4:1.0 5:0.0 6:2.0 7:2.0 8:0.0 
1.0 1.0 1:0.0 2:0.0 3:0.0 4:2.0 5:1.0 6:1.0 7:2.0 8:1.0 
1.0 1.0 1:0.0 2:0.0 3:0.0 4:2.0 5:0.0 6:4.0 7:1.0 8:0.0 
1.0 1.0 1:0.0 2:0.0 3:0.0 4:2.0 5:2.0 6:7.0 7:1.0 8:2.0 
0.0 1.0 1:0.0 2:0.0 3:0.0 4:3.0 5:0.0 6:6.0 7:4.0 8:0.0 
1.0 1.0 1:0.0 2:0.0 3:0.0 4:6.0 5:0.0 6:2.0 7:0.0 8:0.0 
0.0 1.0 1:0.0 2:0.0 3:0.0 4:1.0 5:0.0 6:4.0 7:0.0 8:1.0 
1.0 0.4690083545256729 1:0.0 2:0.0 3:0.0 4:4.0 5:4.0 6:8.0 7:2.0 8:2.0 
0.18709752719961822 0.0 1:0.0 2:0.0 3:0.0 4:1.0 5:0.0 6:8.0 7:1.0 8:1.0 
1.0 0.0 1:0.0 2:0.0 3:0.0 4:4.0 5:4.0 6:2.0 7:1.0 8:1.0 
0.0 1.0 1:1.0 2:1.0 3:0.0 4:0.0 5:0.0 6:6.0 7:0.0 8:0.0 
1.0 1.0 1:1.0 2:0.0 3:0.0 4:0.0 5:0.0 6:0.0 7:0.0 8:0.0 
1.0 0.21426540124046586 1:0.0 2:0.0 3:0.0 4:1.0 5:1.0 6:3.0 7:2.0 8:3.0 
1.0 0.0 1:0.0 2:0.0 3:0.0 4:6.0 5:4.0 6:6.0 7:0.0 8:0.0 
1.0 1.0 1:0.0 2:0.0 3:0.0 4:3.0 5:0.0 6:5.0 7:0.0 8:1.0 
0.0 1.0 1:0.0 2:0.0 3:0.0 4:2.0 5:3.0 6:1.0 7:1.0 8:0.0 
0.2195063977511813 1.0 1:0.0 2:0.0 3:0.0 4:6.0 5:0.0 6:11.0 7:0.0 8:0.0 
1.0 0.0 1:0.0 2:0.0 3:0.0 4:0.0 5:5.0 6:4.0 7:3.0 8:0.0 
1.0 0.8156799469610226 1:0.0 2:0.0 3:0.0 4:0.0 5:1.0 6:5.0 7:6.0 8:1.0 
0.0 1.0 1:0.0 2:0.0 3:0.0 4:0.0 5:1.0 6:3.0 7:0.0 8:0.0 
0.0 1.0 1:0.0 2:0.0 3:0.0 4:1.0 5:0.0 6:1.0 7:1.0 8:0.0 
0.0 1.0 1:1.0 2:1.0 3:0.0 4:1.0 5:0.0 6:3.0 7:0.0 8:0.0 
1.0 1.0 1:0.0 2:0.0 3:0.0 4:2.0 5:0.0 6:5.0 7:2.0 8:3.0 
0.0 1.0 1:0.0 2:0.0 3:0.0 4:1.0 5:0.0 6:3.0 7:1.0 8:0.0 
0.0 0.7218850296725622 1:0.0 2:0.0 3:0.0 4:1.0 5:0.0 6:9.0 7:1.0 8:0.0 
0.0 0.5793610673182483 1:0.0 2:0.0 3:0.0 4:2.0 5:0.0 6:5.0 7:1.0 8:1.0 
1.0 1.0 1:1.0 2:1.0 3:0.0 4:1.0 5:1.0 6:1.0 7:0.0 8:0.0 
1.0 0.0 1:0.0 2:0.0 3:0.0 4:0.0 5:1.0 6:4.0 7:0.0 8:0.0 
1.0 1.0 1:0.0 2:0.0 3:0.0 4:1.0 5:1.0 6:3.0 7:0.0 8:1.0 
1.0 0.0 1:0.0 2:0.0 3:0.0 4:0.0 5:1.0 6:4.0 7:2.0 8:1.0 
0.07506365726922568 0.0 1:0.0 2:0.0 3:0.0 4:0.0 5:1.0 6:8.0 7:2.0 8:0.0 
1.0 0.0 1:0.0 2:0.0 3:0.0 4:0.0 5:1.0 6:0.0 7:0.0 8:1.0 
1.0 1.0 1:0.0 2:0.0 3:0.0 4:1.0 5:1.0 6:3.0 7:0.0 8:2.0 
1.0 0.0 1:0.0 2:0.0 3:0.0 4:2.0 5:0.0 6:2.0 7:1.0 8:4.0 
0.3001432438676295 0.6707772062650941 1:0.0 2:0.0 3:0.0 4:0.0 5:0.0 6:2.0 7:1.0 8:2.0 
0.1429596652153771 0.0 1:0.0 2:0.0 3:0.0 4:0.0 5:1.0 6:7.0 7:2.0 8:2.0 
1.0 0.0 1:0.0 2:0.0 3:0.0 4:1.0 5:0.0 6:2.0 7:0.0 8:1.0 
0.0 1.0 1:0.0 2:0.0 3:0.0 4:3.0 5:0.0 6:7.0 7:1.0 8:0.0 
0.7050662984507464 1.0 1:0.0 2:0.0 3:0.0 4:1.0 5:0.0 6:2.0 7:2.0 8:0.0 
0.0 1.0 1:0.0 2:0.0 3:0.0 4:1.0 5:0.0 6:3.0 7:1.0 8:0.0 
1.0 0.0 1:0.0 2:0.0 3:0.0 4:0.0 5:3.0 6:2.0 7:0.0 8:2.0 
1.0 1.0 1:0.0 2:0.0 3:0.0 4:0.0 5:1.0 6:6.0 7:1.0 8:0.0 
1.0 0.0 1:0.0 2:0.0 3:0.0 4:3.0 5:2.0 6:5.0 7:2.0 8:1.0 
1.0 1.0 1:0.0 2:0.0 3:0.0 4:2.0 5:0.0 6:0.0 7:2.0 8:0.0 
0.0 1.0 1:0.0 2:0.0 3:0.0 4:2.0 5:0.0 6:5.0 7:0.0 8:0.0 
0.0 1.0 1:0.0 2:0.0 3:0.0 4:1.0 5:1.0 6:10.0 7:2.0 8:1.0 
0.0 1.0 1:0.0 2:0.0 3:0.0 4:3.0 5:0.0 6:2.0 7:0.0 8:0.0 
0.05985193659499366 1.0 1:0.0 2:0.0 3:0.0 4:0.0 5:1.0 6:3.0 7:0.0 8:0.0 
0.0 1.0 1:0.0 2:0.0 3:0.0 4:1.0 5:0.0 6:5.0 7:1.0 8:0.0 
1.0 1.0 1:0.0 2:0.0 3:0.0 4:3.0 5:5.0 6:4.0 7:1.0 8:2.0 
1.0 0.8661326994063077 1:0.0 2:0.0 3:0.0 4:1.0 5:1.0 6:5.0 7:2.0 8:1.0 
1.0 1.0 1:0.0 2:0.0 3:0.0 4:1.0 5:1.0 6:4.0 7:2.0 8:1.0 
0.07344895980626441 1.0 1:0.0 2:0.0 3:0.0 4:3.0 5:0.0 6:10.0 7:1.0 8:1.0 
0.04048252975001142 0.0 1:0.0 2:0.0 3:0.0 4:6.0 5:0.0 6:11.0 7:1.0 8:3.0 
1.0 0.10870600656376733 1:0.0 2:0.0 3:0.0 4:3.0 5:0.0 6:4.0 7:0.0 8:3.0 
1.0 1.0 1:0.0 2:0.0 3:0.0 4:1.0 5:1.0 6:5.0 7:1.0 8:2.0 
0.0 1.0 1:0.0 2:0.0 3:0.0 4:0.0 5:0.0 6:2.0 7:0.0 8:1.0 
1.0 1.0 1:0.0 2:0.0 3:0.0 4:4.0 5:0.0 6:8.0 7:3.0 8:6.0 
1.0 1.0 1:0.0 2:0.0 3:0.0 4:0.0 5:1.0 6:3.0 7:1.0 8:1.0 
1.0 1.0 1:0.0 2:0.0 3:0.0 4:2.0 5:0.0 6:4.0 7:0.0 8:1.0 
1.0 1.0 1:1.0 2:0.0 3:1.0 4:0.0 5:0.0 6:0.0 7:0.0 8:0.0 
1.0 0.0 1:0.0 2:0.0 3:0.0 4:4.0 5:1.0 6:5.0 7:1.0 8:3.0 
1.0 0.0 1:0.0 2:0.0 3:0.0 4:0.0 5:0.0 6:0.0 7:1.0 8:2.0 
1.0 1.0 1:0.0 2:0.0 3:0.0 4:2.0 5:0.0 6:2.0 7:1.0 8:0.0 
0.152889927233329 1.0 1:1.0 2:1.0 3:0.0 4:4.0 5:1.0 6:9.0 7:1.0 8:4.0 
0.0 1.0 1:0.0 2:0.0 3:0.0 4:2.0 5:0.0 6:4.0 7:0.0 8:0.0 
1.0 1.0 1:0.0 2:0.0 3:0.0 4:1.0 5:0.0 6:4.0 7:1.0 8:2.0 
0.0 0.30285248497701345 1:0.0 2:0.0 3:0.0 4:1.0 5:1.0 6:5.0 7:5.0 8:0.0 
0.0 1.0 1:0.0 2:0.0 3:0.0 4:2.0 5:1.0 6:3.0 7:1.0 8:1.0 
1.0 1.0 1:0.0 2:0.0 3:0.0 4:1.0 5:0.0 6:5.0 7:2.0 8:2.0 
0.45999524446550566 1.0 1:0.0 2:0.0 3:0.0 4:2.0 5:0.0 6:1.0 7:0.0 8:0.0 
0.0 1.0 1:0.0 2:0.0 3:0.0 4:2.0 5:0.0 6:2.0 7:0.0 8:0.0 
1.0 0.0 1:0.0 2:0.0 3:0.0 4:0.0 5:0.0 6:0.0 7:0.0 8:1.0 
1.0 1.0 1:0.0 2:0.0 3:0.0 4:2.0 5:1.0 6:2.0 7:0.0 8:0.0 
1.0 0.0 1:0.0 2:0.0 3:0.0 4:2.0 5:2.0 6:4.0 7:1.0 8:2.0 
0.0 1.0 1:0.0 2:0.0 3:0.0 4:4.0 5:0.0 6:8.0 7:1.0 8:0.0 
1.0 0.38881268729073915 1:0.0 2:0.0 3:0.0 4:0.0 5:1.0 6:1.0 7:5.0 8:1.0 
0.0 1.0 1:0.0 2:0.0 3:0.0 4:0.0 5:0.0 6:11.0 7:3.0 8:0.0 
0.0 1.0 1:0.0 2:0.0 3:0.0 4:2.0 5:0.0 6:3.0 7:0.0 8:0.0 
0.0 1.0 1:0.0 2:0.0 3:0.0 4:1.0 5:0.0 6:1.0 7:1.0 8:0.0 
0.0 1.0 1:1.0 2:1.0 3:0.0 4:1.0 5:0.0 6:4.0 7:0.0 8:0.0 
1.0 0.0 1:0.0 2:0.0 3:0.0 4:1.0 5:5.0 6:6.0 7:1.0 8:2.0 
1.0 0.6253153022215284 1:0.0 2:0.0 3:0.0 4:1.0 5:2.0 6:6.0 7:3.0 8:0.0 
1.0 0.0 1:0.0 2:0.0 3:0.0 4:0.0 5:0.0 6:0.0 7:2.0 8:0.0 
0.0 1.0 1:0.0 2:0.0 3:0.0 4:2.0 5:0.0 6:5.0 7:2.0 8:0.0 
1.0 0.0 1:0.0 2:0.0 3:0.0 4:8.0 5:1.0 6:3.0 7:2.0 8:2.0 
0.0 0.9692247807303829 1:0.0 2:0.0 3:0.0 4:2.0 5:0.0 6:9.0 7:0.0 8:1.0 
1.0 0.0 1:0.0 2:0.0 3:0.0 4:1.0 5:1.0 6:4.0 7:3.0 8:4.0 
0.0 0.8355909755200145 1:0.0 2:0.0 3:0.0 4:2.0 5:0.0 6:10.0 7:1.0 8:4.0 
0.0 0.1485110650051857 1:0.0 2:0.0 3:0.0 4:4.0 5:1.0 6:16.0 7:1.0 8:0.0 
0.0 1.0 1:0.0 2:0.0 3:0.0 4:4.0 5:0.0 6:5.0 7:0.0 8:1.0 
0.5954739221330783 1.0 1:0.0 2:0.0 3:0.0 4:0.0 5:0.0 6:11.0 7:7.0 8:1.0 
1.0 1.0 1:0.0 2:0.0 3:0.0 4:2.0 5:2.0 6:3.0 7:4.0 8:0.0 
1.0 1.0 1:0.0 2:0.0 3:0.0 4:2.0 5:0.0 6:3.0 7:4.0 8:0.0 
1.0 1.0 1:0.0 2:0.0 3:0.0 4:1.0 5:1.0 6:5.0 7:2.0 8:1.0 
0.0 1.0 1:0.0 2:0.0 3:0.0 4:1.0 5:0.0 6:1.0 7:0.0 8:0.0 
1.0 1.0 1:0.0 2:0.0 3:0.0 4:2.0 5:1.0 6:7.0 7:0.0 8:4.0 
1.0 0.0 1:0.0 2:0.0 3:0.0 4:2.0 5:1.0 6:6.0 7:4.0 8:4.0 
0.0 0.952947720057071 1:0.0 2:0.0 3:0.0 4:4.0 5:0.0 6:2.0 7:2.0 8:4.0 
0.0 0.0072024446806909235 1:0.0 2:0.0 3:0.0 4:2.0 5:2.0 6:6.0 7:4.0 8:10.0 
1.0 0.0 1:0.0 2:0.0 3:0.0 4:0.0 5:0.0 6:5.0 7:1.0 8:2.0 
1.0 1.0 1:0.0 2:0.0 3:0.0 4:2.0 5:2.0 6:5.0 7:1.0 8:0.0 
1.0 1.0 1:0.0 2:0.0 3:0.0 4:1.0 5:0.0 6:5.0 7:3.0 8:0.0 
0.05885298745638948 1.0 1:0.0 2:0.0 3:0.0 4:3.0 5:1.0 6:1.0 7:0.0 8:0.0 
1.0 1.0 1:0.0 2:0.0 3:0.0 4:1.0 5:1.0 6:2.0 7:2.0 8:0.0 
0.0 1.0 1:0.0 2:0.0 3:0.0 4:2.0 5:1.0 6:5.0 7:1.0 8:0.0 
1.0 0.7061150118495206 1:0.0 2:0.0 3:0.0 4:1.0 5:2.0 6:4.0 7:0.0 8:0.0 
1.0 1.0 1:0.0 2:0.0 3:0.0 4:2.0 5:0.0 6:2.0 7:1.0 8:2.0 
0.0 0.5304738608015784 1:0.0 2:0.0 3:0.0 4:1.0 5:0.0 6:4.0 7:0.0 8:0.0 
1.0 0.6630506231039658 1:0.0 2:0.0 3:0.0 4:0.0 5:2.0 6:6.0 7:3.0 8:1.0 
0.35884608043080396 0.4132944764225747 1:0.0 2:0.0 3:0.0 4:9.0 5:3.0 6:0.0 7:0.0 8:3.0 
1.0 1.0 1:0.0 2:0.0 3:0.0 4:3.0 5:0.0 6:1.0 7:3.0 8:1.0 
0.0 1.0 1:0.0 2:0.0 3:0.0 4:0.0 5:0.0 6:2.0 7:0.0 8:1.0 
1.0 0.0 1:0.0 2:0.0 3:0.0 4:1.0 5:3.0 6:2.0 7:2.0 8:1.0 
1.0 0.0 1:0.0 2:0.0 3:0.0 4:1.0 5:0.0 6:2.0 7:3.0 8:0.0 
1.0 1.0 1:0.0 2:0.0 3:0.0 4:3.0 5:0.0 6:5.0 7:1.0 8:0.0 
1.0 0.0 1:0.0 2:0.0 3:0.0 4:1.0 5:4.0 6:5.0 7:1.0 8:2.0 
0.0 1.0 1:0.0 2:0.0 3:0.0 4:0.0 5:1.0 6:5.0 7:2.0 8:0.0 
1.0 0.0 1:0.0 2:0.0 3:0.0 4:1.0 5:1.0 6:3.0 7:0.0 8:0.0 
0.0 1.0 1:0.0 2:0.0 3:0.0 4:2.0 5:0.0 6:4.0 7:0.0 8:0.0 
1.0 1.0 1:0.0 2:0.0 3:0.0 4:3.0 5:0.0 6:4.0 7:0.0 8:1.0 
1.0 1.0 1:0.0 2:0.0 3:0.0 4:4.0 5:3.0 6:2.0 7:1.0 8:1.0 
0.0 0.5271409559010157 1:0.0 2:0.0 3:0.0 4:0.0 5:3.0 6:8.0 7:2.0 8:1.0 
0.9717511749448556 0.7054147540509219 1:0.0 2:0.0 3:0.0 4:4.0 5:0.0 6:6.0 7:1.0 8:4.0 
0.4705872228238819 0.45871619845239137 1:0.0 2:0.0 3:0.0 4:0.0 5:1.0 6:10.0 7:1.0 8:10.0 
1.0 0.5177540576136642 1:0.0 2:0.0 3:0.0 4:0.0 5:9.0 6:2.0 7:1.0 8:0.0 
0.9756656205500329 1.0 1:0.0 2:0.0 3:0.0 4:3.0 5:0.0 6:0.0 7:2.0 8:0.0 
0.0 1.0 1:0.0 2:0.0 3:0.0 4:1.0 5:0.0 6:6.0 7:1.0 8:0.0 
0.36021709257085466 0.34837221325463136 1:0.0 2:0.0 3:0.0 4:1.0 5:1.0 6:22.0 7:0.0 8:2.0 
1.0 1.0 1:0.0 2:0.0 3:0.0 4:0.0 5:0.0 6:2.0 7:1.0 8:1.0 
1.0 0.4839790909343493 1:0.0 2:0.0 3:0.0 4:10.0 5:2.0 6:6.0 7:1.0 8:3.0 
0.4643392517318328 1.0 1:0.0 2:0.0 3:0.0 4:1.0 5:1.0 6:2.0 7:1.0 8:0.0 
1.0 0.8043417206412226 1:0.0 2:0.0 3:0.0 4:0.0 5:2.0 6:1.0 7:0.0 8:1.0 
0.0 1.0 1:0.0 2:0.0 3:0.0 4:1.0 5:0.0 6:1.0 7:0.0 8:0.0 
1.0 0.32734746970531853 1:0.0 2:0.0 3:0.0 4:1.0 5:2.0 6:8.0 7:4.0 8:1.0 
0.0 1.0 1:0.0 2:0.0 3:0.0 4:3.0 5:0.0 6:2.0 7:0.0 8:0.0 
0.0 1.0 1:1.0 2:1.0 3:0.0 4:1.0 5:0.0 6:7.0 7:0.0 8:0.0 
0.0 1.0 1:0.0 2:0.0 3:0.0 4:6.0 5:0.0 6:4.0 7:0.0 8:1.0 
1.0 0.0 1:0.0 2:0.0 3:0.0 4:2.0 5:1.0 6:2.0 7:0.0 8:2.0 
0.0 0.9594315057705841 1:0.0 2:0.0 3:0.0 4:3.0 5:1.0 6:2.0 7:0.0 8:2.0 
0.0 1.0 1:0.0 2:0.0 3:0.0 4:1.0 5:0.0 6:1.0 7:0.0 8:1.0 
0.0 0.29184379063084853 1:0.0 2:0.0 3:0.0 4:1.0 5:0.0 6:2.0 7:0.0 8:0.0 
1.0 0.0 1:0.0 2:0.0 3:0.0 4:0.0 5:1.0 6:1.0 7:0.0 8:1.0 
1.0 0.0 1:0.0 2:0.0 3:0.0 4:0.0 5:0.0 6:0.0 7:2.0 8:0.0 
1.0 1.0 1:0.0 2:0.0 3:0.0 4:2.0 5:0.0 6:2.0 7:1.0 8:0.0 
1.0 0.0 1:0.0 2:0.0 3:0.0 4:0.0 5:0.0 6:3.0 7:2.0 8:0.0 
1.0 1.0 1:0.0 2:0.0 3:0.0 4:2.0 5:2.0 6:2.0 7:1.0 8:0.0 
0.0 1.0 1:0.0 2:0.0 3:0.0 4:2.0 5:0.0 6:3.0 7:0.0 8:0.0 
1.0 1.0 1:0.0 2:0.0 3:0.0 4:1.0 5:2.0 6:2.0 7:3.0 8:0.0 
1.0 1.0 1:0.0 2:0.0 3:0.0 4:1.0 5:1.0 6:3.0 7:0.0 8:1.0 
0.0 1.0 1:0.0 2:0.0 3:0.0 4:1.0 5:0.0 6:5.0 7:0.0 8:1.0 
0.9466640687168886 0.7333106742074791 1:0.0 2:0.0 3:0.0 4:1.0 5:2.0 6:7.0 7:0.0 8:3.0 
1.0 1.0 1:0.0 2:0.0 3:0.0 4:1.0 5:1.0 6:6.0 7:3.0 8:1.0 
0.0 1.0 1:0.0 2:0.0 3:0.0 4:0.0 5:0.0 6:7.0 7:1.0 8:0.0 
1.0 0.8774698393688982 1:0.0 2:0.0 3:0.0 4:0.0 5:1.0 6:1.0 7:2.0 8:1.0 
1.0 0.0 1:0.0 2:0.0 3:0.0 4:2.0 5:1.0 6:3.0 7:0.0 8:4.0 
1.0 0.0 1:0.0 2:0.0 3:0.0 4:2.0 5:1.0 6:6.0 7:2.0 8:0.0 
1.0 0.0 1:0.0 2:0.0 3:0.0 4:0.0 5:3.0 6:1.0 7:0.0 8:1.0 
0.0 1.0 1:0.0 2:0.0 3:0.0 4:2.0 5:0.0 6:7.0 7:0.0 8:0.0 
1.0 0.0 1:0.0 2:0.0 3:0.0 4:0.0 5:0.0 6:3.0 7:9.0 8:0.0 
1.0 1.0 1:0.0 2:0.0 3:0.0 4:2.0 5:2.0 6:5.0 7:1.0 8:0.0 
1.0 0.0 1:0.0 2:0.0 3:0.0 4:1.0 5:1.0 6:3.0 7:3.0 8:3.0 
0.0 0.8236405935619658 1:0.0 2:0.0 3:0.0 4:2.0 5:0.0 6:7.0 7:3.0 8:0.0 
1.0 1.0 1:1.0 2:1.0 3:0.0 4:1.0 5:1.0 6:3.0 7:1.0 8:1.0 
1.0 0.0 1:0.0 2:0.0 3:0.0 4:1.0 5:2.0 6:3.0 7:1.0 8:1.0 
0.0 1.0 1:0.0 2:0.0 3:0.0 4:2.0 5:0.0 6:5.0 7:1.0 8:0.0 
1.0 0.0 1:0.0 2:0.0 3:0.0 4:3.0 5:1.0 6:2.0 7:1.0 8:2.0 
0.0 0.8044853749439111 1:0.0 2:0.0 3:0.0 4:8.0 5:7.0 6:9.0 7:0.0 8:1.0 
0.0 1.0 1:0.0 2:0.0 3:0.0 4:1.0 5:1.0 6:2.0 7:1.0 8:0.0 
0.0 1.0 1:0.0 2:0.0 3:0.0 4:5.0 5:1.0 6:4.0 7:0.0 8:1.0 
1.0 0.0 1:0.0 2:0.0 3:0.0 4:0.0 5:1.0 6:9.0 7:1.0 8:2.0 
1.0 1.0 1:0.0 2:0.0 3:0.0 4:3.0 5:3.0 6:6.0 7:0.0 8:3.0 
1.0 1.0 1:0.0 2:0.0 3:0.0 4:3.0 5:4.0 6:1.0 7:2.0 8:0.0 
1.0 1.0 1:1.0 2:0.0 3:0.0 4:0.0 5:0.0 6:3.0 7:2.0 8:0.0 
1.0 0.0 1:0.0 2:0.0 3:0.0 4:0.0 5:1.0 6:7.0 7:2.0 8:0.0 
1.0 0.0 1:0.0 2:0.0 3:0.0 4:1.0 5:1.0 6:2.0 7:0.0 8:2.0 
0.0 1.0 1:0.0 2:0.0 3:0.0 4:1.0 5:0.0 6:3.0 7:2.0 8:0.0 
1.0 0.0 1:0.0 2:0.0 3:0.0 4:5.0 5:0.0 6:7.0 7:2.0 8:2.0 
1.0 0.0 1:0.0 2:0.0 3:0.0 4:0.0 5:2.0 6:3.0 7:0.0 8:1.0 
1.0 0.0 1:0.0 2:0.0 3:0.0 4:1.0 5:2.0 6:6.0 7:3.0 8:3.0 
1.0 1.0 1:1.0 2:0.0 3:0.0 4:0.0 5:0.0 6:0.0 7:0.0 8:0.0 
0.0 1.0 1:0.0 2:0.0 3:0.0 4:1.0 5:0.0 6:0.0 7:0.0 8:1.0 
1.0 0.27845519689011716 1:0.0 2:0.0 3:0.0 4:0.0 5:1.0 6:3.0 7:4.0 8:3.0 
0.08123001437667912 0.42781906304869516 1:1.0 2:0.0 3:0.0 4:3.0 5:1.0 6:15.0 7:0.0 8:2.0 
1.0 0.0 1:0.0 2:0.0 3:0.0 4:2.0 5:5.0 6:3.0 7:4.0 8:4.0 
1.0 0.0 1:0.0 2:0.0 3:0.0 4:1.0 5:1.0 6:1.0 7:0.0 8:1.0 
1.0 0.0 1:0.0 2:0.0 3:0.0 4:1.0 5:2.0 6:0.0 7:1.0 8:0.0 
1.0 0.06155034148233449 1:0.0 2:0.0 3:0.0 4:3.0 5:2.0 6:6.0 7:2.0 8:1.0 
1.0 0.0 1:0.0 2:0.0 3:0.0 4:0.0 5:0.0 6:0.0 7:1.0 8:1.0 
1.0 1.0 1:0.0 2:0.0 3:0.0 4:2.0 5:0.0 6:3.0 7:3.0 8:0.0 
1.0 0.020163922458943665 1:0.0 2:0.0 3:0.0 4:1.0 5:0.0 6:6.0 7:3.0 8:0.0 
0.15462537157973644 0.0 1:0.0 2:0.0 3:0.0 4:2.0 5:0.0 6:5.0 7:0.0 8:1.0 
0.24644723209424504 1.0 1:0.0 2:0.0 3:0.0 4:6.0 5:1.0 6:8.0 7:6.0 8:0.0 
0.1755652011081644 0.0 1:0.0 2:0.0 3:0.0 4:0.0 5:1.0 6:10.0 7:5.0 8:0.0 
0.0 1.0 1:0.0 2:0.0 3:0.0 4:2.0 5:0.0 6:5.0 7:0.0 8:0.0 
1.0 1.0 1:0.0 2:0.0 3:0.0 4:2.0 5:0.0 6:6.0 7:4.0 8:1.0 
0.0 1.0 1:0.0 2:0.0 3:0.0 4:1.0 5:0.0 6:4.0 7:0.0 8:1.0 
1.0 0.0 1:0.0 2:0.0 3:0.0 4:2.0 5:1.0 6:5.0 7:2.0 8:2.0 
1.0 1.0 1:0.0 2:0.0 3:0.0 4:3.0 5:0.0 6:3.0 7:0.0 8:3.0 
1.0 1.0 1:1.0 2:0.0 3:0.0 4:4.0 5:0.0 6:4.0 7:1.0 8:0.0 
0.0 0.6965481973350994 1:0.0 2:0.0 3:0.0 4:0.0 5:2.0 6:10.0 7:2.0 8:0.0 
0.0 1.0 1:0.0 2:0.0 3:0.0 4:2.0 5:0.0 6:4.0 7:0.0 8:0.0 
1.0 0.0 1:0.0 2:0.0 3:0.0 4:0.0 5:0.0 6:1.0 7:2.0 8:2.0 
0.0 0.44569155589703446 1:0.0 2:0.0 3:0.0 4:0.0 5:0.0 6:0.0 7:0.0 8:4.0 
0.0 1.0 1:0.0 2:0.0 3:0.0 4:1.0 5:0.0 6:2.0 7:1.0 8:0.0 
1.0 1.0 1:0.0 2:0.0 3:0.0 4:1.0 5:0.0 6:3.0 7:2.0 8:2.0 
1.0 1.0 1:0.0 2:0.0 3:0.0 4:1.0 5:1.0 6:4.0 7:0.0 8:1.0 
1.0 0.0 1:0.0 2:0.0 3:0.0 4:1.0 5:0.0 6:3.0 7:2.0 8:1.0 
0.0 0.7581877254094619 1:0.0 2:0.0 3:0.0 4:1.0 5:0.0 6:5.0 7:0.0 8:1.0 
0.51416841397179 0.5605123168325186 1:0.0 2:0.0 3:0.0 4:6.0 5:2.0 6:4.0 7:5.0 8:0.0 
0.4817956811240683 1.0 1:0.0 2:0.0 3:0.0 4:1.0 5:3.0 6:7.0 7:4.0 8:0.0 
1.0 1.0 1:0.0 2:0.0 3:0.0 4:4.0 5:2.0 6:5.0 7:1.0 8:0.0 
1.0 1.0 1:0.0 2:0.0 3:0.0 4:2.0 5:0.0 6:5.0 7:3.0 8:1.0 
0.9236050915954095 1.0 1:0.0 2:0.0 3:0.0 4:9.0 5:4.0 6:8.0 7:0.0 8:1.0 
0.299098227316831 1.0 1:0.0 2:0.0 3:0.0 4:4.0 5:0.0 6:4.0 7:0.0 8:1.0 
0.0 1.0 1:1.0 2:1.0 3:0.0 4:1.0 5:0.0 6:3.0 7:1.0 8:0.0 
1.0 1.0 1:1.0 2:0.0 3:0.0 4:1.0 5:0.0 6:3.0 7:0.0 8:2.0 
0.0 0.15463904142946078 1:0.0 2:0.0 3:0.0 4:2.0 5:0.0 6:7.0 7:0.0 8:2.0 
1.0 0.2874129488356202 1:0.0 2:0.0 3:0.0 4:6.0 5:3.0 6:1.0 7:1.0 8:3.0 
0.0 0.8203666341954122 1:0.0 2:0.0 3:0.0 4:1.0 5:0.0 6:8.0 7:1.0 8:0.0 
0.0 1.0 1:0.0 2:0.0 3:0.0 4:0.0 5:0.0 6:7.0 7:1.0 8:0.0 
1.0 1.0 1:0.0 2:0.0 3:0.0 4:2.0 5:0.0 6:3.0 7:1.0 8:1.0 
1.0 1.0 1:0.0 2:0.0 3:0.0 4:0.0 5:0.0 6:1.0 7:1.0 8:1.0 
1.0 1.0 1:0.0 2:0.0 3:0.0 4:2.0 5:1.0 6:2.0 7:0.0 8:0.0 
0.0 1.0 1:0.0 2:0.0 3:0.0 4:3.0 5:0.0 6:0.0 7:0.0 8:0.0 
0.0 1.0 1:0.0 2:0.0 3:0.0 4:1.0 5:0.0 6:2.0 7:1.0 8:0.0 
1.0 1.0 1:1.0 2:0.0 3:0.0 4:1.0 5:0.0 6:1.0 7:1.0 8:0.0 
1.0 1.0 1:0.0 2:0.0 3:0.0 4:3.0 5:2.0 6:4.0 7:2.0 8:1.0 
0.0 0.6118754247194639 1:0.0 2:0.0 3:0.0 4:5.0 5:1.0 6:6.0 7:1.0 8:2.0 
0.0 1.0 1:0.0 2:0.0 3:0.0 4:1.0 5:0.0 6:2.0 7:1.0 8:0.0 
0.0492484883337799 0.9863714461262935 1:0.0 2:0.0 3:0.0 4:2.0 5:0.0 6:9.0 7:1.0 8:3.0 
1.0 1.0 1:0.0 2:0.0 3:0.0 4:2.0 5:2.0 6:5.0 7:2.0 8:0.0 
1.0 0.0 1:0.0 2:0.0 3:0.0 4:2.0 5:0.0 6:5.0 7:0.0 8:1.0 
1.0 1.0 1:1.0 2:0.0 3:0.0 4:1.0 5:0.0 6:5.0 7:1.0 8:1.0 
0.0 0.2171714422266304 1:0.0 2:0.0 3:0.0 4:1.0 5:1.0 6:8.0 7:0.0 8:0.0 
0.0 1.0 1:0.0 2:0.0 3:0.0 4:1.0 5:0.0 6:3.0 7:1.0 8:0.0 
0.0 1.0 1:0.0 2:0.0 3:0.0 4:4.0 5:0.0 6:10.0 7:0.0 8:1.0 
1.0 1.0 1:0.0 2:0.0 3:0.0 4:1.0 5:0.0 6:1.0 7:3.0 8:0.0 
0.0 1.0 1:0.0 2:0.0 3:0.0 4:1.0 5:0.0 6:2.0 7:0.0 8:0.0 
0.8085577354489193 1.0 1:0.0 2:0.0 3:0.0 4:1.0 5:0.0 6:9.0 7:0.0 8:0.0 
1.0 0.0 1:0.0 2:0.0 3:0.0 4:6.0 5:2.0 6:5.0 7:1.0 8:2.0 
1.0 1.0 1:0.0 2:0.0 3:0.0 4:1.0 5:0.0 6:1.0 7:1.0 8:1.0 
0.0 1.0 1:0.0 2:0.0 3:0.0 4:1.0 5:0.0 6:1.0 7:0.0 8:0.0 
1.0 1.0 1:1.0 2:1.0 3:2.0 4:2.0 5:1.0 6:5.0 7:4.0 8:3.0 
0.8464480304472332 0.0 1:0.0 2:0.0 3:0.0 4:2.0 5:7.0 6:10.0 7:2.0 8:2.0 
1.0 0.0 1:0.0 2:0.0 3:0.0 4:2.0 5:1.0 6:2.0 7:0.0 8:2.0 
0.0 0.01151103430970038 1:0.0 2:0.0 3:0.0 4:11.0 5:4.0 6:25.0 7:1.0 8:2.0 
1.0 1.0 1:1.0 2:1.0 3:0.0 4:0.0 5:0.0 6:0.0 7:1.0 8:0.0 
0.24837941890649654 0.5830467100025195 1:0.0 2:0.0 3:0.0 4:8.0 5:7.0 6:10.0 7:0.0 8:1.0 
0.0 1.0 1:0.0 2:0.0 3:0.0 4:3.0 5:0.0 6:3.0 7:1.0 8:0.0 
0.0 1.0 1:0.0 2:0.0 3:0.0 4:3.0 5:0.0 6:0.0 7:0.0 8:0.0 
1.0 0.8074343222332859 1:0.0 2:0.0 3:0.0 4:1.0 5:2.0 6:4.0 7:6.0 8:0.0 
0.0 0.5960897806933102 1:0.0 2:0.0 3:0.0 4:0.0 5:0.0 6:1.0 7:1.0 8:0.0 
0.0 1.0 1:0.0 2:0.0 3:0.0 4:1.0 5:0.0 6:2.0 7:0.0 8:0.0 
0.0 1.0 1:0.0 2:0.0 3:0.0 4:7.0 5:0.0 6:2.0 7:1.0 8:0.0 
1.0 1.0 1:0.0 2:0.0 3:0.0 4:2.0 5:1.0 6:8.0 7:1.0 8:0.0 
0.0 0.2677579494627852 1:0.0 2:0.0 3:0.0 4:0.0 5:2.0 6:3.0 7:0.0 8:3.0 
1.0 0.0 1:0.0 2:0.0 3:0.0 4:0.0 5:2.0 6:3.0 7:1.0 8:0.0 
1.0 0.0 1:0.0 2:0.0 3:0.0 4:1.0 5:2.0 6:6.0 7:0.0 8:2.0 
0.5837221066343539 0.0 1:0.0 2:0.0 3:0.0 4:1.0 5:5.0 6:7.0 7:1.0 8:5.0 
1.0 0.0 1:0.0 2:0.0 3:0.0 4:0.0 5:1.0 6:4.0 7:0.0 8:0.0 
1.0 0.0 1:0.0 2:0.0 3:0.0 4:0.0 5:0.0 6:0.0 7:1.0 8:0.0 
1.0 0.6121704796661072 1:0.0 2:0.0 3:0.0 4:1.0 5:2.0 6:5.0 7:8.0 8:1.0 
1.0 0.14549103763146767 1:0.0 2:0.0 3:0.0 4:0.0 5:1.0 6:0.0 7:0.0 8:4.0 
1.0 1.0 1:0.0 2:0.0 3:0.0 4:2.0 5:0.0 6:3.0 7:1.0 8:1.0 
0.4820381263206115 0.5108860841090465 1:0.0 2:0.0 3:0.0 4:4.0 5:9.0 6:12.0 7:1.0 8:0.0 
0.0 1.0 1:0.0 2:0.0 3:0.0 4:1.0 5:0.0 6:4.0 7:0.0 8:1.0 
1.0 1.0 1:0.0 2:0.0 3:0.0 4:1.0 5:0.0 6:3.0 7:4.0 8:1.0 
1.0 1.0 1:0.0 2:0.0 3:0.0 4:0.0 5:0.0 6:7.0 7:5.0 8:3.0 
0.0 1.0 1:1.0 2:1.0 3:0.0 4:0.0 5:0.0 6:5.0 7:1.0 8:0.0 
0.0 1.0 1:0.0 2:0.0 3:0.0 4:4.0 5:0.0 6:5.0 7:0.0 8:0.0 
1.0 1.0 1:0.0 2:0.0 3:0.0 4:2.0 5:6.0 6:5.0 7:2.0 8:1.0 
1.0 1.0 1:0.0 2:0.0 3:0.0 4:4.0 5:0.0 6:6.0 7:1.0 8:0.0 
0.0 0.5551448576936412 1:0.0 2:0.0 3:0.0 4:1.0 5:0.0 6:4.0 7:1.0 8:0.0 
1.0 1.0 1:0.0 2:0.0 3:0.0 4:1.0 5:1.0 6:4.0 7:0.0 8:1.0 
0.0 1.0 1:0.0 2:0.0 3:0.0 4:1.0 5:0.0 6:3.0 7:1.0 8:0.0 
1.0 0.3604137194523773 1:0.0 2:0.0 3:0.0 4:0.0 5:1.0 6:0.0 7:2.0 8:0.0 
0.0 1.0 1:0.0 2:0.0 3:0.0 4:4.0 5:0.0 6:7.0 7:0.0 8:0.0 
1.0 0.0 1:0.0 2:0.0 3:0.0 4:1.0 5:2.0 6:2.0 7:1.0 8:1.0 
1.0 1.0 1:0.0 2:0.0 3:0.0 4:6.0 5:1.0 6:0.0 7:0.0 8:0.0 
0.0 1.0 1:0.0 2:0.0 3:0.0 4:1.0 5:1.0 6:4.0 7:0.0 8:0.0 
1.0 1.0 1:0.0 2:0.0 3:0.0 4:0.0 5:0.0 6:1.0 7:3.0 8:0.0 
1.0 1.0 1:1.0 2:0.0 3:0.0 4:0.0 5:0.0 6:8.0 7:1.0 8:1.0 
0.0 1.0 1:0.0 2:0.0 3:0.0 4:3.0 5:0.0 6:4.0 7:0.0 8:0.0 
0.7971189708319439 0.0 1:0.0 2:0.0 3:0.0 4:0.0 5:0.0 6:2.0 7:6.0 8:1.0 
1.0 0.0 1:0.0 2:0.0 3:0.0 4:1.0 5:0.0 6:2.0 7:2.0 8:1.0 
0.06491282783989832 0.8974331100837342 1:0.0 2:0.0 3:0.0 4:1.0 5:0.0 6:10.0 7:0.0 8:0.0 
1.0 1.0 1:0.0 2:0.0 3:0.0 4:1.0 5:4.0 6:5.0 7:0.0 8:1.0 
1.0 0.0 1:0.0 2:0.0 3:0.0 4:0.0 5:0.0 6:3.0 7:2.0 8:0.0 
0.0 1.0 1:0.0 2:0.0 3:0.0 4:2.0 5:0.0 6:8.0 7:0.0 8:1.0 
0.0 1.0 1:0.0 2:0.0 3:0.0 4:1.0 5:0.0 6:6.0 7:1.0 8:0.0 
1.0 1.0 1:0.0 2:0.0 3:0.0 4:0.0 5:3.0 6:1.0 7:1.0 8:0.0 
1.0 1.0 1:0.0 2:0.0 3:0.0 4:0.0 5:1.0 6:0.0 7:0.0 8:2.0 
0.0 1.0 1:0.0 2:0.0 3:0.0 4:1.0 5:0.0 6:2.0 7:1.0 8:0.0 
1.0 1.0 1:1.0 2:1.0 3:0.0 4:0.0 5:2.0 6:2.0 7:1.0 8:1.0 
1.0 0.0 1:0.0 2:0.0 3:0.0 4:0.0 5:3.0 6:5.0 7:3.0 8:0.0 
1.0 0.0 1:0.0 2:0.0 3:0.0 4:2.0 5:2.0 6:3.0 7:0.0 8:2.0 
0.0 1.0 1:0.0 2:0.0 3:0.0 4:2.0 5:1.0 6:4.0 7:0.0 8:1.0 
0.0 0.6265695526337042 1:0.0 2:0.0 3:0.0 4:0.0 5:5.0 6:2.0 7:0.0 8:0.0 
0.3346987833455209 0.35261914547641754 1:1.0 2:0.0 3:0.0 4:14.0 5:0.0 6:22.0 7:1.0 8:2.0 
0.0 1.0 1:0.0 2:0.0 3:0.0 4:2.0 5:0.0 6:3.0 7:0.0 8:2.0 
1.0 0.0 1:0.0 2:0.0 3:0.0 4:1.0 5:1.0 6:3.0 7:0.0 8:0.0 
0.22684539045809693 0.0 1:0.0 2:0.0 3:0.0 4:0.0 5:0.0 6:9.0 7:0.0 8:1.0 
0.0 0.3694272651824851 1:0.0 2:0.0 3:0.0 4:1.0 5:0.0 6:12.0 7:8.0 8:0.0 
1.0 0.9374581060735576 1:0.0 2:0.0 3:0.0 4:4.0 5:3.0 6:14.0 7:1.0 8:0.0 
1.0 1.0 1:0.0 2:0.0 3:0.0 4:1.0 5:0.0 6:1.0 7:2.0 8:0.0 
1.0 1.0 1:1.0 2:0.0 3:0.0 4:0.0 5:0.0 6:2.0 7:1.0 8:0.0 
1.0 0.0 1:0.0 2:0.0 3:0.0 4:0.0 5:0.0 6:2.0 7:4.0 8:1.0 
0.0 1.0 1:0.0 2:0.0 3:0.0 4:0.0 5:0.0 6:7.0 7:1.0 8:0.0 
1.0 1.0 1:0.0 2:0.0 3:0.0 4:0.0 5:1.0 6:1.0 7:1.0 8:1.0 
0.9794667372170919 0.0 1:0.0 2:0.0 3:0.0 4:0.0 5:0.0 6:1.0 7:0.0 8:5.0 
0.5935342433381021 1.0 1:0.0 2:0.0 3:0.0 4:3.0 5:0.0 6:4.0 7:2.0 8:0.0 
1.0 1.0 1:0.0 2:0.0 3:0.0 4:1.0 5:0.0 6:1.0 7:3.0 8:0.0 
1.0 1.0 1:0.0 2:0.0 3:0.0 4:1.0 5:2.0 6:4.0 7:3.0 8:1.0 
0.6452360915535185 1.0 1:0.0 2:0.0 3:0.0 4:3.0 5:0.0 6:4.0 7:1.0 8:0.0 
0.36599793201787895 0.0 1:0.0 2:0.0 3:0.0 4:0.0 5:0.0 6:6.0 7:0.0 8:2.0 
1.0 0.0 1:0.0 2:0.0 3:0.0 4:2.0 5:0.0 6:5.0 7:0.0 8:1.0 
0.0 0.21417567564426285 1:0.0 2:0.0 3:0.0 4:2.0 5:0.0 6:6.0 7:0.0 8:0.0 
1.0 1.0 1:0.0 2:0.0 3:0.0 4:2.0 5:1.0 6:2.0 7:2.0 8:0.0 
1.0 1.0 1:0.0 2:0.0 3:0.0 4:0.0 5:1.0 6:5.0 7:1.0 8:0.0 
1.0 0.905093935370286 1:0.0 2:0.0 3:0.0 4:2.0 5:0.0 6:7.0 7:1.0 8:5.0 
1.0 1.0 1:1.0 2:0.0 3:3.0 4:0.0 5:0.0 6:1.0 7:0.0 8:0.0 
1.0 0.0 1:0.0 2:0.0 3:0.0 4:1.0 5:1.0 6:9.0 7:1.0 8:1.0 
0.46514624363108925 0.43953357689023903 1:0.0 2:0.0 3:0.0 4:4.0 5:0.0 6:19.0 7:0.0 8:1.0 
1.0 1.0 1:0.0 2:0.0 3:0.0 4:4.0 5:1.0 6:6.0 7:1.0 8:1.0 
1.0 1.0 1:0.0 2:0.0 3:0.0 4:2.0 5:0.0 6:1.0 7:1.0 8:2.0 
1.0 0.0 1:0.0 2:0.0 3:0.0 4:2.0 5:2.0 6:3.0 7:0.0 8:1.0 
1.0 1.0 1:0.0 2:0.0 3:0.0 4:2.0 5:1.0 6:4.0 7:1.0 8:0.0 
0.0 1.0 1:0.0 2:0.0 3:0.0 4:2.0 5:0.0 6:5.0 7:0.0 8:0.0 
1.0 1.0 1:0.0 2:0.0 3:0.0 4:1.0 5:0.0 6:1.0 7:1.0 8:0.0 
0.0 1.0 1:0.0 2:0.0 3:0.0 4:1.0 5:0.0 6:6.0 7:1.0 8:0.0 
1.0 1.0 1:0.0 2:0.0 3:0.0 4:3.0 5:1.0 6:2.0 7:0.0 8:0.0 
1.0 0.0 1:0.0 2:0.0 3:0.0 4:2.0 5:0.0 6:8.0 7:1.0 8:1.0 
0.0 1.0 1:0.0 2:0.0 3:0.0 4:0.0 5:2.0 6:2.0 7:0.0 8:0.0 
1.0 0.0 1:0.0 2:0.0 3:0.0 4:5.0 5:2.0 6:6.0 7:1.0 8:1.0 
1.0 0.0 1:0.0 2:0.0 3:0.0 4:0.0 5:1.0 6:1.0 7:0.0 8:0.0 
1.0 1.0 1:0.0 2:0.0 3:0.0 4:3.0 5:1.0 6:6.0 7:0.0 8:1.0 
1.0 1.0 1:0.0 2:0.0 3:0.0 4:1.0 5:0.0 6:6.0 7:0.0 8:2.0 
0.2411703047295787 1.0 1:0.0 2:0.0 3:0.0 4:2.0 5:0.0 6:7.0 7:0.0 8:2.0 
0.0 0.36393933098169395 1:0.0 2:0.0 3:0.0 4:1.0 5:1.0 6:2.0 7:0.0 8:0.0 
1.0 1.0 1:0.0 2:0.0 3:0.0 4:2.0 5:3.0 6:2.0 7:1.0 8:0.0 
0.0 1.0 1:0.0 2:0.0 3:0.0 4:1.0 5:0.0 6:3.0 7:1.0 8:0.0 
0.0 1.0 1:0.0 2:0.0 3:0.0 4:1.0 5:0.0 6:2.0 7:0.0 8:0.0 
1.0 1.0 1:0.0 2:0.0 3:0.0 4:1.0 5:0.0 6:3.0 7:0.0 8:1.0 
1.0 0.0 1:0.0 2:0.0 3:0.0 4:1.0 5:1.0 6:0.0 7:0.0 8:1.0 
0.0 1.0 1:0.0 2:0.0 3:0.0 4:0.0 5:1.0 6:4.0 7:1.0 8:0.0 
1.0 0.0 1:0.0 2:0.0 3:0.0 4:0.0 5:2.0 6:4.0 7:4.0 8:1.0 
1.0 0.0 1:0.0 2:0.0 3:0.0 4:1.0 5:1.0 6:3.0 7:0.0 8:0.0 
1.0 0.0 1:0.0 2:0.0 3:0.0 4:0.0 5:0.0 6:9.0 7:3.0 8:3.0 
1.0 1.0 1:0.0 2:0.0 3:0.0 4:0.0 5:2.0 6:0.0 7:0.0 8:0.0 
